J48 pruned tree
------------------

bin17 <= 59
|   bin21 <= 95: NO (5.0/1.0)
|   bin21 > 95: YES (33.0/1.0)
bin17 > 59
|   bin1 <= 157: NO (30.0)
|   bin1 > 157
|   |   bin13 <= 84: YES (3.0)
|   |   bin13 > 84
|   |   |   bin12 <= 117: NO (10.0)
|   |   |   bin12 > 117
|   |   |   |   bin18 <= 114: YES (5.0/1.0)
|   |   |   |   bin18 > 114: NO (4.0)

Number of Leaves  : 	7

Size of the tree : 	13
J48 pruned tree
------------------

bin24 <= 100
|   bin21 <= 95: NO (9.0/1.0)
|   bin21 > 95: YES (40.0/6.0)
bin24 > 100
|   bin20 <= 120: NO (25.0)
|   bin20 > 120
|   |   bin9 <= 117
|   |   |   bin9 <= 107: NO (5.0/1.0)
|   |   |   bin9 > 107: YES (4.0)
|   |   bin9 > 117: NO (7.0)

Number of Leaves  : 	6

Size of the tree : 	11
J48 pruned tree
------------------

bin15 <= 97
|   bin10 <= 156
|   |   bin10 <= 137
|   |   |   bin21 <= 96: NO (4.0)
|   |   |   bin21 > 96
|   |   |   |   bin5 <= 116
|   |   |   |   |   bin8 <= 103: YES (4.0)
|   |   |   |   |   bin8 > 103: NO (6.0/1.0)
|   |   |   |   bin5 > 116: YES (6.0)
|   |   bin10 > 137: YES (23.0)
|   bin10 > 156: NO (4.0)
bin15 > 97
|   bin19 <= 151: NO (30.0)
|   bin19 > 151
|   |   bin7 <= 143: YES (5.0)
|   |   bin7 > 143: NO (8.0/1.0)

Number of Leaves  : 	9

Size of the tree : 	17
J48 pruned tree
------------------

bin18 <= 117
|   bin21 <= 94: NO (13.0)
|   bin21 > 94
|   |   bin7 <= 141: YES (46.0/8.0)
|   |   bin7 > 141: NO (8.0/1.0)
bin18 > 117: NO (23.0/1.0)

Number of Leaves  : 	4

Size of the tree : 	7
J48 pruned tree
------------------

bin15 <= 97
|   bin10 <= 156
|   |   bin21 <= 95: NO (5.0/1.0)
|   |   bin21 > 95
|   |   |   bin8 <= 101: YES (25.0)
|   |   |   bin8 > 101
|   |   |   |   bin6 <= 107
|   |   |   |   |   bin14 <= 71: NO (4.0)
|   |   |   |   |   bin14 > 71: YES (3.0/1.0)
|   |   |   |   bin6 > 107: YES (6.0)
|   bin10 > 156: NO (4.0)
bin15 > 97
|   bin20 <= 122: NO (27.0)
|   bin20 > 122
|   |   bin8 <= 110: YES (4.0)
|   |   bin8 > 110
|   |   |   bin19 <= 157: NO (9.0)
|   |   |   bin19 > 157: YES (3.0/1.0)

Number of Leaves  : 	10

Size of the tree : 	19
J48 pruned tree
------------------

bin15 <= 97
|   bin21 <= 94: NO (3.0)
|   bin21 > 94
|   |   bin14 <= 63
|   |   |   bin15 <= 23
|   |   |   |   bin15 <= 19: YES (2.0)
|   |   |   |   bin15 > 19: NO (2.0)
|   |   |   bin15 > 23: YES (33.0)
|   |   bin14 > 63
|   |   |   bin14 <= 68: NO (4.0)
|   |   |   bin14 > 68: YES (9.0/1.0)
bin15 > 97
|   bin19 <= 125: NO (20.0)
|   bin19 > 125
|   |   bin11 <= 140
|   |   |   bin20 <= 123: NO (8.0)
|   |   |   bin20 > 123
|   |   |   |   bin2 <= 133: YES (2.0)
|   |   |   |   bin2 > 133: NO (2.0)
|   |   bin11 > 140: YES (5.0)

Number of Leaves  : 	11

Size of the tree : 	21
J48 pruned tree
------------------

bin1 <= 157
|   bin17 <= 112
|   |   bin12 <= 103: YES (3.0)
|   |   bin12 > 103: NO (4.0)
|   bin17 > 112: NO (23.0)
bin1 > 157
|   bin2 <= 108: NO (5.0)
|   bin2 > 108
|   |   bin21 <= 95
|   |   |   bin2 <= 122: YES (2.0)
|   |   |   bin2 > 122: NO (4.0)
|   |   bin21 > 95
|   |   |   bin7 <= 141
|   |   |   |   bin10 <= 129
|   |   |   |   |   bin13 <= 85: YES (8.0)
|   |   |   |   |   bin13 > 85: NO (2.0)
|   |   |   |   bin10 > 129: YES (36.0)
|   |   |   bin7 > 141: NO (3.0/1.0)

Number of Leaves  : 	10

Size of the tree : 	19
J48 pruned tree
------------------

bin24 <= 84: YES (44.0/5.0)
bin24 > 84
|   bin14 <= 159
|   |   bin11 <= 140: NO (22.0/5.0)
|   |   bin11 > 140: YES (7.0/1.0)
|   bin14 > 159: NO (17.0)

Number of Leaves  : 	4

Size of the tree : 	7
J48 pruned tree
------------------

bin1 <= 157
|   bin17 <= 112
|   |   bin12 <= 103: YES (3.0)
|   |   bin12 > 103: NO (2.0)
|   bin17 > 112: NO (22.0)
bin1 > 157
|   bin7 <= 141
|   |   bin12 <= 94: NO (3.0)
|   |   bin12 > 94: YES (52.0/6.0)
|   bin7 > 141: NO (8.0/1.0)

Number of Leaves  : 	6

Size of the tree : 	11
J48 pruned tree
------------------

bin1 <= 156
|   bin12 <= 105
|   |   bin3 <= 71: NO (2.0)
|   |   bin3 > 71: YES (3.0)
|   bin12 > 105: NO (20.0)
bin1 > 156
|   bin7 <= 141
|   |   bin21 <= 95
|   |   |   bin12 <= 101: NO (6.0)
|   |   |   bin12 > 101: YES (2.0)
|   |   bin21 > 95: YES (48.0/4.0)
|   bin7 > 141: NO (9.0/1.0)

Number of Leaves  : 	7

Size of the tree : 	13
Logistic model tree 
------------------
: LM_1:4/4 (90)

Number of Leaves  : 	1

Size of the Tree : 	1
LM_1:
Class 0 :
-1.03 + 
[bin2] * 0.01 +
[bin15] * -0 +
[bin20] * 0.01 +
[bin23] * -0.02

Class 1 :
1.03 + 
[bin2] * -0.01 +
[bin15] * 0    +
[bin20] * -0.01 +
[bin23] * 0.02
Logistic model tree 
------------------
: LM_1:3/3 (90)

Number of Leaves  : 	1

Size of the Tree : 	1
LM_1:
Class 0 :
-0.07 + 
[bin17] * -0.01 +
[bin20] * 0.01 +
[bin23] * -0.01

Class 1 :
0.07 + 
[bin17] * 0.01 +
[bin20] * -0.01 +
[bin23] * 0.01
Logistic model tree 
------------------
: LM_1:8/8 (90)

Number of Leaves  : 	1

Size of the Tree : 	1
LM_1:
Class 0 :
-1.07 + 
[bin1] * 0.01 +
[bin8] * -0.01 +
[bin12] * 0.01 +
[bin15] * -0.01 +
[bin16] * -0 +
[bin20] * 0.01 +
[bin21] * 0.01 +
[bin23] * -0

Class 1 :
1.07 + 
[bin1] * -0.01 +
[bin8] * 0.01 +
[bin12] * -0.01 +
[bin15] * 0.01 +
[bin16] * 0    +
[bin20] * -0.01 +
[bin21] * -0.01 +
[bin23] * 0   
Logistic model tree 
------------------
: LM_1:5/5 (90)

Number of Leaves  : 	1

Size of the Tree : 	1
LM_1:
Class 0 :
-1.1 + 
[bin3] * 0.01 +
[bin7] * -0.01 +
[bin15] * -0.01 +
[bin19] * 0.02

Class 1 :
1.1  + 
[bin3] * -0.01 +
[bin7] * 0.01 +
[bin15] * 0.01 +
[bin19] * -0.02
Logistic model tree 
------------------
: LM_1:8/8 (90)

Number of Leaves  : 	1

Size of the Tree : 	1
LM_1:
Class 0 :
-1.62 + 
[bin3] * 0.01 +
[bin4] * -0 +
[bin7] * -0.01 +
[bin15] * -0.01 +
[bin19] * 0.02

Class 1 :
1.62 + 
[bin3] * -0.01 +
[bin4] * 0    +
[bin7] * 0.01 +
[bin15] * 0.01 +
[bin19] * -0.02
Logistic model tree 
------------------
: LM_1:6/6 (90)

Number of Leaves  : 	1

Size of the Tree : 	1
LM_1:
Class 0 :
-0.52 + 
[bin2] * 0.01 +
[bin7] * -0.01 +
[bin15] * -0.01 +
[bin17] * -0 +
[bin19] * 0.01 +
[bin21] * 0.01

Class 1 :
0.52 + 
[bin2] * -0.01 +
[bin7] * 0.01 +
[bin15] * 0.01 +
[bin17] * 0    +
[bin19] * -0.01 +
[bin21] * -0.01
Logistic model tree 
------------------
: LM_1:5/5 (90)

Number of Leaves  : 	1

Size of the Tree : 	1
LM_1:
Class 0 :
-0.7 + 
[bin17] * -0.01 +
[bin20] * 0.02 +
[bin23] * -0.01 +
[bin26] * -0

Class 1 :
0.7  + 
[bin17] * 0.01 +
[bin20] * -0.02 +
[bin23] * 0.01 +
[bin26] * 0   
Logistic model tree 
------------------
: LM_1:5/5 (90)

Number of Leaves  : 	1

Size of the Tree : 	1
LM_1:
Class 0 :
-1.24 + 
[bin1] * 0.01 +
[bin15] * -0.01 +
[bin20] * 0.01 +
[bin21] * 0.01 +
[bin23] * -0

Class 1 :
1.24 + 
[bin1] * -0.01 +
[bin15] * 0.01 +
[bin20] * -0.01 +
[bin21] * -0.01 +
[bin23] * 0   
Logistic model tree 
------------------
: LM_1:7/7 (90)

Number of Leaves  : 	1

Size of the Tree : 	1
LM_1:
Class 0 :
-0.41 + 
[bin1] * 0.01 +
[bin3] * 0.01 +
[bin6] * -0.01 +
[bin7] * -0.01 +
[bin15] * -0.01 +
[bin19] * 0.01 +
[bin21] * 0.01

Class 1 :
0.41 + 
[bin1] * -0.01 +
[bin3] * -0.01 +
[bin6] * 0.01 +
[bin7] * 0.01 +
[bin15] * 0.01 +
[bin19] * -0.01 +
[bin21] * -0.01
Logistic model tree 
------------------
: LM_1:5/5 (90)

Number of Leaves  : 	1

Size of the Tree : 	1
LM_1:
Class 0 :
-0.4 + 
[bin3] * 0.01 +
[bin7] * -0.01 +
[bin15] * -0.01 +
[bin19] * 0.01

Class 1 :
0.4  + 
[bin3] * -0.01 +
[bin7] * 0.01 +
[bin15] * 0.01 +
[bin19] * -0.01

RandomTree
==========

bin26 < 76.5
|   bin21 < 94.5 : NO (6/0)
|   bin21 >= 94.5
|   |   bin26 < 43.5
|   |   |   bin12 < 95.5 : NO (1/0)
|   |   |   bin12 >= 95.5
|   |   |   |   bin18 < 18.5 : NO (1/0)
|   |   |   |   bin18 >= 18.5 : YES (27/0)
|   |   bin26 >= 43.5
|   |   |   bin13 < 84.5 : YES (6/0)
|   |   |   bin13 >= 84.5
|   |   |   |   bin2 < 113 : NO (2/0)
|   |   |   |   bin2 >= 113
|   |   |   |   |   bin13 < 89.5 : NO (2/0)
|   |   |   |   |   bin13 >= 89.5
|   |   |   |   |   |   bin6 < 101.5
|   |   |   |   |   |   |   bin4 < 137 : YES (2/0)
|   |   |   |   |   |   |   bin4 >= 137 : NO (1/0)
|   |   |   |   |   |   bin6 >= 101.5 : YES (3/0)
bin26 >= 76.5
|   bin11 < 166.5
|   |   bin23 < 114
|   |   |   bin19 < 157 : NO (8/0)
|   |   |   bin19 >= 157
|   |   |   |   bin9 < 105 : NO (1/0)
|   |   |   |   bin9 >= 105 : YES (1/0)
|   |   bin23 >= 114 : NO (28/0)
|   bin11 >= 166.5 : YES (1/0)

Size of the tree : 29
RandomTree
==========

bin14 < 62.5
|   bin21 < 95.5 : NO (4/0)
|   bin21 >= 95.5
|   |   bin18 < 18.5 : NO (1/0)
|   |   bin18 >= 18.5
|   |   |   bin12 < 122 : YES (26/0)
|   |   |   bin12 >= 122
|   |   |   |   bin2 < 121.5 : NO (1/0)
|   |   |   |   bin2 >= 121.5 : YES (1/0)
bin14 >= 62.5
|   bin26 < 79.5
|   |   bin2 < 152.5
|   |   |   bin2 < 145
|   |   |   |   bin6 < 118.5
|   |   |   |   |   bin2 < 113 : NO (1/0)
|   |   |   |   |   bin2 >= 113 : YES (4/0)
|   |   |   |   bin6 >= 118.5 : NO (2/0)
|   |   |   bin2 >= 145 : NO (5/0)
|   |   bin2 >= 152.5 : YES (4/0)
|   bin26 >= 79.5
|   |   bin21 < 118 : NO (18/0)
|   |   bin21 >= 118
|   |   |   bin10 < 168.5
|   |   |   |   bin18 < 123.5
|   |   |   |   |   bin9 < 109.5 : NO (2/0)
|   |   |   |   |   bin9 >= 109.5 : YES (2/0)
|   |   |   |   bin18 >= 123.5 : NO (15/0)
|   |   |   bin10 >= 168.5
|   |   |   |   bin4 < 158 : YES (3/0)
|   |   |   |   bin4 >= 158 : NO (1/0)

Size of the tree : 31
RandomTree
==========

bin24 < 92.5
|   bin12 < 95 : NO (3/0)
|   bin12 >= 95
|   |   bin3 < 108.5 : NO (2/0)
|   |   bin3 >= 108.5
|   |   |   bin10 < 138
|   |   |   |   bin9 < 107.5
|   |   |   |   |   bin23 < 28.5 : YES (2/0)
|   |   |   |   |   bin23 >= 28.5
|   |   |   |   |   |   bin11 < 127.5
|   |   |   |   |   |   |   bin21 < 102.5 : NO (4/0)
|   |   |   |   |   |   |   bin21 >= 102.5
|   |   |   |   |   |   |   |   bin6 < 105 : YES (1/0)
|   |   |   |   |   |   |   |   bin6 >= 105 : NO (1/0)
|   |   |   |   |   |   bin11 >= 127.5 : YES (1/0)
|   |   |   |   bin9 >= 107.5 : YES (4/0)
|   |   |   bin10 >= 138 : YES (23/0)
bin24 >= 92.5
|   bin19 < 121.5 : NO (25/0)
|   bin19 >= 121.5
|   |   bin25 < 154
|   |   |   bin22 < 156.5
|   |   |   |   bin4 < 145 : YES (4/0)
|   |   |   |   bin4 >= 145
|   |   |   |   |   bin6 < 125
|   |   |   |   |   |   bin14 < 99 : NO (1/0)
|   |   |   |   |   |   bin14 >= 99 : YES (4/0)
|   |   |   |   |   bin6 >= 125 : NO (2/0)
|   |   |   bin22 >= 156.5 : NO (2/0)
|   |   bin25 >= 154
|   |   |   bin24 < 162 : NO (10/0)
|   |   |   bin24 >= 162 : YES (1/0)

Size of the tree : 33
RandomTree
==========

bin24 < 88
|   bin12 < 94.5 : NO (2/0)
|   bin12 >= 94.5
|   |   bin3 < 108.5 : NO (2/0)
|   |   bin3 >= 108.5
|   |   |   bin19 < 135.5
|   |   |   |   bin21 < 95.5 : NO (2/0)
|   |   |   |   bin21 >= 95.5
|   |   |   |   |   bin23 < 57
|   |   |   |   |   |   bin9 < 103.5 : YES (5/0)
|   |   |   |   |   |   bin9 >= 103.5
|   |   |   |   |   |   |   bin7 < 125.5 : YES (3/0)
|   |   |   |   |   |   |   bin7 >= 125.5
|   |   |   |   |   |   |   |   bin6 < 124.5 : NO (1/0)
|   |   |   |   |   |   |   |   bin6 >= 124.5 : YES (1/0)
|   |   |   |   |   bin23 >= 57
|   |   |   |   |   |   bin13 < 84.5 : YES (1/0)
|   |   |   |   |   |   bin13 >= 84.5 : NO (2/0)
|   |   |   bin19 >= 135.5 : YES (20/0)
bin24 >= 88
|   bin1 < 158.5
|   |   bin14 < 125.5
|   |   |   bin12 < 103
|   |   |   |   bin17 < 112.5 : YES (3/0)
|   |   |   |   bin17 >= 112.5 : NO (2/0)
|   |   |   bin12 >= 103 : NO (5/0)
|   |   bin14 >= 125.5 : NO (23/0)
|   bin1 >= 158.5
|   |   bin14 < 135
|   |   |   bin10 < 148 : NO (5/0)
|   |   |   bin10 >= 148
|   |   |   |   bin2 < 123 : NO (5/0)
|   |   |   |   bin2 >= 123
|   |   |   |   |   bin20 < 140.5 : YES (4/0)
|   |   |   |   |   bin20 >= 140.5 : NO (1/0)
|   |   bin14 >= 135 : YES (3/0)

Size of the tree : 37
RandomTree
==========

bin23 < 57.5
|   bin12 < 100.5
|   |   bin20 < 95.5 : NO (3/0)
|   |   bin20 >= 95.5
|   |   |   bin4 < 128.5 : NO (1/0)
|   |   |   bin4 >= 128.5
|   |   |   |   bin9 < 94.5 : YES (9/0)
|   |   |   |   bin9 >= 94.5 : NO (1/0)
|   bin12 >= 100.5 : YES (17/0)
bin23 >= 57.5
|   bin27 < 61 : NO (10/0)
|   bin27 >= 61
|   |   bin9 < 120
|   |   |   bin21 < 116.5
|   |   |   |   bin26 < 79.5
|   |   |   |   |   bin13 < 135 : YES (3/0)
|   |   |   |   |   bin13 >= 135 : NO (2/0)
|   |   |   |   bin26 >= 79.5 : NO (9/0)
|   |   |   bin21 >= 116.5
|   |   |   |   bin25 < 159.5 : YES (7/0)
|   |   |   |   bin25 >= 159.5
|   |   |   |   |   bin3 < 97.5 : NO (2/0)
|   |   |   |   |   bin3 >= 97.5 : YES (1/0)
|   |   bin9 >= 120
|   |   |   bin13 < 93.5
|   |   |   |   bin1 < 120 : NO (4/0)
|   |   |   |   bin1 >= 120 : YES (3/0)
|   |   |   bin13 >= 93.5 : NO (18/0)

Size of the tree : 29
RandomTree
==========

bin24 < 88
|   bin12 < 94.5 : NO (2/0)
|   bin12 >= 94.5
|   |   bin3 < 108.5 : NO (2/0)
|   |   bin3 >= 108.5
|   |   |   bin19 < 131.5
|   |   |   |   bin23 < 57
|   |   |   |   |   bin23 < 36.5
|   |   |   |   |   |   bin9 < 101 : YES (1/0)
|   |   |   |   |   |   bin9 >= 101 : NO (1/0)
|   |   |   |   |   bin23 >= 36.5 : YES (6/0)
|   |   |   |   bin23 >= 57 : NO (3/0)
|   |   |   bin19 >= 131.5 : YES (32/0)
bin24 >= 88
|   bin15 < 149.5
|   |   bin11 < 140.5
|   |   |   bin17 < 112.5
|   |   |   |   bin9 < 104 : NO (4/0)
|   |   |   |   bin9 >= 104
|   |   |   |   |   bin3 < 86.5 : YES (2/0)
|   |   |   |   |   bin3 >= 86.5
|   |   |   |   |   |   bin20 < 120
|   |   |   |   |   |   |   bin6 < 157 : NO (5/0)
|   |   |   |   |   |   |   bin6 >= 157 : YES (1/0)
|   |   |   |   |   |   bin20 >= 120 : YES (2/0)
|   |   |   bin17 >= 112.5 : NO (9/0)
|   |   bin11 >= 140.5
|   |   |   bin14 < 159.5 : YES (6/0)
|   |   |   bin14 >= 159.5 : NO (2/0)
|   bin15 >= 149.5 : NO (12/0)

Size of the tree : 31
RandomTree
==========

bin1 < 158.5
|   bin17 < 112.5
|   |   bin20 < 118.5 : NO (4/0)
|   |   bin20 >= 118.5 : YES (3/0)
|   bin17 >= 112.5 : NO (23/0)
bin1 >= 158.5
|   bin4 < 131.5
|   |   bin23 < 58 : YES (24/0)
|   |   bin23 >= 58
|   |   |   bin9 < 103.5 : NO (1/0)
|   |   |   bin9 >= 103.5 : YES (4/0)
|   bin4 >= 131.5
|   |   bin25 < 134.5
|   |   |   bin21 < 95.5
|   |   |   |   bin11 < 103.5 : NO (4/0)
|   |   |   |   bin11 >= 103.5
|   |   |   |   |   bin13 < 111 : NO (1/0)
|   |   |   |   |   bin13 >= 111 : YES (2/0)
|   |   |   bin21 >= 95.5
|   |   |   |   bin2 < 172 : YES (14/0)
|   |   |   |   bin2 >= 172 : NO (1/0)
|   |   bin25 >= 134.5
|   |   |   bin3 < 121.5 : NO (5/0)
|   |   |   bin3 >= 121.5
|   |   |   |   bin4 < 156.5 : YES (3/0)
|   |   |   |   bin4 >= 156.5 : NO (1/0)

Size of the tree : 27
RandomTree
==========

bin24 < 88
|   bin17 < 48.5
|   |   bin13 < 74.5
|   |   |   bin13 < 71.5 : YES (3/0)
|   |   |   bin13 >= 71.5 : NO (1/0)
|   |   bin13 >= 74.5 : YES (24/0)
|   bin17 >= 48.5
|   |   bin21 < 101.5
|   |   |   bin9 < 80.5
|   |   |   |   bin9 < 60 : NO (1/0)
|   |   |   |   bin9 >= 60 : YES (1/0)
|   |   |   bin9 >= 80.5 : NO (2/0)
|   |   bin21 >= 101.5
|   |   |   bin7 < 121
|   |   |   |   bin19 < 132.5 : NO (1/0)
|   |   |   |   bin19 >= 132.5 : YES (2/0)
|   |   |   bin7 >= 121 : YES (9/0)
bin24 >= 88
|   bin20 < 102.5 : NO (15/0)
|   bin20 >= 102.5
|   |   bin1 < 122
|   |   |   bin6 < 93
|   |   |   |   bin4 < 79
|   |   |   |   |   bin1 < 34.5 : NO (1/0)
|   |   |   |   |   bin1 >= 34.5 : YES (2/0)
|   |   |   |   bin4 >= 79 : NO (2/0)
|   |   |   bin6 >= 93 : NO (8/0)
|   |   bin1 >= 122
|   |   |   bin26 < 76.5 : YES (3/0)
|   |   |   bin26 >= 76.5
|   |   |   |   bin10 < 168.5
|   |   |   |   |   bin26 < 109.5 : NO (5/0)
|   |   |   |   |   bin26 >= 109.5
|   |   |   |   |   |   bin10 < 156 : YES (3/0)
|   |   |   |   |   |   bin10 >= 156 : NO (3/0)
|   |   |   |   bin10 >= 168.5
|   |   |   |   |   bin7 < 157.5 : YES (3/0)
|   |   |   |   |   bin7 >= 157.5 : NO (1/0)

Size of the tree : 39
RandomTree
==========

bin24 < 100.5
|   bin12 < 94.5 : NO (3/0)
|   bin12 >= 94.5
|   |   bin27 < 17
|   |   |   bin19 < 127
|   |   |   |   bin9 < 107.5 : NO (4/0)
|   |   |   |   bin9 >= 107.5 : YES (1/0)
|   |   |   bin19 >= 127 : YES (6/0)
|   |   bin27 >= 17
|   |   |   bin9 < 51.5 : NO (1/0)
|   |   |   bin9 >= 51.5
|   |   |   |   bin9 < 95.5 : YES (24/0)
|   |   |   |   bin9 >= 95.5
|   |   |   |   |   bin21 < 96.5 : NO (1/0)
|   |   |   |   |   bin21 >= 96.5
|   |   |   |   |   |   bin11 < 121.5 : YES (9/0)
|   |   |   |   |   |   bin11 >= 121.5
|   |   |   |   |   |   |   bin17 < 67 : NO (1/0)
|   |   |   |   |   |   |   bin17 >= 67 : YES (3/0)
bin24 >= 100.5
|   bin9 < 120
|   |   bin14 < 159.5
|   |   |   bin4 < 153.5
|   |   |   |   bin6 < 84.5
|   |   |   |   |   bin3 < 71.5 : NO (1/0)
|   |   |   |   |   bin3 >= 71.5 : YES (1/0)
|   |   |   |   bin6 >= 84.5 : YES (5/0)
|   |   |   bin4 >= 153.5 : NO (4/0)
|   |   bin14 >= 159.5 : NO (8/0)
|   bin9 >= 120
|   |   bin22 < 89.5
|   |   |   bin2 < 192 : NO (1/0)
|   |   |   bin2 >= 192 : YES (1/0)
|   |   bin22 >= 89.5 : NO (16/0)

Size of the tree : 35
RandomTree
==========

bin24 < 88
|   bin12 < 94.5 : NO (2/0)
|   bin12 >= 94.5
|   |   bin3 < 108.5 : NO (2/0)
|   |   bin3 >= 108.5
|   |   |   bin19 < 135.5
|   |   |   |   bin21 < 95.5 : NO (2/0)
|   |   |   |   bin21 >= 95.5
|   |   |   |   |   bin23 < 57
|   |   |   |   |   |   bin9 < 103.5 : YES (6/0)
|   |   |   |   |   |   bin9 >= 103.5
|   |   |   |   |   |   |   bin13 < 71.5 : YES (4/0)
|   |   |   |   |   |   |   bin13 >= 71.5
|   |   |   |   |   |   |   |   bin6 < 111.5 : NO (1/0)
|   |   |   |   |   |   |   |   bin6 >= 111.5 : YES (1/0)
|   |   |   |   |   bin23 >= 57
|   |   |   |   |   |   bin13 < 84.5 : YES (1/0)
|   |   |   |   |   |   bin13 >= 84.5 : NO (2/0)
|   |   |   bin19 >= 135.5 : YES (27/0)
bin24 >= 88
|   bin1 < 158
|   |   bin14 < 125.5
|   |   |   bin12 < 105
|   |   |   |   bin9 < 109 : NO (1/0)
|   |   |   |   bin9 >= 109 : YES (3/0)
|   |   |   bin12 >= 105 : NO (4/0)
|   |   bin14 >= 125.5 : NO (17/0)
|   bin1 >= 158
|   |   bin3 < 162.5
|   |   |   bin10 < 168.5
|   |   |   |   bin12 < 117 : NO (7/0)
|   |   |   |   bin12 >= 117
|   |   |   |   |   bin3 < 132 : YES (1/0)
|   |   |   |   |   bin3 >= 132 : NO (2/0)
|   |   |   bin10 >= 168.5 : YES (4/0)
|   |   bin3 >= 162.5 : YES (3/0)

Size of the tree : 37Decision Stump

Classifications

bin17 <= 59.5 : YES
bin17 > 59.5 : NO
bin17 is missing : NO

Class distributions

bin17 <= 59.5
YES	NO	
0.868421052631579	0.13157894736842105	
bin17 > 59.5
YES	NO	
0.1346153846153846	0.8653846153846154	
bin17 is missing
YES	NO	
0.4444444444444444	0.5555555555555556	
Decision Stump

Classifications

bin24 <= 100.5 : YES
bin24 > 100.5 : NO
bin24 is missing : NO

Class distributions

bin24 <= 100.5
YES	NO	
0.7142857142857143	0.2857142857142857	
bin24 > 100.5
YES	NO	
0.12195121951219512	0.8780487804878049	
bin24 is missing
YES	NO	
0.4444444444444444	0.5555555555555556	
Decision Stump

Classifications

bin15 <= 99.5 : YES
bin15 > 99.5 : NO
bin15 is missing : NO

Class distributions

bin15 <= 99.5
YES	NO	
0.723404255319149	0.2765957446808511	
bin15 > 99.5
YES	NO	
0.13953488372093023	0.8604651162790697	
bin15 is missing
YES	NO	
0.4444444444444444	0.5555555555555556	
Decision Stump

Classifications

bin15 <= 86.0 : YES
bin15 > 86.0 : NO
bin15 is missing : NO

Class distributions

bin15 <= 86.0
YES	NO	
0.7692307692307693	0.23076923076923078	
bin15 > 86.0
YES	NO	
0.19607843137254902	0.803921568627451	
bin15 is missing
YES	NO	
0.4444444444444444	0.5555555555555556	
Decision Stump

Classifications

bin15 <= 99.5 : YES
bin15 > 99.5 : NO
bin15 is missing : NO

Class distributions

bin15 <= 99.5
YES	NO	
0.723404255319149	0.2765957446808511	
bin15 > 99.5
YES	NO	
0.13953488372093023	0.8604651162790697	
bin15 is missing
YES	NO	
0.4444444444444444	0.5555555555555556	
Decision Stump

Classifications

bin15 <= 99.5 : YES
bin15 > 99.5 : NO
bin15 is missing : YES

Class distributions

bin15 <= 99.5
YES	NO	
0.8113207547169812	0.18867924528301888	
bin15 > 99.5
YES	NO	
0.1891891891891892	0.8108108108108109	
bin15 is missing
YES	NO	
0.5555555555555556	0.4444444444444444	
Decision Stump

Classifications

bin1 <= 158.5 : NO
bin1 > 158.5 : YES
bin1 is missing : YES

Class distributions

bin1 <= 158.5
YES	NO	
0.1	0.9	
bin1 > 158.5
YES	NO	
0.7833333333333333	0.21666666666666667	
bin1 is missing
YES	NO	
0.5555555555555556	0.4444444444444444	
Decision Stump

Classifications

bin15 <= 86.0 : YES
bin15 > 86.0 : NO
bin15 is missing : YES

Class distributions

bin15 <= 86.0
YES	NO	
0.8863636363636364	0.11363636363636363	
bin15 > 86.0
YES	NO	
0.2391304347826087	0.7608695652173914	
bin15 is missing
YES	NO	
0.5555555555555556	0.4444444444444444	
Decision Stump

Classifications

bin15 <= 99.5 : YES
bin15 > 99.5 : NO
bin15 is missing : YES

Class distributions

bin15 <= 99.5
YES	NO	
0.8113207547169812	0.18867924528301888	
bin15 > 99.5
YES	NO	
0.1891891891891892	0.8108108108108109	
bin15 is missing
YES	NO	
0.5555555555555556	0.4444444444444444	
Decision Stump

Classifications

bin15 <= 99.5 : YES
bin15 > 99.5 : NO
bin15 is missing : YES

Class distributions

bin15 <= 99.5
YES	NO	
0.7818181818181819	0.21818181818181817	
bin15 > 99.5
YES	NO	
0.2	0.8	
bin15 is missing
YES	NO	
0.5555555555555556	0.4444444444444444	
J48 pruned tree
------------------

bin17 <= 59
|   bin21 <= 95: NO (5.0/1.0)
|   bin21 > 95: YES (33.0/1.0)
bin17 > 59
|   bin1 <= 157: NO (30.0)
|   bin1 > 157
|   |   bin13 <= 84: YES (3.0)
|   |   bin13 > 84
|   |   |   bin12 <= 117: NO (10.0)
|   |   |   bin12 > 117
|   |   |   |   bin18 <= 114: YES (5.0/1.0)
|   |   |   |   bin18 > 114: NO (4.0)

Number of Leaves  : 	7

Size of the tree : 	13
J48 pruned tree
------------------

bin24 <= 100
|   bin21 <= 95: NO (9.0/1.0)
|   bin21 > 95: YES (40.0/6.0)
bin24 > 100
|   bin20 <= 120: NO (25.0)
|   bin20 > 120
|   |   bin9 <= 117
|   |   |   bin9 <= 107: NO (5.0/1.0)
|   |   |   bin9 > 107: YES (4.0)
|   |   bin9 > 117: NO (7.0)

Number of Leaves  : 	6

Size of the tree : 	11
J48 pruned tree
------------------

bin15 <= 97
|   bin10 <= 156
|   |   bin10 <= 137
|   |   |   bin21 <= 96: NO (4.0)
|   |   |   bin21 > 96
|   |   |   |   bin5 <= 116
|   |   |   |   |   bin8 <= 103: YES (4.0)
|   |   |   |   |   bin8 > 103: NO (6.0/1.0)
|   |   |   |   bin5 > 116: YES (6.0)
|   |   bin10 > 137: YES (23.0)
|   bin10 > 156: NO (4.0)
bin15 > 97
|   bin19 <= 151: NO (30.0)
|   bin19 > 151
|   |   bin7 <= 143: YES (5.0)
|   |   bin7 > 143: NO (8.0/1.0)

Number of Leaves  : 	9

Size of the tree : 	17
J48 pruned tree
------------------

bin18 <= 117
|   bin21 <= 94: NO (13.0)
|   bin21 > 94
|   |   bin7 <= 141: YES (46.0/8.0)
|   |   bin7 > 141: NO (8.0/1.0)
bin18 > 117: NO (23.0/1.0)

Number of Leaves  : 	4

Size of the tree : 	7
J48 pruned tree
------------------

bin15 <= 97
|   bin10 <= 156
|   |   bin21 <= 95: NO (5.0/1.0)
|   |   bin21 > 95
|   |   |   bin8 <= 101: YES (25.0)
|   |   |   bin8 > 101
|   |   |   |   bin6 <= 107
|   |   |   |   |   bin14 <= 71: NO (4.0)
|   |   |   |   |   bin14 > 71: YES (3.0/1.0)
|   |   |   |   bin6 > 107: YES (6.0)
|   bin10 > 156: NO (4.0)
bin15 > 97
|   bin20 <= 122: NO (27.0)
|   bin20 > 122
|   |   bin8 <= 110: YES (4.0)
|   |   bin8 > 110
|   |   |   bin19 <= 157: NO (9.0)
|   |   |   bin19 > 157: YES (3.0/1.0)

Number of Leaves  : 	10

Size of the tree : 	19
J48 pruned tree
------------------

bin15 <= 97
|   bin21 <= 94: NO (3.0)
|   bin21 > 94
|   |   bin14 <= 63
|   |   |   bin15 <= 23
|   |   |   |   bin15 <= 19: YES (2.0)
|   |   |   |   bin15 > 19: NO (2.0)
|   |   |   bin15 > 23: YES (33.0)
|   |   bin14 > 63
|   |   |   bin14 <= 68: NO (4.0)
|   |   |   bin14 > 68: YES (9.0/1.0)
bin15 > 97
|   bin19 <= 125: NO (20.0)
|   bin19 > 125
|   |   bin11 <= 140
|   |   |   bin20 <= 123: NO (8.0)
|   |   |   bin20 > 123
|   |   |   |   bin2 <= 133: YES (2.0)
|   |   |   |   bin2 > 133: NO (2.0)
|   |   bin11 > 140: YES (5.0)

Number of Leaves  : 	11

Size of the tree : 	21
J48 pruned tree
------------------

bin1 <= 157
|   bin17 <= 112
|   |   bin12 <= 103: YES (3.0)
|   |   bin12 > 103: NO (4.0)
|   bin17 > 112: NO (23.0)
bin1 > 157
|   bin2 <= 108: NO (5.0)
|   bin2 > 108
|   |   bin21 <= 95
|   |   |   bin2 <= 122: YES (2.0)
|   |   |   bin2 > 122: NO (4.0)
|   |   bin21 > 95
|   |   |   bin7 <= 141
|   |   |   |   bin10 <= 129
|   |   |   |   |   bin13 <= 85: YES (8.0)
|   |   |   |   |   bin13 > 85: NO (2.0)
|   |   |   |   bin10 > 129: YES (36.0)
|   |   |   bin7 > 141: NO (3.0/1.0)

Number of Leaves  : 	10

Size of the tree : 	19
J48 pruned tree
------------------

bin24 <= 84: YES (44.0/5.0)
bin24 > 84
|   bin14 <= 159
|   |   bin11 <= 140: NO (22.0/5.0)
|   |   bin11 > 140: YES (7.0/1.0)
|   bin14 > 159: NO (17.0)

Number of Leaves  : 	4

Size of the tree : 	7
J48 pruned tree
------------------

bin1 <= 157
|   bin17 <= 112
|   |   bin12 <= 103: YES (3.0)
|   |   bin12 > 103: NO (2.0)
|   bin17 > 112: NO (22.0)
bin1 > 157
|   bin7 <= 141
|   |   bin12 <= 94: NO (3.0)
|   |   bin12 > 94: YES (52.0/6.0)
|   bin7 > 141: NO (8.0/1.0)

Number of Leaves  : 	6

Size of the tree : 	11
J48 pruned tree
------------------

bin1 <= 156
|   bin12 <= 105
|   |   bin3 <= 71: NO (2.0)
|   |   bin3 > 71: YES (3.0)
|   bin12 > 105: NO (20.0)
bin1 > 156
|   bin7 <= 141
|   |   bin21 <= 95
|   |   |   bin12 <= 101: NO (6.0)
|   |   |   bin12 > 101: YES (2.0)
|   |   bin21 > 95: YES (48.0/4.0)
|   bin7 > 141: NO (9.0/1.0)

Number of Leaves  : 	7

Size of the tree : 	13
Accuracy of J48: 67,00%
---------------------------------Logistic model tree 
------------------
: LM_1:4/4 (90)

Number of Leaves  : 	1

Size of the Tree : 	1
LM_1:
Class 0 :
-1.03 + 
[bin2] * 0.01 +
[bin15] * -0 +
[bin20] * 0.01 +
[bin23] * -0.02

Class 1 :
1.03 + 
[bin2] * -0.01 +
[bin15] * 0    +
[bin20] * -0.01 +
[bin23] * 0.02
Logistic model tree 
------------------
: LM_1:3/3 (90)

Number of Leaves  : 	1

Size of the Tree : 	1
LM_1:
Class 0 :
-0.07 + 
[bin17] * -0.01 +
[bin20] * 0.01 +
[bin23] * -0.01

Class 1 :
0.07 + 
[bin17] * 0.01 +
[bin20] * -0.01 +
[bin23] * 0.01
Logistic model tree 
------------------
: LM_1:8/8 (90)

Number of Leaves  : 	1

Size of the Tree : 	1
LM_1:
Class 0 :
-1.07 + 
[bin1] * 0.01 +
[bin8] * -0.01 +
[bin12] * 0.01 +
[bin15] * -0.01 +
[bin16] * -0 +
[bin20] * 0.01 +
[bin21] * 0.01 +
[bin23] * -0

Class 1 :
1.07 + 
[bin1] * -0.01 +
[bin8] * 0.01 +
[bin12] * -0.01 +
[bin15] * 0.01 +
[bin16] * 0    +
[bin20] * -0.01 +
[bin21] * -0.01 +
[bin23] * 0   
Logistic model tree 
------------------
: LM_1:5/5 (90)

Number of Leaves  : 	1

Size of the Tree : 	1
LM_1:
Class 0 :
-1.1 + 
[bin3] * 0.01 +
[bin7] * -0.01 +
[bin15] * -0.01 +
[bin19] * 0.02

Class 1 :
1.1  + 
[bin3] * -0.01 +
[bin7] * 0.01 +
[bin15] * 0.01 +
[bin19] * -0.02
Logistic model tree 
------------------
: LM_1:8/8 (90)

Number of Leaves  : 	1

Size of the Tree : 	1
LM_1:
Class 0 :
-1.62 + 
[bin3] * 0.01 +
[bin4] * -0 +
[bin7] * -0.01 +
[bin15] * -0.01 +
[bin19] * 0.02

Class 1 :
1.62 + 
[bin3] * -0.01 +
[bin4] * 0    +
[bin7] * 0.01 +
[bin15] * 0.01 +
[bin19] * -0.02
Logistic model tree 
------------------
: LM_1:6/6 (90)

Number of Leaves  : 	1

Size of the Tree : 	1
LM_1:
Class 0 :
-0.52 + 
[bin2] * 0.01 +
[bin7] * -0.01 +
[bin15] * -0.01 +
[bin17] * -0 +
[bin19] * 0.01 +
[bin21] * 0.01

Class 1 :
0.52 + 
[bin2] * -0.01 +
[bin7] * 0.01 +
[bin15] * 0.01 +
[bin17] * 0    +
[bin19] * -0.01 +
[bin21] * -0.01
Logistic model tree 
------------------
: LM_1:5/5 (90)

Number of Leaves  : 	1

Size of the Tree : 	1
LM_1:
Class 0 :
-0.7 + 
[bin17] * -0.01 +
[bin20] * 0.02 +
[bin23] * -0.01 +
[bin26] * -0

Class 1 :
0.7  + 
[bin17] * 0.01 +
[bin20] * -0.02 +
[bin23] * 0.01 +
[bin26] * 0   
Logistic model tree 
------------------
: LM_1:5/5 (90)

Number of Leaves  : 	1

Size of the Tree : 	1
LM_1:
Class 0 :
-1.24 + 
[bin1] * 0.01 +
[bin15] * -0.01 +
[bin20] * 0.01 +
[bin21] * 0.01 +
[bin23] * -0

Class 1 :
1.24 + 
[bin1] * -0.01 +
[bin15] * 0.01 +
[bin20] * -0.01 +
[bin21] * -0.01 +
[bin23] * 0   
Logistic model tree 
------------------
: LM_1:7/7 (90)

Number of Leaves  : 	1

Size of the Tree : 	1
LM_1:
Class 0 :
-0.41 + 
[bin1] * 0.01 +
[bin3] * 0.01 +
[bin6] * -0.01 +
[bin7] * -0.01 +
[bin15] * -0.01 +
[bin19] * 0.01 +
[bin21] * 0.01

Class 1 :
0.41 + 
[bin1] * -0.01 +
[bin3] * -0.01 +
[bin6] * 0.01 +
[bin7] * 0.01 +
[bin15] * 0.01 +
[bin19] * -0.01 +
[bin21] * -0.01
Logistic model tree 
------------------
: LM_1:5/5 (90)

Number of Leaves  : 	1

Size of the Tree : 	1
LM_1:
Class 0 :
-0.4 + 
[bin3] * 0.01 +
[bin7] * -0.01 +
[bin15] * -0.01 +
[bin19] * 0.01

Class 1 :
0.4  + 
[bin3] * -0.01 +
[bin7] * 0.01 +
[bin15] * 0.01 +
[bin19] * -0.01
Accuracy of LMT: 75,00%
---------------------------------
RandomTree
==========

bin26 < 76.5
|   bin21 < 94.5 : NO (6/0)
|   bin21 >= 94.5
|   |   bin26 < 43.5
|   |   |   bin12 < 95.5 : NO (1/0)
|   |   |   bin12 >= 95.5
|   |   |   |   bin18 < 18.5 : NO (1/0)
|   |   |   |   bin18 >= 18.5 : YES (27/0)
|   |   bin26 >= 43.5
|   |   |   bin13 < 84.5 : YES (6/0)
|   |   |   bin13 >= 84.5
|   |   |   |   bin2 < 113 : NO (2/0)
|   |   |   |   bin2 >= 113
|   |   |   |   |   bin13 < 89.5 : NO (2/0)
|   |   |   |   |   bin13 >= 89.5
|   |   |   |   |   |   bin6 < 101.5
|   |   |   |   |   |   |   bin4 < 137 : YES (2/0)
|   |   |   |   |   |   |   bin4 >= 137 : NO (1/0)
|   |   |   |   |   |   bin6 >= 101.5 : YES (3/0)
bin26 >= 76.5
|   bin11 < 166.5
|   |   bin23 < 114
|   |   |   bin19 < 157 : NO (8/0)
|   |   |   bin19 >= 157
|   |   |   |   bin9 < 105 : NO (1/0)
|   |   |   |   bin9 >= 105 : YES (1/0)
|   |   bin23 >= 114 : NO (28/0)
|   bin11 >= 166.5 : YES (1/0)

Size of the tree : 29
RandomTree
==========

bin14 < 62.5
|   bin21 < 95.5 : NO (4/0)
|   bin21 >= 95.5
|   |   bin18 < 18.5 : NO (1/0)
|   |   bin18 >= 18.5
|   |   |   bin12 < 122 : YES (26/0)
|   |   |   bin12 >= 122
|   |   |   |   bin2 < 121.5 : NO (1/0)
|   |   |   |   bin2 >= 121.5 : YES (1/0)
bin14 >= 62.5
|   bin26 < 79.5
|   |   bin2 < 152.5
|   |   |   bin2 < 145
|   |   |   |   bin6 < 118.5
|   |   |   |   |   bin2 < 113 : NO (1/0)
|   |   |   |   |   bin2 >= 113 : YES (4/0)
|   |   |   |   bin6 >= 118.5 : NO (2/0)
|   |   |   bin2 >= 145 : NO (5/0)
|   |   bin2 >= 152.5 : YES (4/0)
|   bin26 >= 79.5
|   |   bin21 < 118 : NO (18/0)
|   |   bin21 >= 118
|   |   |   bin10 < 168.5
|   |   |   |   bin18 < 123.5
|   |   |   |   |   bin9 < 109.5 : NO (2/0)
|   |   |   |   |   bin9 >= 109.5 : YES (2/0)
|   |   |   |   bin18 >= 123.5 : NO (15/0)
|   |   |   bin10 >= 168.5
|   |   |   |   bin4 < 158 : YES (3/0)
|   |   |   |   bin4 >= 158 : NO (1/0)

Size of the tree : 31
RandomTree
==========

bin24 < 92.5
|   bin12 < 95 : NO (3/0)
|   bin12 >= 95
|   |   bin3 < 108.5 : NO (2/0)
|   |   bin3 >= 108.5
|   |   |   bin10 < 138
|   |   |   |   bin9 < 107.5
|   |   |   |   |   bin23 < 28.5 : YES (2/0)
|   |   |   |   |   bin23 >= 28.5
|   |   |   |   |   |   bin11 < 127.5
|   |   |   |   |   |   |   bin21 < 102.5 : NO (4/0)
|   |   |   |   |   |   |   bin21 >= 102.5
|   |   |   |   |   |   |   |   bin6 < 105 : YES (1/0)
|   |   |   |   |   |   |   |   bin6 >= 105 : NO (1/0)
|   |   |   |   |   |   bin11 >= 127.5 : YES (1/0)
|   |   |   |   bin9 >= 107.5 : YES (4/0)
|   |   |   bin10 >= 138 : YES (23/0)
bin24 >= 92.5
|   bin19 < 121.5 : NO (25/0)
|   bin19 >= 121.5
|   |   bin25 < 154
|   |   |   bin22 < 156.5
|   |   |   |   bin4 < 145 : YES (4/0)
|   |   |   |   bin4 >= 145
|   |   |   |   |   bin6 < 125
|   |   |   |   |   |   bin14 < 99 : NO (1/0)
|   |   |   |   |   |   bin14 >= 99 : YES (4/0)
|   |   |   |   |   bin6 >= 125 : NO (2/0)
|   |   |   bin22 >= 156.5 : NO (2/0)
|   |   bin25 >= 154
|   |   |   bin24 < 162 : NO (10/0)
|   |   |   bin24 >= 162 : YES (1/0)

Size of the tree : 33
RandomTree
==========

bin24 < 88
|   bin12 < 94.5 : NO (2/0)
|   bin12 >= 94.5
|   |   bin3 < 108.5 : NO (2/0)
|   |   bin3 >= 108.5
|   |   |   bin19 < 135.5
|   |   |   |   bin21 < 95.5 : NO (2/0)
|   |   |   |   bin21 >= 95.5
|   |   |   |   |   bin23 < 57
|   |   |   |   |   |   bin9 < 103.5 : YES (5/0)
|   |   |   |   |   |   bin9 >= 103.5
|   |   |   |   |   |   |   bin7 < 125.5 : YES (3/0)
|   |   |   |   |   |   |   bin7 >= 125.5
|   |   |   |   |   |   |   |   bin6 < 124.5 : NO (1/0)
|   |   |   |   |   |   |   |   bin6 >= 124.5 : YES (1/0)
|   |   |   |   |   bin23 >= 57
|   |   |   |   |   |   bin13 < 84.5 : YES (1/0)
|   |   |   |   |   |   bin13 >= 84.5 : NO (2/0)
|   |   |   bin19 >= 135.5 : YES (20/0)
bin24 >= 88
|   bin1 < 158.5
|   |   bin14 < 125.5
|   |   |   bin12 < 103
|   |   |   |   bin17 < 112.5 : YES (3/0)
|   |   |   |   bin17 >= 112.5 : NO (2/0)
|   |   |   bin12 >= 103 : NO (5/0)
|   |   bin14 >= 125.5 : NO (23/0)
|   bin1 >= 158.5
|   |   bin14 < 135
|   |   |   bin10 < 148 : NO (5/0)
|   |   |   bin10 >= 148
|   |   |   |   bin2 < 123 : NO (5/0)
|   |   |   |   bin2 >= 123
|   |   |   |   |   bin20 < 140.5 : YES (4/0)
|   |   |   |   |   bin20 >= 140.5 : NO (1/0)
|   |   bin14 >= 135 : YES (3/0)

Size of the tree : 37
RandomTree
==========

bin23 < 57.5
|   bin12 < 100.5
|   |   bin20 < 95.5 : NO (3/0)
|   |   bin20 >= 95.5
|   |   |   bin4 < 128.5 : NO (1/0)
|   |   |   bin4 >= 128.5
|   |   |   |   bin9 < 94.5 : YES (9/0)
|   |   |   |   bin9 >= 94.5 : NO (1/0)
|   bin12 >= 100.5 : YES (17/0)
bin23 >= 57.5
|   bin27 < 61 : NO (10/0)
|   bin27 >= 61
|   |   bin9 < 120
|   |   |   bin21 < 116.5
|   |   |   |   bin26 < 79.5
|   |   |   |   |   bin13 < 135 : YES (3/0)
|   |   |   |   |   bin13 >= 135 : NO (2/0)
|   |   |   |   bin26 >= 79.5 : NO (9/0)
|   |   |   bin21 >= 116.5
|   |   |   |   bin25 < 159.5 : YES (7/0)
|   |   |   |   bin25 >= 159.5
|   |   |   |   |   bin3 < 97.5 : NO (2/0)
|   |   |   |   |   bin3 >= 97.5 : YES (1/0)
|   |   bin9 >= 120
|   |   |   bin13 < 93.5
|   |   |   |   bin1 < 120 : NO (4/0)
|   |   |   |   bin1 >= 120 : YES (3/0)
|   |   |   bin13 >= 93.5 : NO (18/0)

Size of the tree : 29
RandomTree
==========

bin24 < 88
|   bin12 < 94.5 : NO (2/0)
|   bin12 >= 94.5
|   |   bin3 < 108.5 : NO (2/0)
|   |   bin3 >= 108.5
|   |   |   bin19 < 131.5
|   |   |   |   bin23 < 57
|   |   |   |   |   bin23 < 36.5
|   |   |   |   |   |   bin9 < 101 : YES (1/0)
|   |   |   |   |   |   bin9 >= 101 : NO (1/0)
|   |   |   |   |   bin23 >= 36.5 : YES (6/0)
|   |   |   |   bin23 >= 57 : NO (3/0)
|   |   |   bin19 >= 131.5 : YES (32/0)
bin24 >= 88
|   bin15 < 149.5
|   |   bin11 < 140.5
|   |   |   bin17 < 112.5
|   |   |   |   bin9 < 104 : NO (4/0)
|   |   |   |   bin9 >= 104
|   |   |   |   |   bin3 < 86.5 : YES (2/0)
|   |   |   |   |   bin3 >= 86.5
|   |   |   |   |   |   bin20 < 120
|   |   |   |   |   |   |   bin6 < 157 : NO (5/0)
|   |   |   |   |   |   |   bin6 >= 157 : YES (1/0)
|   |   |   |   |   |   bin20 >= 120 : YES (2/0)
|   |   |   bin17 >= 112.5 : NO (9/0)
|   |   bin11 >= 140.5
|   |   |   bin14 < 159.5 : YES (6/0)
|   |   |   bin14 >= 159.5 : NO (2/0)
|   bin15 >= 149.5 : NO (12/0)

Size of the tree : 31
RandomTree
==========

bin1 < 158.5
|   bin17 < 112.5
|   |   bin20 < 118.5 : NO (4/0)
|   |   bin20 >= 118.5 : YES (3/0)
|   bin17 >= 112.5 : NO (23/0)
bin1 >= 158.5
|   bin4 < 131.5
|   |   bin23 < 58 : YES (24/0)
|   |   bin23 >= 58
|   |   |   bin9 < 103.5 : NO (1/0)
|   |   |   bin9 >= 103.5 : YES (4/0)
|   bin4 >= 131.5
|   |   bin25 < 134.5
|   |   |   bin21 < 95.5
|   |   |   |   bin11 < 103.5 : NO (4/0)
|   |   |   |   bin11 >= 103.5
|   |   |   |   |   bin13 < 111 : NO (1/0)
|   |   |   |   |   bin13 >= 111 : YES (2/0)
|   |   |   bin21 >= 95.5
|   |   |   |   bin2 < 172 : YES (14/0)
|   |   |   |   bin2 >= 172 : NO (1/0)
|   |   bin25 >= 134.5
|   |   |   bin3 < 121.5 : NO (5/0)
|   |   |   bin3 >= 121.5
|   |   |   |   bin4 < 156.5 : YES (3/0)
|   |   |   |   bin4 >= 156.5 : NO (1/0)

Size of the tree : 27
RandomTree
==========

bin24 < 88
|   bin17 < 48.5
|   |   bin13 < 74.5
|   |   |   bin13 < 71.5 : YES (3/0)
|   |   |   bin13 >= 71.5 : NO (1/0)
|   |   bin13 >= 74.5 : YES (24/0)
|   bin17 >= 48.5
|   |   bin21 < 101.5
|   |   |   bin9 < 80.5
|   |   |   |   bin9 < 60 : NO (1/0)
|   |   |   |   bin9 >= 60 : YES (1/0)
|   |   |   bin9 >= 80.5 : NO (2/0)
|   |   bin21 >= 101.5
|   |   |   bin7 < 121
|   |   |   |   bin19 < 132.5 : NO (1/0)
|   |   |   |   bin19 >= 132.5 : YES (2/0)
|   |   |   bin7 >= 121 : YES (9/0)
bin24 >= 88
|   bin20 < 102.5 : NO (15/0)
|   bin20 >= 102.5
|   |   bin1 < 122
|   |   |   bin6 < 93
|   |   |   |   bin4 < 79
|   |   |   |   |   bin1 < 34.5 : NO (1/0)
|   |   |   |   |   bin1 >= 34.5 : YES (2/0)
|   |   |   |   bin4 >= 79 : NO (2/0)
|   |   |   bin6 >= 93 : NO (8/0)
|   |   bin1 >= 122
|   |   |   bin26 < 76.5 : YES (3/0)
|   |   |   bin26 >= 76.5
|   |   |   |   bin10 < 168.5
|   |   |   |   |   bin26 < 109.5 : NO (5/0)
|   |   |   |   |   bin26 >= 109.5
|   |   |   |   |   |   bin10 < 156 : YES (3/0)
|   |   |   |   |   |   bin10 >= 156 : NO (3/0)
|   |   |   |   bin10 >= 168.5
|   |   |   |   |   bin7 < 157.5 : YES (3/0)
|   |   |   |   |   bin7 >= 157.5 : NO (1/0)

Size of the tree : 39
RandomTree
==========

bin24 < 100.5
|   bin12 < 94.5 : NO (3/0)
|   bin12 >= 94.5
|   |   bin27 < 17
|   |   |   bin19 < 127
|   |   |   |   bin9 < 107.5 : NO (4/0)
|   |   |   |   bin9 >= 107.5 : YES (1/0)
|   |   |   bin19 >= 127 : YES (6/0)
|   |   bin27 >= 17
|   |   |   bin9 < 51.5 : NO (1/0)
|   |   |   bin9 >= 51.5
|   |   |   |   bin9 < 95.5 : YES (24/0)
|   |   |   |   bin9 >= 95.5
|   |   |   |   |   bin21 < 96.5 : NO (1/0)
|   |   |   |   |   bin21 >= 96.5
|   |   |   |   |   |   bin11 < 121.5 : YES (9/0)
|   |   |   |   |   |   bin11 >= 121.5
|   |   |   |   |   |   |   bin17 < 67 : NO (1/0)
|   |   |   |   |   |   |   bin17 >= 67 : YES (3/0)
bin24 >= 100.5
|   bin9 < 120
|   |   bin14 < 159.5
|   |   |   bin4 < 153.5
|   |   |   |   bin6 < 84.5
|   |   |   |   |   bin3 < 71.5 : NO (1/0)
|   |   |   |   |   bin3 >= 71.5 : YES (1/0)
|   |   |   |   bin6 >= 84.5 : YES (5/0)
|   |   |   bin4 >= 153.5 : NO (4/0)
|   |   bin14 >= 159.5 : NO (8/0)
|   bin9 >= 120
|   |   bin22 < 89.5
|   |   |   bin2 < 192 : NO (1/0)
|   |   |   bin2 >= 192 : YES (1/0)
|   |   bin22 >= 89.5 : NO (16/0)

Size of the tree : 35
RandomTree
==========

bin24 < 88
|   bin12 < 94.5 : NO (2/0)
|   bin12 >= 94.5
|   |   bin3 < 108.5 : NO (2/0)
|   |   bin3 >= 108.5
|   |   |   bin19 < 135.5
|   |   |   |   bin21 < 95.5 : NO (2/0)
|   |   |   |   bin21 >= 95.5
|   |   |   |   |   bin23 < 57
|   |   |   |   |   |   bin9 < 103.5 : YES (6/0)
|   |   |   |   |   |   bin9 >= 103.5
|   |   |   |   |   |   |   bin13 < 71.5 : YES (4/0)
|   |   |   |   |   |   |   bin13 >= 71.5
|   |   |   |   |   |   |   |   bin6 < 111.5 : NO (1/0)
|   |   |   |   |   |   |   |   bin6 >= 111.5 : YES (1/0)
|   |   |   |   |   bin23 >= 57
|   |   |   |   |   |   bin13 < 84.5 : YES (1/0)
|   |   |   |   |   |   bin13 >= 84.5 : NO (2/0)
|   |   |   bin19 >= 135.5 : YES (27/0)
bin24 >= 88
|   bin1 < 158
|   |   bin14 < 125.5
|   |   |   bin12 < 105
|   |   |   |   bin9 < 109 : NO (1/0)
|   |   |   |   bin9 >= 109 : YES (3/0)
|   |   |   bin12 >= 105 : NO (4/0)
|   |   bin14 >= 125.5 : NO (17/0)
|   bin1 >= 158
|   |   bin3 < 162.5
|   |   |   bin10 < 168.5
|   |   |   |   bin12 < 117 : NO (7/0)
|   |   |   |   bin12 >= 117
|   |   |   |   |   bin3 < 132 : YES (1/0)
|   |   |   |   |   bin3 >= 132 : NO (2/0)
|   |   |   bin10 >= 168.5 : YES (4/0)
|   |   bin3 >= 162.5 : YES (3/0)

Size of the tree : 37Accuracy of RandomTree: 67,00%
---------------------------------Decision Stump

Classifications

bin17 <= 59.5 : YES
bin17 > 59.5 : NO
bin17 is missing : NO

Class distributions

bin17 <= 59.5
YES	NO	
0.868421052631579	0.13157894736842105	
bin17 > 59.5
YES	NO	
0.1346153846153846	0.8653846153846154	
bin17 is missing
YES	NO	
0.4444444444444444	0.5555555555555556	
Decision Stump

Classifications

bin24 <= 100.5 : YES
bin24 > 100.5 : NO
bin24 is missing : NO

Class distributions

bin24 <= 100.5
YES	NO	
0.7142857142857143	0.2857142857142857	
bin24 > 100.5
YES	NO	
0.12195121951219512	0.8780487804878049	
bin24 is missing
YES	NO	
0.4444444444444444	0.5555555555555556	
Decision Stump

Classifications

bin15 <= 99.5 : YES
bin15 > 99.5 : NO
bin15 is missing : NO

Class distributions

bin15 <= 99.5
YES	NO	
0.723404255319149	0.2765957446808511	
bin15 > 99.5
YES	NO	
0.13953488372093023	0.8604651162790697	
bin15 is missing
YES	NO	
0.4444444444444444	0.5555555555555556	
Decision Stump

Classifications

bin15 <= 86.0 : YES
bin15 > 86.0 : NO
bin15 is missing : NO

Class distributions

bin15 <= 86.0
YES	NO	
0.7692307692307693	0.23076923076923078	
bin15 > 86.0
YES	NO	
0.19607843137254902	0.803921568627451	
bin15 is missing
YES	NO	
0.4444444444444444	0.5555555555555556	
Decision Stump

Classifications

bin15 <= 99.5 : YES
bin15 > 99.5 : NO
bin15 is missing : NO

Class distributions

bin15 <= 99.5
YES	NO	
0.723404255319149	0.2765957446808511	
bin15 > 99.5
YES	NO	
0.13953488372093023	0.8604651162790697	
bin15 is missing
YES	NO	
0.4444444444444444	0.5555555555555556	
Decision Stump

Classifications

bin15 <= 99.5 : YES
bin15 > 99.5 : NO
bin15 is missing : YES

Class distributions

bin15 <= 99.5
YES	NO	
0.8113207547169812	0.18867924528301888	
bin15 > 99.5
YES	NO	
0.1891891891891892	0.8108108108108109	
bin15 is missing
YES	NO	
0.5555555555555556	0.4444444444444444	
Decision Stump

Classifications

bin1 <= 158.5 : NO
bin1 > 158.5 : YES
bin1 is missing : YES

Class distributions

bin1 <= 158.5
YES	NO	
0.1	0.9	
bin1 > 158.5
YES	NO	
0.7833333333333333	0.21666666666666667	
bin1 is missing
YES	NO	
0.5555555555555556	0.4444444444444444	
Decision Stump

Classifications

bin15 <= 86.0 : YES
bin15 > 86.0 : NO
bin15 is missing : YES

Class distributions

bin15 <= 86.0
YES	NO	
0.8863636363636364	0.11363636363636363	
bin15 > 86.0
YES	NO	
0.2391304347826087	0.7608695652173914	
bin15 is missing
YES	NO	
0.5555555555555556	0.4444444444444444	
Decision Stump

Classifications

bin15 <= 99.5 : YES
bin15 > 99.5 : NO
bin15 is missing : YES

Class distributions

bin15 <= 99.5
YES	NO	
0.8113207547169812	0.18867924528301888	
bin15 > 99.5
YES	NO	
0.1891891891891892	0.8108108108108109	
bin15 is missing
YES	NO	
0.5555555555555556	0.4444444444444444	
Decision Stump

Classifications

bin15 <= 99.5 : YES
bin15 > 99.5 : NO
bin15 is missing : YES

Class distributions

bin15 <= 99.5
YES	NO	
0.7818181818181819	0.21818181818181817	
bin15 > 99.5
YES	NO	
0.2	0.8	
bin15 is missing
YES	NO	
0.5555555555555556	0.4444444444444444	
Accuracy of DecisionStump: 67,00%
---------------------------------