J48 pruned tree
------------------

bin2 <= 69
|   bin1 <= 59
|   |   bin4 <= 72: NO (34.0)
|   |   bin4 > 72
|   |   |   bin26 <= 8: NO (3.0)
|   |   |   bin26 > 8: YES (5.0/1.0)
|   bin1 > 59
|   |   bin2 <= 39: YES (6.0)
|   |   bin2 > 39
|   |   |   bin30 <= 9: NO (5.0)
|   |   |   bin30 > 9
|   |   |   |   bin19 <= 37: YES (3.0)
|   |   |   |   bin19 > 37: NO (2.0)
bin2 > 69
|   bin20 <= 76: YES (30.0/3.0)
|   bin20 > 76: NO (2.0)

Number of Leaves  : 	9

Size of the tree : 	17
J48 pruned tree
------------------

bin25 <= 91
|   bin2 <= 111
|   |   bin16 <= 18
|   |   |   bin13 <= 14
|   |   |   |   bin11 <= 10: YES (11.0/3.0)
|   |   |   |   bin11 > 10: NO (4.0)
|   |   |   bin13 > 14: YES (7.0)
|   |   bin16 > 18
|   |   |   bin31 <= 10: NO (15.0)
|   |   |   bin31 > 10
|   |   |   |   bin1 <= 101
|   |   |   |   |   bin4 <= 68: NO (10.0)
|   |   |   |   |   bin4 > 68: YES (7.0/1.0)
|   |   |   |   bin1 > 101
|   |   |   |   |   bin2 <= 61: YES (4.0)
|   |   |   |   |   bin2 > 61: NO (2.0)
|   bin2 > 111: YES (16.0/1.0)
bin25 > 91: NO (14.0)

Number of Leaves  : 	10

Size of the tree : 	19
J48 pruned tree
------------------

bin1 <= 37
|   bin4 <= 72
|   |   bin11 <= 11
|   |   |   bin32 <= 80: NO (3.0)
|   |   |   bin32 > 80: YES (4.0/1.0)
|   |   bin11 > 11: NO (29.0)
|   bin4 > 72
|   |   bin26 <= 8: NO (3.0)
|   |   bin26 > 8: YES (7.0/1.0)
bin1 > 37: YES (44.0/13.0)

Number of Leaves  : 	6

Size of the tree : 	11
J48 pruned tree
------------------

bin2 <= 69
|   bin32 <= 6: NO (20.0)
|   bin32 > 6
|   |   bin10 <= 11: YES (7.0/1.0)
|   |   bin10 > 11
|   |   |   bin1 <= 59
|   |   |   |   bin3 <= 52: NO (16.0)
|   |   |   |   bin3 > 52
|   |   |   |   |   bin8 <= 89: YES (3.0)
|   |   |   |   |   bin8 > 89: NO (3.0)
|   |   |   bin1 > 59
|   |   |   |   bin5 <= 47
|   |   |   |   |   bin32 <= 28: NO (4.0)
|   |   |   |   |   bin32 > 28: YES (4.0/1.0)
|   |   |   |   bin5 > 47: YES (3.0)
bin2 > 69
|   bin19 <= 83: YES (28.0/3.0)
|   bin19 > 83: NO (2.0)

Number of Leaves  : 	10

Size of the tree : 	19
J48 pruned tree
------------------

bin2 <= 69
|   bin15 <= 16
|   |   bin13 <= 14
|   |   |   bin11 <= 10
|   |   |   |   bin17 <= 2: NO (2.0)
|   |   |   |   bin17 > 2
|   |   |   |   |   bin17 <= 12: YES (5.0)
|   |   |   |   |   bin17 > 12: NO (3.0/1.0)
|   |   |   bin11 > 10: NO (4.0)
|   |   bin13 > 14: YES (5.0)
|   bin15 > 16
|   |   bin32 <= 26: NO (25.0)
|   |   bin32 > 26
|   |   |   bin1 <= 101
|   |   |   |   bin4 <= 68: NO (11.0)
|   |   |   |   bin4 > 68: YES (3.0/1.0)
|   |   |   bin1 > 101: YES (3.0)
bin2 > 69
|   bin19 <= 83: YES (27.0/3.0)
|   bin19 > 83: NO (2.0)

Number of Leaves  : 	11

Size of the tree : 	21
J48 pruned tree
------------------

bin25 <= 91
|   bin2 <= 69
|   |   bin32 <= 1: NO (6.0)
|   |   bin32 > 1
|   |   |   bin6 <= 17: YES (8.0)
|   |   |   bin6 > 17: NO (31.0/12.0)
|   bin2 > 69
|   |   bin8 <= 141
|   |   |   bin31 <= 5
|   |   |   |   bin12 <= 25: YES (6.0)
|   |   |   |   bin12 > 25: NO (2.0)
|   |   |   bin31 > 5: YES (24.0)
|   |   bin8 > 141: NO (2.0)
bin25 > 91: NO (11.0)

Number of Leaves  : 	8

Size of the tree : 	15
J48 pruned tree
------------------

bin25 <= 91
|   bin1 <= 37
|   |   bin3 <= 52
|   |   |   bin15 <= 17
|   |   |   |   bin32 <= 28: NO (2.0)
|   |   |   |   bin32 > 28: YES (5.0/1.0)
|   |   |   bin15 > 17: NO (14.0)
|   |   bin3 > 52: YES (8.0/1.0)
|   bin1 > 37: YES (47.0/8.0)
bin25 > 91: NO (14.0)

Number of Leaves  : 	6

Size of the tree : 	11
J48 pruned tree
------------------

bin4 <= 106
|   bin1 <= 87
|   |   bin32 <= 141
|   |   |   bin2 <= 98: NO (27.0)
|   |   |   bin2 > 98: YES (3.0/1.0)
|   |   bin32 > 141
|   |   |   bin2 <= 6: YES (3.0)
|   |   |   bin2 > 6: NO (7.0/2.0)
|   bin1 > 87
|   |   bin16 <= 13: YES (11.0)
|   |   bin16 > 13
|   |   |   bin30 <= 5: NO (3.0)
|   |   |   bin30 > 5: YES (14.0/3.0)
bin4 > 106: YES (22.0/1.0)

Number of Leaves  : 	8

Size of the tree : 	15
J48 pruned tree
------------------

bin2 <= 69
|   bin32 <= 1: NO (9.0)
|   bin32 > 1
|   |   bin1 <= 59
|   |   |   bin28 <= 7: NO (8.0)
|   |   |   bin28 > 7
|   |   |   |   bin4 <= 68
|   |   |   |   |   bin11 <= 17: YES (4.0/1.0)
|   |   |   |   |   bin11 > 17: NO (16.0)
|   |   |   |   bin4 > 68: YES (5.0)
|   |   bin1 > 59: YES (16.0/4.0)
bin2 > 69
|   bin24 <= 51: YES (26.0)
|   bin24 > 51
|   |   bin22 <= 66: NO (2.0)
|   |   bin22 > 66: YES (4.0)

Number of Leaves  : 	9

Size of the tree : 	17
J48 pruned tree
------------------

bin2 <= 69
|   bin1 <= 59: NO (36.0/8.0)
|   bin1 > 59
|   |   bin2 <= 38: YES (7.0)
|   |   bin2 > 38
|   |   |   bin32 <= 26: NO (7.0/1.0)
|   |   |   bin32 > 26: YES (5.0/1.0)
bin2 > 69
|   bin19 <= 83: YES (33.0/3.0)
|   bin19 > 83: NO (2.0)

Number of Leaves  : 	6

Size of the tree : 	11
Logistic model tree 
------------------
: LM_1:4/4 (90)

Number of Leaves  : 	1

Size of the Tree : 	1
LM_1:
Class 0 :
-1.31 + 
[bin1] * 0    +
[bin2] * 0.01 +
[bin4] * 0    +
[bin25] * -0.01

Class 1 :
1.31 + 
[bin1] * -0 +
[bin2] * -0.01 +
[bin4] * -0 +
[bin25] * 0.01
Logistic model tree 
------------------
: LM_1:56/56 (90)

Number of Leaves  : 	1

Size of the Tree : 	1
LM_1:
Class 0 :
-1.12 + 
[bin1] * 0.01 +
[bin2] * 0.01 +
[bin3] * 0    +
[bin4] * 0.01 +
[bin5] * -0 +
[bin6] * -0 +
[bin9] * -0 +
[bin10] * -0.01 +
[bin14] * 0.01 +
[bin17] * -0 +
[bin25] * -0.01 +
[bin28] * -0.01 +
[bin30] * 0.03 +
[bin31] * -0.01 +
[bin32] * 0.01

Class 1 :
1.12 + 
[bin1] * -0.01 +
[bin2] * -0.01 +
[bin3] * -0 +
[bin4] * -0.01 +
[bin5] * 0    +
[bin6] * 0    +
[bin9] * 0    +
[bin10] * 0.01 +
[bin14] * -0.01 +
[bin17] * 0    +
[bin25] * 0.01 +
[bin28] * 0.01 +
[bin30] * -0.03 +
[bin31] * 0.01 +
[bin32] * -0.01
Logistic model tree 
------------------
: LM_1:5/5 (90)

Number of Leaves  : 	1

Size of the Tree : 	1
LM_1:
Class 0 :
-1.15 + 
[bin1] * 0    +
[bin2] * 0.01 +
[bin4] * 0    +
[bin25] * -0.01 +
[bin32] * 0   

Class 1 :
1.15 + 
[bin1] * -0 +
[bin2] * -0.01 +
[bin4] * -0 +
[bin25] * 0.01 +
[bin32] * -0
Logistic model tree 
------------------
: LM_1:4/4 (90)

Number of Leaves  : 	1

Size of the Tree : 	1
LM_1:
Class 0 :
-1.03 + 
[bin1] * 0    +
[bin2] * 0.01 +
[bin24] * -0.01 +
[bin32] * 0   

Class 1 :
1.03 + 
[bin1] * -0 +
[bin2] * -0.01 +
[bin24] * 0.01 +
[bin32] * -0
Logistic model tree 
------------------
: LM_1:4/4 (90)

Number of Leaves  : 	1

Size of the Tree : 	1
LM_1:
Class 0 :
-0.92 + 
[bin1] * 0    +
[bin2] * 0.01 +
[bin21] * -0.01 +
[bin32] * 0   

Class 1 :
0.92 + 
[bin1] * -0 +
[bin2] * -0.01 +
[bin21] * 0.01 +
[bin32] * -0
Logistic model tree 
------------------
: LM_1:6/6 (90)

Number of Leaves  : 	1

Size of the Tree : 	1
LM_1:
Class 0 :
-0.85 + 
[bin1] * 0    +
[bin2] * 0.01 +
[bin4] * 0    +
[bin10] * -0 +
[bin25] * -0.01 +
[bin32] * 0   

Class 1 :
0.85 + 
[bin1] * -0 +
[bin2] * -0.01 +
[bin4] * -0 +
[bin10] * 0    +
[bin25] * 0.01 +
[bin32] * -0
Logistic model tree 
------------------
: LM_1:20/20 (90)

Number of Leaves  : 	1

Size of the Tree : 	1
LM_1:
Class 0 :
-0.9 + 
[bin1] * 0.01 +
[bin2] * 0.01 +
[bin3] * 0    +
[bin4] * 0.01 +
[bin10] * -0 +
[bin17] * -0 +
[bin25] * -0.01 +
[bin27] * -0 +
[bin30] * 0.01 +
[bin31] * -0.01 +
[bin32] * 0   

Class 1 :
0.9  + 
[bin1] * -0.01 +
[bin2] * -0.01 +
[bin3] * -0 +
[bin4] * -0.01 +
[bin10] * 0    +
[bin17] * 0    +
[bin25] * 0.01 +
[bin27] * 0    +
[bin30] * -0.01 +
[bin31] * 0.01 +
[bin32] * -0
Logistic model tree 
------------------

bin25 <= 91
|   bin4 <= 106: LM_1:9/27 (56)
|   bin4 > 106: LM_2:9/27 (22)
bin25 > 91: LM_3:9/18 (12)

Number of Leaves  : 	3

Size of the Tree : 	5


LM_1:
Class 0 :
-0.84 + 
[bin1] * 0.01 +
[bin2] * 0    +
[bin4] * 0.01 +
[bin6] * -0.02 +
[bin10] * -0.01 +
[bin12] * 0.01 +
[bin17] * -0 +
[bin18] * -0 +
[bin21] * -0 +
[bin24] * -0.01 +
[bin28] * -0 +
[bin30] * 0.01 +
[bin31] * -0 +
[bin32] * 0.01

Class 1 :
0.84 + 
[bin1] * -0.01 +
[bin2] * -0 +
[bin4] * -0.01 +
[bin6] * 0.02 +
[bin10] * 0.01 +
[bin12] * -0.01 +
[bin17] * 0    +
[bin18] * 0    +
[bin21] * 0    +
[bin24] * 0.01 +
[bin28] * 0    +
[bin30] * -0.01 +
[bin31] * 0    +
[bin32] * -0.01

LM_2:
Class 0 :
52.71 + 
[bin1] * -0.01 +
[bin2] * 0    +
[bin4] * -0.01 +
[bin6] * -0 +
[bin8] * -0.34 +
[bin10] * -0.01 +
[bin17] * -0 +
[bin24] * -0.01 +
[bin28] * -0 +
[bin30] * 0.01 +
[bin31] * -0 +
[bin32] * 0.01

Class 1 :
-52.71 + 
[bin1] * 0.01 +
[bin2] * -0 +
[bin4] * 0.01 +
[bin6] * 0    +
[bin8] * 0.34 +
[bin10] * 0.01 +
[bin17] * 0    +
[bin24] * 0.01 +
[bin28] * 0    +
[bin30] * -0.01 +
[bin31] * 0    +
[bin32] * -0.01

LM_3:
Class 0 :
-5.39 + 
[bin1] * 0.01 +
[bin2] * 0.01 +
[bin3] * -0 +
[bin4] * 0.01 +
[bin10] * -0.01 +
[bin24] * -0.01 +
[bin32] * 0.01

Class 1 :
5.39 + 
[bin1] * -0.01 +
[bin2] * -0.01 +
[bin3] * 0    +
[bin4] * -0.01 +
[bin10] * 0.01 +
[bin24] * 0.01 +
[bin32] * -0.01
Logistic model tree 
------------------
: LM_1:28/28 (90)

Number of Leaves  : 	1

Size of the Tree : 	1
LM_1:
Class 0 :
-1.11 + 
[bin1] * 0.01 +
[bin2] * 0.01 +
[bin4] * 0.01 +
[bin9] * -0 +
[bin10] * -0 +
[bin14] * 0    +
[bin17] * -0 +
[bin21] * -0.01 +
[bin28] * -0.02 +
[bin30] * 0.02 +
[bin31] * -0.01 +
[bin32] * 0.01

Class 1 :
1.11 + 
[bin1] * -0.01 +
[bin2] * -0.01 +
[bin4] * -0.01 +
[bin9] * 0    +
[bin10] * 0    +
[bin14] * -0 +
[bin17] * 0    +
[bin21] * 0.01 +
[bin28] * 0.02 +
[bin30] * -0.02 +
[bin31] * 0.01 +
[bin32] * -0.01
Logistic model tree 
------------------
: LM_1:5/5 (90)

Number of Leaves  : 	1

Size of the Tree : 	1
LM_1:
Class 0 :
-0.81 + 
[bin1] * 0    +
[bin2] * 0.01 +
[bin4] * 0    +
[bin21] * -0.01 +
[bin32] * 0   

Class 1 :
0.81 + 
[bin1] * -0 +
[bin2] * -0.01 +
[bin4] * -0 +
[bin21] * 0.01 +
[bin32] * -0

RandomTree
==========

bin21 < 47
|   bin18 < 52.5
|   |   bin2 < 70.5
|   |   |   bin1 < 59
|   |   |   |   bin28 < 7 : NO (8/0)
|   |   |   |   bin28 >= 7
|   |   |   |   |   bin24 < 22.5
|   |   |   |   |   |   bin6 < 29 : NO (1/0)
|   |   |   |   |   |   bin6 >= 29 : YES (3/0)
|   |   |   |   |   bin24 >= 22.5 : NO (4/0)
|   |   |   bin1 >= 59
|   |   |   |   bin31 < 1.5 : NO (2/0)
|   |   |   |   bin31 >= 1.5
|   |   |   |   |   bin3 < 28 : YES (6/0)
|   |   |   |   |   bin3 >= 28
|   |   |   |   |   |   bin11 < 20 : NO (2/0)
|   |   |   |   |   |   bin11 >= 20
|   |   |   |   |   |   |   bin4 < 48.5
|   |   |   |   |   |   |   |   bin13 < 32.5 : YES (1/0)
|   |   |   |   |   |   |   |   bin13 >= 32.5 : NO (1/0)
|   |   |   |   |   |   |   bin4 >= 48.5 : YES (2/0)
|   |   bin2 >= 70.5
|   |   |   bin3 < 119
|   |   |   |   bin32 < 6
|   |   |   |   |   bin6 < 38.5 : YES (3/0)
|   |   |   |   |   bin6 >= 38.5 : NO (2/0)
|   |   |   |   bin32 >= 6 : YES (8/0)
|   |   |   bin3 >= 119 : YES (13/0)
|   bin18 >= 52.5 : NO (3/0)
bin21 >= 47
|   bin2 < 97
|   |   bin16 < 141 : NO (23/0)
|   |   bin16 >= 141
|   |   |   bin6 < 64 : NO (2/0)
|   |   |   bin6 >= 64 : YES (1/0)
|   bin2 >= 97
|   |   bin23 < 65 : NO (2/0)
|   |   bin23 >= 65 : YES (3/0)

Size of the tree : 39
RandomTree
==========

bin24 < 50
|   bin18 < 122.5
|   |   bin2 < 70.5
|   |   |   bin10 < 72.5
|   |   |   |   bin30 < 9
|   |   |   |   |   bin15 < 13
|   |   |   |   |   |   bin17 < 2.5 : NO (2/0)
|   |   |   |   |   |   bin17 >= 2.5
|   |   |   |   |   |   |   bin3 < 43 : YES (4/0)
|   |   |   |   |   |   |   bin3 >= 43 : NO (1/0)
|   |   |   |   |   bin15 >= 13 : NO (6/0)
|   |   |   |   bin30 >= 9
|   |   |   |   |   bin17 < 14.5
|   |   |   |   |   |   bin11 < 19.5
|   |   |   |   |   |   |   bin17 < 12.5 : YES (3/0)
|   |   |   |   |   |   |   bin17 >= 12.5 : NO (2/0)
|   |   |   |   |   |   bin11 >= 19.5 : NO (2/0)
|   |   |   |   |   bin17 >= 14.5 : YES (9/0)
|   |   |   bin10 >= 72.5 : NO (8/0)
|   |   bin2 >= 70.5
|   |   |   bin15 < 22.5
|   |   |   |   bin12 < 24.5 : YES (7/0)
|   |   |   |   bin12 >= 24.5
|   |   |   |   |   bin32 < 15.5 : NO (2/0)
|   |   |   |   |   bin32 >= 15.5 : YES (1/0)
|   |   |   bin15 >= 22.5 : YES (13/0)
|   bin18 >= 122.5 : NO (3/0)
bin24 >= 50
|   bin6 < 60.5 : NO (21/0)
|   bin6 >= 60.5
|   |   bin26 < 52 : NO (3/0)
|   |   bin26 >= 52 : YES (3/0)

Size of the tree : 33
RandomTree
==========

bin25 < 97
|   bin3 < 14.5
|   |   bin8 < 9
|   |   |   bin1 < 3 : NO (1/0)
|   |   |   bin1 >= 3
|   |   |   |   bin3 < 6.5 : YES (2/0)
|   |   |   |   bin3 >= 6.5 : NO (1/0)
|   |   bin8 >= 9 : NO (10/0)
|   bin3 >= 14.5
|   |   bin32 < 1.5
|   |   |   bin5 < 29 : YES (1/0)
|   |   |   bin5 >= 29 : NO (5/0)
|   |   bin32 >= 1.5
|   |   |   bin3 < 110.5
|   |   |   |   bin19 < 17.5
|   |   |   |   |   bin32 < 14.5 : YES (8/0)
|   |   |   |   |   bin32 >= 14.5
|   |   |   |   |   |   bin23 < 5.5 : NO (2/0)
|   |   |   |   |   |   bin23 >= 5.5
|   |   |   |   |   |   |   bin28 < 7.5
|   |   |   |   |   |   |   |   bin3 < 24.5 : YES (1/0)
|   |   |   |   |   |   |   |   bin3 >= 24.5 : NO (1/0)
|   |   |   |   |   |   |   bin28 >= 7.5 : YES (5/0)
|   |   |   |   bin19 >= 17.5
|   |   |   |   |   bin17 < 31 : NO (5/0)
|   |   |   |   |   bin17 >= 31
|   |   |   |   |   |   bin30 < 19 : YES (4/0)
|   |   |   |   |   |   bin30 >= 19
|   |   |   |   |   |   |   bin11 < 59.5 : NO (5/0)
|   |   |   |   |   |   |   bin11 >= 59.5
|   |   |   |   |   |   |   |   bin5 < 66 : YES (2/0)
|   |   |   |   |   |   |   |   bin5 >= 66
|   |   |   |   |   |   |   |   |   bin7 < 81.5 : YES (1/0)
|   |   |   |   |   |   |   |   |   bin7 >= 81.5 : NO (3/0)
|   |   |   bin3 >= 110.5
|   |   |   |   bin31 < 10.5
|   |   |   |   |   bin18 < 15.5 : NO (2/0)
|   |   |   |   |   bin18 >= 15.5
|   |   |   |   |   |   bin5 < 130 : YES (2/0)
|   |   |   |   |   |   bin5 >= 130 : NO (1/0)
|   |   |   |   bin31 >= 10.5 : YES (14/0)
bin25 >= 97 : NO (14/0)

Size of the tree : 43
RandomTree
==========

bin25 < 97
|   bin3 < 44.5
|   |   bin8 < 18.5
|   |   |   bin1 < 3 : NO (2/0)
|   |   |   bin1 >= 3
|   |   |   |   bin22 < 4.5 : NO (2/0)
|   |   |   |   bin22 >= 4.5
|   |   |   |   |   bin19 < 11.5 : YES (5/0)
|   |   |   |   |   bin19 >= 11.5
|   |   |   |   |   |   bin17 < 14 : NO (2/0)
|   |   |   |   |   |   bin17 >= 14 : YES (3/0)
|   |   bin8 >= 18.5 : NO (17/0)
|   bin3 >= 44.5
|   |   bin26 < 56.5
|   |   |   bin8 < 134.5
|   |   |   |   bin2 < 109
|   |   |   |   |   bin23 < 29
|   |   |   |   |   |   bin25 < 4.5
|   |   |   |   |   |   |   bin3 < 105.5
|   |   |   |   |   |   |   |   bin3 < 61.5 : NO (1/0)
|   |   |   |   |   |   |   |   bin3 >= 61.5 : YES (2/0)
|   |   |   |   |   |   |   bin3 >= 105.5 : NO (2/0)
|   |   |   |   |   |   bin25 >= 4.5 : YES (7/0)
|   |   |   |   |   bin23 >= 29
|   |   |   |   |   |   bin15 < 89 : NO (5/0)
|   |   |   |   |   |   bin15 >= 89 : YES (1/0)
|   |   |   |   bin2 >= 109
|   |   |   |   |   bin25 < 8
|   |   |   |   |   |   bin5 < 99.5 : YES (2/0)
|   |   |   |   |   |   bin5 >= 99.5 : NO (1/0)
|   |   |   |   |   bin25 >= 8 : YES (14/0)
|   |   |   bin8 >= 134.5 : NO (4/0)
|   |   bin26 >= 56.5 : YES (6/0)
bin25 >= 97 : NO (14/0)

Size of the tree : 35
RandomTree
==========

bin25 < 97
|   bin3 < 64
|   |   bin18 < 17.5
|   |   |   bin15 < 23
|   |   |   |   bin7 < 2 : NO (1/0)
|   |   |   |   bin7 >= 2
|   |   |   |   |   bin32 < 14.5 : YES (7/0)
|   |   |   |   |   bin32 >= 14.5
|   |   |   |   |   |   bin6 < 18.5
|   |   |   |   |   |   |   bin21 < 18.5 : YES (5/0)
|   |   |   |   |   |   |   bin21 >= 18.5 : NO (1/0)
|   |   |   |   |   |   bin6 >= 18.5
|   |   |   |   |   |   |   bin19 < 8.5 : NO (2/0)
|   |   |   |   |   |   |   bin19 >= 8.5
|   |   |   |   |   |   |   |   bin8 < 18 : NO (1/0)
|   |   |   |   |   |   |   |   bin8 >= 18 : YES (2/0)
|   |   |   bin15 >= 23 : NO (2/0)
|   |   bin18 >= 17.5
|   |   |   bin7 < 81.5
|   |   |   |   bin5 < 44
|   |   |   |   |   bin6 < 18.5
|   |   |   |   |   |   bin3 < 5.5 : NO (3/0)
|   |   |   |   |   |   bin3 >= 5.5
|   |   |   |   |   |   |   bin7 < 7.5 : NO (1/0)
|   |   |   |   |   |   |   bin7 >= 7.5 : YES (2/0)
|   |   |   |   |   bin6 >= 18.5 : NO (11/0)
|   |   |   |   bin5 >= 44
|   |   |   |   |   bin11 < 43 : NO (1/0)
|   |   |   |   |   bin11 >= 43 : YES (4/0)
|   |   |   bin7 >= 81.5 : NO (7/0)
|   bin3 >= 64
|   |   bin25 < 5 : NO (2/0)
|   |   bin25 >= 5
|   |   |   bin13 < 139
|   |   |   |   bin31 < 11.5
|   |   |   |   |   bin23 < 24.5
|   |   |   |   |   |   bin5 < 116.5 : YES (6/0)
|   |   |   |   |   |   bin5 >= 116.5 : NO (1/0)
|   |   |   |   |   bin23 >= 24.5 : NO (2/0)
|   |   |   |   bin31 >= 11.5 : YES (14/0)
|   |   |   bin13 >= 139 : NO (1/0)
bin25 >= 97 : NO (14/0)

Size of the tree : 43
RandomTree
==========

bin25 < 97
|   bin3 < 61.5
|   |   bin10 < 26.5
|   |   |   bin6 < 25.5
|   |   |   |   bin3 < 8
|   |   |   |   |   bin32 < 80.5 : NO (2/0)
|   |   |   |   |   bin32 >= 80.5 : YES (2/0)
|   |   |   |   bin3 >= 8 : YES (12/0)
|   |   |   bin6 >= 25.5
|   |   |   |   bin20 < 9.5 : NO (5/0)
|   |   |   |   bin20 >= 9.5
|   |   |   |   |   bin3 < 50 : YES (3/0)
|   |   |   |   |   bin3 >= 50 : NO (1/0)
|   |   bin10 >= 26.5
|   |   |   bin31 < 12.5 : NO (9/0)
|   |   |   bin31 >= 12.5
|   |   |   |   bin2 < 42.5
|   |   |   |   |   bin2 < 8 : YES (1/0)
|   |   |   |   |   bin2 >= 8 : NO (6/0)
|   |   |   |   bin2 >= 42.5 : YES (3/0)
|   bin3 >= 61.5
|   |   bin9 < 132.5
|   |   |   bin30 < 9
|   |   |   |   bin21 < 11.5
|   |   |   |   |   bin15 < 13.5
|   |   |   |   |   |   bin2 < 36.5 : NO (1/0)
|   |   |   |   |   |   bin2 >= 36.5 : YES (2/0)
|   |   |   |   |   bin15 >= 13.5 : NO (2/0)
|   |   |   |   bin21 >= 11.5
|   |   |   |   |   bin25 < 18 : YES (7/0)
|   |   |   |   |   bin25 >= 18 : NO (1/0)
|   |   |   bin30 >= 9 : YES (19/0)
|   |   bin9 >= 132.5
|   |   |   bin7 < 135.5 : YES (1/0)
|   |   |   bin7 >= 135.5 : NO (2/0)
bin25 >= 97 : NO (11/0)

Size of the tree : 37
RandomTree
==========

bin25 < 97
|   bin3 < 44.5
|   |   bin10 < 23.5
|   |   |   bin1 < 23
|   |   |   |   bin22 < 15
|   |   |   |   |   bin32 < 35.5 : NO (3/0)
|   |   |   |   |   bin32 >= 35.5 : YES (3/0)
|   |   |   |   bin22 >= 15 : NO (3/0)
|   |   |   bin1 >= 23
|   |   |   |   bin4 < 4.5 : NO (1/0)
|   |   |   |   bin4 >= 4.5
|   |   |   |   |   bin3 < 28.5 : YES (9/0)
|   |   |   |   |   bin3 >= 28.5
|   |   |   |   |   |   bin8 < 16.5 : YES (1/0)
|   |   |   |   |   |   bin8 >= 16.5 : NO (1/0)
|   |   bin10 >= 23.5 : NO (10/0)
|   bin3 >= 44.5
|   |   bin2 < 108.5
|   |   |   bin2 < 101
|   |   |   |   bin9 < 153
|   |   |   |   |   bin24 < 4.5
|   |   |   |   |   |   bin21 < 3.5 : YES (2/0)
|   |   |   |   |   |   bin21 >= 3.5 : NO (2/0)
|   |   |   |   |   bin24 >= 4.5
|   |   |   |   |   |   bin20 < 79.5 : YES (13/0)
|   |   |   |   |   |   bin20 >= 79.5
|   |   |   |   |   |   |   bin11 < 74.5 : NO (1/0)
|   |   |   |   |   |   |   bin11 >= 74.5 : YES (2/0)
|   |   |   |   bin9 >= 153 : NO (2/0)
|   |   |   bin2 >= 101 : NO (2/0)
|   |   bin2 >= 108.5
|   |   |   bin32 < 1.5
|   |   |   |   bin7 < 42.5 : YES (1/0)
|   |   |   |   bin7 >= 42.5 : NO (1/0)
|   |   |   bin32 >= 1.5 : YES (19/0)
bin25 >= 97 : NO (14/0)

Size of the tree : 37
RandomTree
==========

bin25 < 97
|   bin3 < 52.5
|   |   bin18 < 12
|   |   |   bin15 < 21 : YES (12/0)
|   |   |   bin15 >= 21 : NO (2/0)
|   |   bin18 >= 12
|   |   |   bin27 < 17 : NO (10/0)
|   |   |   bin27 >= 17
|   |   |   |   bin32 < 11.5 : NO (4/0)
|   |   |   |   bin32 >= 11.5
|   |   |   |   |   bin16 < 21 : YES (3/0)
|   |   |   |   |   bin16 >= 21
|   |   |   |   |   |   bin3 < 15.5 : NO (2/0)
|   |   |   |   |   |   bin3 >= 15.5
|   |   |   |   |   |   |   bin8 < 20 : YES (1/0)
|   |   |   |   |   |   |   bin8 >= 20
|   |   |   |   |   |   |   |   bin2 < 41.5 : NO (2/0)
|   |   |   |   |   |   |   |   bin2 >= 41.5
|   |   |   |   |   |   |   |   |   bin2 < 60 : YES (2/0)
|   |   |   |   |   |   |   |   |   bin2 >= 60 : NO (1/0)
|   bin3 >= 52.5
|   |   bin9 < 150
|   |   |   bin7 < 52
|   |   |   |   bin21 < 24
|   |   |   |   |   bin21 < 11.5
|   |   |   |   |   |   bin3 < 94 : YES (2/0)
|   |   |   |   |   |   bin3 >= 94 : NO (2/0)
|   |   |   |   |   bin21 >= 11.5 : YES (6/0)
|   |   |   |   bin21 >= 24 : NO (2/0)
|   |   |   bin7 >= 52
|   |   |   |   bin9 < 132.5 : YES (23/0)
|   |   |   |   bin9 >= 132.5
|   |   |   |   |   bin7 < 144.5 : YES (1/0)
|   |   |   |   |   bin7 >= 144.5 : NO (1/0)
|   |   bin9 >= 150 : NO (2/0)
bin25 >= 97 : NO (12/0)

Size of the tree : 37
RandomTree
==========

bin25 < 102.5
|   bin3 < 64
|   |   bin18 < 12
|   |   |   bin6 < 25.5
|   |   |   |   bin7 < 2 : NO (1/0)
|   |   |   |   bin7 >= 2 : YES (11/0)
|   |   |   bin6 >= 25.5
|   |   |   |   bin19 < 8.5
|   |   |   |   |   bin5 < 128.5 : NO (3/0)
|   |   |   |   |   bin5 >= 128.5 : YES (1/0)
|   |   |   |   bin19 >= 8.5 : YES (2/0)
|   |   bin18 >= 12
|   |   |   bin26 < 12 : NO (10/0)
|   |   |   bin26 >= 12
|   |   |   |   bin31 < 10 : NO (3/0)
|   |   |   |   bin31 >= 10
|   |   |   |   |   bin30 < 18.5 : YES (4/0)
|   |   |   |   |   bin30 >= 18.5
|   |   |   |   |   |   bin23 < 19.5 : YES (2/0)
|   |   |   |   |   |   bin23 >= 19.5
|   |   |   |   |   |   |   bin2 < 7.5
|   |   |   |   |   |   |   |   bin3 < 3 : NO (1/0)
|   |   |   |   |   |   |   |   bin3 >= 3 : YES (2/0)
|   |   |   |   |   |   |   bin2 >= 7.5
|   |   |   |   |   |   |   |   bin14 < 122.5 : NO (9/0)
|   |   |   |   |   |   |   |   bin14 >= 122.5 : YES (1/0)
|   bin3 >= 64
|   |   bin21 < 7.5 : NO (2/0)
|   |   bin21 >= 7.5
|   |   |   bin11 < 87.5 : YES (22/0)
|   |   |   bin11 >= 87.5
|   |   |   |   bin13 < 80.5 : NO (1/0)
|   |   |   |   bin13 >= 80.5 : YES (5/0)
bin25 >= 102.5 : NO (10/0)

Size of the tree : 35
RandomTree
==========

bin25 < 97
|   bin3 < 61.5
|   |   bin12 < 25.5
|   |   |   bin15 < 29.5
|   |   |   |   bin8 < 25
|   |   |   |   |   bin7 < 23.5
|   |   |   |   |   |   bin4 < 39
|   |   |   |   |   |   |   bin17 < 2 : NO (1/0)
|   |   |   |   |   |   |   bin17 >= 2
|   |   |   |   |   |   |   |   bin19 < 11.5 : YES (9/0)
|   |   |   |   |   |   |   |   bin19 >= 11.5
|   |   |   |   |   |   |   |   |   bin2 < 43.5
|   |   |   |   |   |   |   |   |   |   bin2 < 7.5 : YES (1/0)
|   |   |   |   |   |   |   |   |   |   bin2 >= 7.5 : NO (2/0)
|   |   |   |   |   |   |   |   |   bin2 >= 43.5 : YES (2/0)
|   |   |   |   |   |   bin4 >= 39 : NO (1/0)
|   |   |   |   |   bin7 >= 23.5 : NO (2/0)
|   |   |   |   bin8 >= 25 : YES (4/0)
|   |   |   bin15 >= 29.5 : NO (2/0)
|   |   bin12 >= 25.5
|   |   |   bin1 < 103
|   |   |   |   bin30 < 109 : NO (15/0)
|   |   |   |   bin30 >= 109 : YES (1/0)
|   |   |   bin1 >= 103
|   |   |   |   bin17 < 31 : NO (1/0)
|   |   |   |   bin17 >= 31 : YES (4/0)
|   bin3 >= 61.5
|   |   bin29 < 4.5
|   |   |   bin3 < 73 : YES (2/0)
|   |   |   bin3 >= 73
|   |   |   |   bin32 < 2 : YES (1/0)
|   |   |   |   bin32 >= 2 : NO (3/0)
|   |   bin29 >= 4.5
|   |   |   bin18 < 96.5
|   |   |   |   bin31 < 4 : NO (1/0)
|   |   |   |   bin31 >= 4
|   |   |   |   |   bin10 < 120 : YES (23/0)
|   |   |   |   |   bin10 >= 120
|   |   |   |   |   |   bin3 < 129 : YES (2/0)
|   |   |   |   |   |   bin3 >= 129 : NO (1/0)
|   |   |   bin18 >= 96.5
|   |   |   |   bin20 < 119.5 : NO (2/0)
|   |   |   |   bin20 >= 119.5 : YES (1/0)
bin25 >= 97 : NO (9/0)

Size of the tree : 45Decision Stump

Classifications

bin2 <= 70.5 : NO
bin2 > 70.5 : YES
bin2 is missing : NO

Class distributions

bin2 <= 70.5
YES	NO	
0.22413793103448276	0.7758620689655172	
bin2 > 70.5
YES	NO	
0.84375	0.15625	
bin2 is missing
YES	NO	
0.4444444444444444	0.5555555555555556	
Decision Stump

Classifications

bin2 <= 70.5 : NO
bin2 > 70.5 : YES
bin2 is missing : NO

Class distributions

bin2 <= 70.5
YES	NO	
0.2857142857142857	0.7142857142857143	
bin2 > 70.5
YES	NO	
0.8148148148148148	0.18518518518518517	
bin2 is missing
YES	NO	
0.4444444444444444	0.5555555555555556	
Decision Stump

Classifications

bin1 <= 39.5 : NO
bin1 > 39.5 : YES
bin1 is missing : NO

Class distributions

bin1 <= 39.5
YES	NO	
0.1956521739130435	0.8043478260869565	
bin1 > 39.5
YES	NO	
0.7045454545454546	0.29545454545454547	
bin1 is missing
YES	NO	
0.4444444444444444	0.5555555555555556	
Decision Stump

Classifications

bin2 <= 70.5 : NO
bin2 > 70.5 : YES
bin2 is missing : NO

Class distributions

bin2 <= 70.5
YES	NO	
0.25	0.75	
bin2 > 70.5
YES	NO	
0.8333333333333334	0.16666666666666666	
bin2 is missing
YES	NO	
0.4444444444444444	0.5555555555555556	
Decision Stump

Classifications

bin1 <= 39.5 : NO
bin1 > 39.5 : YES
bin1 is missing : NO

Class distributions

bin1 <= 39.5
YES	NO	
0.17777777777777778	0.8222222222222222	
bin1 > 39.5
YES	NO	
0.7111111111111111	0.28888888888888886	
bin1 is missing
YES	NO	
0.4444444444444444	0.5555555555555556	
Decision Stump

Classifications

bin2 <= 70.5 : NO
bin2 > 70.5 : YES
bin2 is missing : YES

Class distributions

bin2 <= 70.5
YES	NO	
0.35714285714285715	0.6428571428571429	
bin2 > 70.5
YES	NO	
0.8823529411764706	0.11764705882352941	
bin2 is missing
YES	NO	
0.5555555555555556	0.4444444444444444	
Decision Stump

Classifications

bin1 <= 39.5 : NO
bin1 > 39.5 : YES
bin1 is missing : YES

Class distributions

bin1 <= 39.5
YES	NO	
0.2619047619047619	0.7380952380952381	
bin1 > 39.5
YES	NO	
0.8125	0.1875	
bin1 is missing
YES	NO	
0.5555555555555556	0.4444444444444444	
Decision Stump

Classifications

bin1 <= 39.0 : NO
bin1 > 39.0 : YES
bin1 is missing : YES

Class distributions

bin1 <= 39.0
YES	NO	
0.2619047619047619	0.7380952380952381	
bin1 > 39.0
YES	NO	
0.8125	0.1875	
bin1 is missing
YES	NO	
0.5555555555555556	0.4444444444444444	
Decision Stump

Classifications

bin2 <= 70.5 : NO
bin2 > 70.5 : YES
bin2 is missing : YES

Class distributions

bin2 <= 70.5
YES	NO	
0.3448275862068966	0.6551724137931034	
bin2 > 70.5
YES	NO	
0.9375	0.0625	
bin2 is missing
YES	NO	
0.5555555555555556	0.4444444444444444	
Decision Stump

Classifications

bin2 <= 70.5 : NO
bin2 > 70.5 : YES
bin2 is missing : YES

Class distributions

bin2 <= 70.5
YES	NO	
0.36363636363636365	0.6363636363636364	
bin2 > 70.5
YES	NO	
0.8571428571428571	0.14285714285714285	
bin2 is missing
YES	NO	
0.5555555555555556	0.4444444444444444	
J48 pruned tree
------------------

bin2 <= 69
|   bin1 <= 59
|   |   bin4 <= 72: NO (34.0)
|   |   bin4 > 72
|   |   |   bin26 <= 8: NO (3.0)
|   |   |   bin26 > 8: YES (5.0/1.0)
|   bin1 > 59
|   |   bin2 <= 39: YES (6.0)
|   |   bin2 > 39
|   |   |   bin30 <= 9: NO (5.0)
|   |   |   bin30 > 9
|   |   |   |   bin19 <= 37: YES (3.0)
|   |   |   |   bin19 > 37: NO (2.0)
bin2 > 69
|   bin20 <= 76: YES (30.0/3.0)
|   bin20 > 76: NO (2.0)

Number of Leaves  : 	9

Size of the tree : 	17
J48 pruned tree
------------------

bin25 <= 91
|   bin2 <= 111
|   |   bin16 <= 18
|   |   |   bin13 <= 14
|   |   |   |   bin11 <= 10: YES (11.0/3.0)
|   |   |   |   bin11 > 10: NO (4.0)
|   |   |   bin13 > 14: YES (7.0)
|   |   bin16 > 18
|   |   |   bin31 <= 10: NO (15.0)
|   |   |   bin31 > 10
|   |   |   |   bin1 <= 101
|   |   |   |   |   bin4 <= 68: NO (10.0)
|   |   |   |   |   bin4 > 68: YES (7.0/1.0)
|   |   |   |   bin1 > 101
|   |   |   |   |   bin2 <= 61: YES (4.0)
|   |   |   |   |   bin2 > 61: NO (2.0)
|   bin2 > 111: YES (16.0/1.0)
bin25 > 91: NO (14.0)

Number of Leaves  : 	10

Size of the tree : 	19
J48 pruned tree
------------------

bin1 <= 37
|   bin4 <= 72
|   |   bin11 <= 11
|   |   |   bin32 <= 80: NO (3.0)
|   |   |   bin32 > 80: YES (4.0/1.0)
|   |   bin11 > 11: NO (29.0)
|   bin4 > 72
|   |   bin26 <= 8: NO (3.0)
|   |   bin26 > 8: YES (7.0/1.0)
bin1 > 37: YES (44.0/13.0)

Number of Leaves  : 	6

Size of the tree : 	11
J48 pruned tree
------------------

bin2 <= 69
|   bin32 <= 6: NO (20.0)
|   bin32 > 6
|   |   bin10 <= 11: YES (7.0/1.0)
|   |   bin10 > 11
|   |   |   bin1 <= 59
|   |   |   |   bin3 <= 52: NO (16.0)
|   |   |   |   bin3 > 52
|   |   |   |   |   bin8 <= 89: YES (3.0)
|   |   |   |   |   bin8 > 89: NO (3.0)
|   |   |   bin1 > 59
|   |   |   |   bin5 <= 47
|   |   |   |   |   bin32 <= 28: NO (4.0)
|   |   |   |   |   bin32 > 28: YES (4.0/1.0)
|   |   |   |   bin5 > 47: YES (3.0)
bin2 > 69
|   bin19 <= 83: YES (28.0/3.0)
|   bin19 > 83: NO (2.0)

Number of Leaves  : 	10

Size of the tree : 	19
J48 pruned tree
------------------

bin2 <= 69
|   bin15 <= 16
|   |   bin13 <= 14
|   |   |   bin11 <= 10
|   |   |   |   bin17 <= 2: NO (2.0)
|   |   |   |   bin17 > 2
|   |   |   |   |   bin17 <= 12: YES (5.0)
|   |   |   |   |   bin17 > 12: NO (3.0/1.0)
|   |   |   bin11 > 10: NO (4.0)
|   |   bin13 > 14: YES (5.0)
|   bin15 > 16
|   |   bin32 <= 26: NO (25.0)
|   |   bin32 > 26
|   |   |   bin1 <= 101
|   |   |   |   bin4 <= 68: NO (11.0)
|   |   |   |   bin4 > 68: YES (3.0/1.0)
|   |   |   bin1 > 101: YES (3.0)
bin2 > 69
|   bin19 <= 83: YES (27.0/3.0)
|   bin19 > 83: NO (2.0)

Number of Leaves  : 	11

Size of the tree : 	21
J48 pruned tree
------------------

bin25 <= 91
|   bin2 <= 69
|   |   bin32 <= 1: NO (6.0)
|   |   bin32 > 1
|   |   |   bin6 <= 17: YES (8.0)
|   |   |   bin6 > 17: NO (31.0/12.0)
|   bin2 > 69
|   |   bin8 <= 141
|   |   |   bin31 <= 5
|   |   |   |   bin12 <= 25: YES (6.0)
|   |   |   |   bin12 > 25: NO (2.0)
|   |   |   bin31 > 5: YES (24.0)
|   |   bin8 > 141: NO (2.0)
bin25 > 91: NO (11.0)

Number of Leaves  : 	8

Size of the tree : 	15
J48 pruned tree
------------------

bin25 <= 91
|   bin1 <= 37
|   |   bin3 <= 52
|   |   |   bin15 <= 17
|   |   |   |   bin32 <= 28: NO (2.0)
|   |   |   |   bin32 > 28: YES (5.0/1.0)
|   |   |   bin15 > 17: NO (14.0)
|   |   bin3 > 52: YES (8.0/1.0)
|   bin1 > 37: YES (47.0/8.0)
bin25 > 91: NO (14.0)

Number of Leaves  : 	6

Size of the tree : 	11
J48 pruned tree
------------------

bin4 <= 106
|   bin1 <= 87
|   |   bin32 <= 141
|   |   |   bin2 <= 98: NO (27.0)
|   |   |   bin2 > 98: YES (3.0/1.0)
|   |   bin32 > 141
|   |   |   bin2 <= 6: YES (3.0)
|   |   |   bin2 > 6: NO (7.0/2.0)
|   bin1 > 87
|   |   bin16 <= 13: YES (11.0)
|   |   bin16 > 13
|   |   |   bin30 <= 5: NO (3.0)
|   |   |   bin30 > 5: YES (14.0/3.0)
bin4 > 106: YES (22.0/1.0)

Number of Leaves  : 	8

Size of the tree : 	15
J48 pruned tree
------------------

bin2 <= 69
|   bin32 <= 1: NO (9.0)
|   bin32 > 1
|   |   bin1 <= 59
|   |   |   bin28 <= 7: NO (8.0)
|   |   |   bin28 > 7
|   |   |   |   bin4 <= 68
|   |   |   |   |   bin11 <= 17: YES (4.0/1.0)
|   |   |   |   |   bin11 > 17: NO (16.0)
|   |   |   |   bin4 > 68: YES (5.0)
|   |   bin1 > 59: YES (16.0/4.0)
bin2 > 69
|   bin24 <= 51: YES (26.0)
|   bin24 > 51
|   |   bin22 <= 66: NO (2.0)
|   |   bin22 > 66: YES (4.0)

Number of Leaves  : 	9

Size of the tree : 	17
J48 pruned tree
------------------

bin2 <= 69
|   bin1 <= 59: NO (36.0/8.0)
|   bin1 > 59
|   |   bin2 <= 38: YES (7.0)
|   |   bin2 > 38
|   |   |   bin32 <= 26: NO (7.0/1.0)
|   |   |   bin32 > 26: YES (5.0/1.0)
bin2 > 69
|   bin19 <= 83: YES (33.0/3.0)
|   bin19 > 83: NO (2.0)

Number of Leaves  : 	6

Size of the tree : 	11
Accuracy of J48: 68,00%
---------------------------------Logistic model tree 
------------------
: LM_1:4/4 (90)

Number of Leaves  : 	1

Size of the Tree : 	1
LM_1:
Class 0 :
-1.31 + 
[bin1] * 0    +
[bin2] * 0.01 +
[bin4] * 0    +
[bin25] * -0.01

Class 1 :
1.31 + 
[bin1] * -0 +
[bin2] * -0.01 +
[bin4] * -0 +
[bin25] * 0.01
Logistic model tree 
------------------
: LM_1:56/56 (90)

Number of Leaves  : 	1

Size of the Tree : 	1
LM_1:
Class 0 :
-1.12 + 
[bin1] * 0.01 +
[bin2] * 0.01 +
[bin3] * 0    +
[bin4] * 0.01 +
[bin5] * -0 +
[bin6] * -0 +
[bin9] * -0 +
[bin10] * -0.01 +
[bin14] * 0.01 +
[bin17] * -0 +
[bin25] * -0.01 +
[bin28] * -0.01 +
[bin30] * 0.03 +
[bin31] * -0.01 +
[bin32] * 0.01

Class 1 :
1.12 + 
[bin1] * -0.01 +
[bin2] * -0.01 +
[bin3] * -0 +
[bin4] * -0.01 +
[bin5] * 0    +
[bin6] * 0    +
[bin9] * 0    +
[bin10] * 0.01 +
[bin14] * -0.01 +
[bin17] * 0    +
[bin25] * 0.01 +
[bin28] * 0.01 +
[bin30] * -0.03 +
[bin31] * 0.01 +
[bin32] * -0.01
Logistic model tree 
------------------
: LM_1:5/5 (90)

Number of Leaves  : 	1

Size of the Tree : 	1
LM_1:
Class 0 :
-1.15 + 
[bin1] * 0    +
[bin2] * 0.01 +
[bin4] * 0    +
[bin25] * -0.01 +
[bin32] * 0   

Class 1 :
1.15 + 
[bin1] * -0 +
[bin2] * -0.01 +
[bin4] * -0 +
[bin25] * 0.01 +
[bin32] * -0
Logistic model tree 
------------------
: LM_1:4/4 (90)

Number of Leaves  : 	1

Size of the Tree : 	1
LM_1:
Class 0 :
-1.03 + 
[bin1] * 0    +
[bin2] * 0.01 +
[bin24] * -0.01 +
[bin32] * 0   

Class 1 :
1.03 + 
[bin1] * -0 +
[bin2] * -0.01 +
[bin24] * 0.01 +
[bin32] * -0
Logistic model tree 
------------------
: LM_1:4/4 (90)

Number of Leaves  : 	1

Size of the Tree : 	1
LM_1:
Class 0 :
-0.92 + 
[bin1] * 0    +
[bin2] * 0.01 +
[bin21] * -0.01 +
[bin32] * 0   

Class 1 :
0.92 + 
[bin1] * -0 +
[bin2] * -0.01 +
[bin21] * 0.01 +
[bin32] * -0
Logistic model tree 
------------------
: LM_1:6/6 (90)

Number of Leaves  : 	1

Size of the Tree : 	1
LM_1:
Class 0 :
-0.85 + 
[bin1] * 0    +
[bin2] * 0.01 +
[bin4] * 0    +
[bin10] * -0 +
[bin25] * -0.01 +
[bin32] * 0   

Class 1 :
0.85 + 
[bin1] * -0 +
[bin2] * -0.01 +
[bin4] * -0 +
[bin10] * 0    +
[bin25] * 0.01 +
[bin32] * -0
Logistic model tree 
------------------
: LM_1:20/20 (90)

Number of Leaves  : 	1

Size of the Tree : 	1
LM_1:
Class 0 :
-0.9 + 
[bin1] * 0.01 +
[bin2] * 0.01 +
[bin3] * 0    +
[bin4] * 0.01 +
[bin10] * -0 +
[bin17] * -0 +
[bin25] * -0.01 +
[bin27] * -0 +
[bin30] * 0.01 +
[bin31] * -0.01 +
[bin32] * 0   

Class 1 :
0.9  + 
[bin1] * -0.01 +
[bin2] * -0.01 +
[bin3] * -0 +
[bin4] * -0.01 +
[bin10] * 0    +
[bin17] * 0    +
[bin25] * 0.01 +
[bin27] * 0    +
[bin30] * -0.01 +
[bin31] * 0.01 +
[bin32] * -0
Logistic model tree 
------------------

bin25 <= 91
|   bin4 <= 106: LM_1:9/27 (56)
|   bin4 > 106: LM_2:9/27 (22)
bin25 > 91: LM_3:9/18 (12)

Number of Leaves  : 	3

Size of the Tree : 	5


LM_1:
Class 0 :
-0.84 + 
[bin1] * 0.01 +
[bin2] * 0    +
[bin4] * 0.01 +
[bin6] * -0.02 +
[bin10] * -0.01 +
[bin12] * 0.01 +
[bin17] * -0 +
[bin18] * -0 +
[bin21] * -0 +
[bin24] * -0.01 +
[bin28] * -0 +
[bin30] * 0.01 +
[bin31] * -0 +
[bin32] * 0.01

Class 1 :
0.84 + 
[bin1] * -0.01 +
[bin2] * -0 +
[bin4] * -0.01 +
[bin6] * 0.02 +
[bin10] * 0.01 +
[bin12] * -0.01 +
[bin17] * 0    +
[bin18] * 0    +
[bin21] * 0    +
[bin24] * 0.01 +
[bin28] * 0    +
[bin30] * -0.01 +
[bin31] * 0    +
[bin32] * -0.01

LM_2:
Class 0 :
52.71 + 
[bin1] * -0.01 +
[bin2] * 0    +
[bin4] * -0.01 +
[bin6] * -0 +
[bin8] * -0.34 +
[bin10] * -0.01 +
[bin17] * -0 +
[bin24] * -0.01 +
[bin28] * -0 +
[bin30] * 0.01 +
[bin31] * -0 +
[bin32] * 0.01

Class 1 :
-52.71 + 
[bin1] * 0.01 +
[bin2] * -0 +
[bin4] * 0.01 +
[bin6] * 0    +
[bin8] * 0.34 +
[bin10] * 0.01 +
[bin17] * 0    +
[bin24] * 0.01 +
[bin28] * 0    +
[bin30] * -0.01 +
[bin31] * 0    +
[bin32] * -0.01

LM_3:
Class 0 :
-5.39 + 
[bin1] * 0.01 +
[bin2] * 0.01 +
[bin3] * -0 +
[bin4] * 0.01 +
[bin10] * -0.01 +
[bin24] * -0.01 +
[bin32] * 0.01

Class 1 :
5.39 + 
[bin1] * -0.01 +
[bin2] * -0.01 +
[bin3] * 0    +
[bin4] * -0.01 +
[bin10] * 0.01 +
[bin24] * 0.01 +
[bin32] * -0.01
Logistic model tree 
------------------
: LM_1:28/28 (90)

Number of Leaves  : 	1

Size of the Tree : 	1
LM_1:
Class 0 :
-1.11 + 
[bin1] * 0.01 +
[bin2] * 0.01 +
[bin4] * 0.01 +
[bin9] * -0 +
[bin10] * -0 +
[bin14] * 0    +
[bin17] * -0 +
[bin21] * -0.01 +
[bin28] * -0.02 +
[bin30] * 0.02 +
[bin31] * -0.01 +
[bin32] * 0.01

Class 1 :
1.11 + 
[bin1] * -0.01 +
[bin2] * -0.01 +
[bin4] * -0.01 +
[bin9] * 0    +
[bin10] * 0    +
[bin14] * -0 +
[bin17] * 0    +
[bin21] * 0.01 +
[bin28] * 0.02 +
[bin30] * -0.02 +
[bin31] * 0.01 +
[bin32] * -0.01
Logistic model tree 
------------------
: LM_1:5/5 (90)

Number of Leaves  : 	1

Size of the Tree : 	1
LM_1:
Class 0 :
-0.81 + 
[bin1] * 0    +
[bin2] * 0.01 +
[bin4] * 0    +
[bin21] * -0.01 +
[bin32] * 0   

Class 1 :
0.81 + 
[bin1] * -0 +
[bin2] * -0.01 +
[bin4] * -0 +
[bin21] * 0.01 +
[bin32] * -0
Accuracy of LMT: 71,00%
---------------------------------
RandomTree
==========

bin21 < 47
|   bin18 < 52.5
|   |   bin2 < 70.5
|   |   |   bin1 < 59
|   |   |   |   bin28 < 7 : NO (8/0)
|   |   |   |   bin28 >= 7
|   |   |   |   |   bin24 < 22.5
|   |   |   |   |   |   bin6 < 29 : NO (1/0)
|   |   |   |   |   |   bin6 >= 29 : YES (3/0)
|   |   |   |   |   bin24 >= 22.5 : NO (4/0)
|   |   |   bin1 >= 59
|   |   |   |   bin31 < 1.5 : NO (2/0)
|   |   |   |   bin31 >= 1.5
|   |   |   |   |   bin3 < 28 : YES (6/0)
|   |   |   |   |   bin3 >= 28
|   |   |   |   |   |   bin11 < 20 : NO (2/0)
|   |   |   |   |   |   bin11 >= 20
|   |   |   |   |   |   |   bin4 < 48.5
|   |   |   |   |   |   |   |   bin13 < 32.5 : YES (1/0)
|   |   |   |   |   |   |   |   bin13 >= 32.5 : NO (1/0)
|   |   |   |   |   |   |   bin4 >= 48.5 : YES (2/0)
|   |   bin2 >= 70.5
|   |   |   bin3 < 119
|   |   |   |   bin32 < 6
|   |   |   |   |   bin6 < 38.5 : YES (3/0)
|   |   |   |   |   bin6 >= 38.5 : NO (2/0)
|   |   |   |   bin32 >= 6 : YES (8/0)
|   |   |   bin3 >= 119 : YES (13/0)
|   bin18 >= 52.5 : NO (3/0)
bin21 >= 47
|   bin2 < 97
|   |   bin16 < 141 : NO (23/0)
|   |   bin16 >= 141
|   |   |   bin6 < 64 : NO (2/0)
|   |   |   bin6 >= 64 : YES (1/0)
|   bin2 >= 97
|   |   bin23 < 65 : NO (2/0)
|   |   bin23 >= 65 : YES (3/0)

Size of the tree : 39
RandomTree
==========

bin24 < 50
|   bin18 < 122.5
|   |   bin2 < 70.5
|   |   |   bin10 < 72.5
|   |   |   |   bin30 < 9
|   |   |   |   |   bin15 < 13
|   |   |   |   |   |   bin17 < 2.5 : NO (2/0)
|   |   |   |   |   |   bin17 >= 2.5
|   |   |   |   |   |   |   bin3 < 43 : YES (4/0)
|   |   |   |   |   |   |   bin3 >= 43 : NO (1/0)
|   |   |   |   |   bin15 >= 13 : NO (6/0)
|   |   |   |   bin30 >= 9
|   |   |   |   |   bin17 < 14.5
|   |   |   |   |   |   bin11 < 19.5
|   |   |   |   |   |   |   bin17 < 12.5 : YES (3/0)
|   |   |   |   |   |   |   bin17 >= 12.5 : NO (2/0)
|   |   |   |   |   |   bin11 >= 19.5 : NO (2/0)
|   |   |   |   |   bin17 >= 14.5 : YES (9/0)
|   |   |   bin10 >= 72.5 : NO (8/0)
|   |   bin2 >= 70.5
|   |   |   bin15 < 22.5
|   |   |   |   bin12 < 24.5 : YES (7/0)
|   |   |   |   bin12 >= 24.5
|   |   |   |   |   bin32 < 15.5 : NO (2/0)
|   |   |   |   |   bin32 >= 15.5 : YES (1/0)
|   |   |   bin15 >= 22.5 : YES (13/0)
|   bin18 >= 122.5 : NO (3/0)
bin24 >= 50
|   bin6 < 60.5 : NO (21/0)
|   bin6 >= 60.5
|   |   bin26 < 52 : NO (3/0)
|   |   bin26 >= 52 : YES (3/0)

Size of the tree : 33
RandomTree
==========

bin25 < 97
|   bin3 < 14.5
|   |   bin8 < 9
|   |   |   bin1 < 3 : NO (1/0)
|   |   |   bin1 >= 3
|   |   |   |   bin3 < 6.5 : YES (2/0)
|   |   |   |   bin3 >= 6.5 : NO (1/0)
|   |   bin8 >= 9 : NO (10/0)
|   bin3 >= 14.5
|   |   bin32 < 1.5
|   |   |   bin5 < 29 : YES (1/0)
|   |   |   bin5 >= 29 : NO (5/0)
|   |   bin32 >= 1.5
|   |   |   bin3 < 110.5
|   |   |   |   bin19 < 17.5
|   |   |   |   |   bin32 < 14.5 : YES (8/0)
|   |   |   |   |   bin32 >= 14.5
|   |   |   |   |   |   bin23 < 5.5 : NO (2/0)
|   |   |   |   |   |   bin23 >= 5.5
|   |   |   |   |   |   |   bin28 < 7.5
|   |   |   |   |   |   |   |   bin3 < 24.5 : YES (1/0)
|   |   |   |   |   |   |   |   bin3 >= 24.5 : NO (1/0)
|   |   |   |   |   |   |   bin28 >= 7.5 : YES (5/0)
|   |   |   |   bin19 >= 17.5
|   |   |   |   |   bin17 < 31 : NO (5/0)
|   |   |   |   |   bin17 >= 31
|   |   |   |   |   |   bin30 < 19 : YES (4/0)
|   |   |   |   |   |   bin30 >= 19
|   |   |   |   |   |   |   bin11 < 59.5 : NO (5/0)
|   |   |   |   |   |   |   bin11 >= 59.5
|   |   |   |   |   |   |   |   bin5 < 66 : YES (2/0)
|   |   |   |   |   |   |   |   bin5 >= 66
|   |   |   |   |   |   |   |   |   bin7 < 81.5 : YES (1/0)
|   |   |   |   |   |   |   |   |   bin7 >= 81.5 : NO (3/0)
|   |   |   bin3 >= 110.5
|   |   |   |   bin31 < 10.5
|   |   |   |   |   bin18 < 15.5 : NO (2/0)
|   |   |   |   |   bin18 >= 15.5
|   |   |   |   |   |   bin5 < 130 : YES (2/0)
|   |   |   |   |   |   bin5 >= 130 : NO (1/0)
|   |   |   |   bin31 >= 10.5 : YES (14/0)
bin25 >= 97 : NO (14/0)

Size of the tree : 43
RandomTree
==========

bin25 < 97
|   bin3 < 44.5
|   |   bin8 < 18.5
|   |   |   bin1 < 3 : NO (2/0)
|   |   |   bin1 >= 3
|   |   |   |   bin22 < 4.5 : NO (2/0)
|   |   |   |   bin22 >= 4.5
|   |   |   |   |   bin19 < 11.5 : YES (5/0)
|   |   |   |   |   bin19 >= 11.5
|   |   |   |   |   |   bin17 < 14 : NO (2/0)
|   |   |   |   |   |   bin17 >= 14 : YES (3/0)
|   |   bin8 >= 18.5 : NO (17/0)
|   bin3 >= 44.5
|   |   bin26 < 56.5
|   |   |   bin8 < 134.5
|   |   |   |   bin2 < 109
|   |   |   |   |   bin23 < 29
|   |   |   |   |   |   bin25 < 4.5
|   |   |   |   |   |   |   bin3 < 105.5
|   |   |   |   |   |   |   |   bin3 < 61.5 : NO (1/0)
|   |   |   |   |   |   |   |   bin3 >= 61.5 : YES (2/0)
|   |   |   |   |   |   |   bin3 >= 105.5 : NO (2/0)
|   |   |   |   |   |   bin25 >= 4.5 : YES (7/0)
|   |   |   |   |   bin23 >= 29
|   |   |   |   |   |   bin15 < 89 : NO (5/0)
|   |   |   |   |   |   bin15 >= 89 : YES (1/0)
|   |   |   |   bin2 >= 109
|   |   |   |   |   bin25 < 8
|   |   |   |   |   |   bin5 < 99.5 : YES (2/0)
|   |   |   |   |   |   bin5 >= 99.5 : NO (1/0)
|   |   |   |   |   bin25 >= 8 : YES (14/0)
|   |   |   bin8 >= 134.5 : NO (4/0)
|   |   bin26 >= 56.5 : YES (6/0)
bin25 >= 97 : NO (14/0)

Size of the tree : 35
RandomTree
==========

bin25 < 97
|   bin3 < 64
|   |   bin18 < 17.5
|   |   |   bin15 < 23
|   |   |   |   bin7 < 2 : NO (1/0)
|   |   |   |   bin7 >= 2
|   |   |   |   |   bin32 < 14.5 : YES (7/0)
|   |   |   |   |   bin32 >= 14.5
|   |   |   |   |   |   bin6 < 18.5
|   |   |   |   |   |   |   bin21 < 18.5 : YES (5/0)
|   |   |   |   |   |   |   bin21 >= 18.5 : NO (1/0)
|   |   |   |   |   |   bin6 >= 18.5
|   |   |   |   |   |   |   bin19 < 8.5 : NO (2/0)
|   |   |   |   |   |   |   bin19 >= 8.5
|   |   |   |   |   |   |   |   bin8 < 18 : NO (1/0)
|   |   |   |   |   |   |   |   bin8 >= 18 : YES (2/0)
|   |   |   bin15 >= 23 : NO (2/0)
|   |   bin18 >= 17.5
|   |   |   bin7 < 81.5
|   |   |   |   bin5 < 44
|   |   |   |   |   bin6 < 18.5
|   |   |   |   |   |   bin3 < 5.5 : NO (3/0)
|   |   |   |   |   |   bin3 >= 5.5
|   |   |   |   |   |   |   bin7 < 7.5 : NO (1/0)
|   |   |   |   |   |   |   bin7 >= 7.5 : YES (2/0)
|   |   |   |   |   bin6 >= 18.5 : NO (11/0)
|   |   |   |   bin5 >= 44
|   |   |   |   |   bin11 < 43 : NO (1/0)
|   |   |   |   |   bin11 >= 43 : YES (4/0)
|   |   |   bin7 >= 81.5 : NO (7/0)
|   bin3 >= 64
|   |   bin25 < 5 : NO (2/0)
|   |   bin25 >= 5
|   |   |   bin13 < 139
|   |   |   |   bin31 < 11.5
|   |   |   |   |   bin23 < 24.5
|   |   |   |   |   |   bin5 < 116.5 : YES (6/0)
|   |   |   |   |   |   bin5 >= 116.5 : NO (1/0)
|   |   |   |   |   bin23 >= 24.5 : NO (2/0)
|   |   |   |   bin31 >= 11.5 : YES (14/0)
|   |   |   bin13 >= 139 : NO (1/0)
bin25 >= 97 : NO (14/0)

Size of the tree : 43
RandomTree
==========

bin25 < 97
|   bin3 < 61.5
|   |   bin10 < 26.5
|   |   |   bin6 < 25.5
|   |   |   |   bin3 < 8
|   |   |   |   |   bin32 < 80.5 : NO (2/0)
|   |   |   |   |   bin32 >= 80.5 : YES (2/0)
|   |   |   |   bin3 >= 8 : YES (12/0)
|   |   |   bin6 >= 25.5
|   |   |   |   bin20 < 9.5 : NO (5/0)
|   |   |   |   bin20 >= 9.5
|   |   |   |   |   bin3 < 50 : YES (3/0)
|   |   |   |   |   bin3 >= 50 : NO (1/0)
|   |   bin10 >= 26.5
|   |   |   bin31 < 12.5 : NO (9/0)
|   |   |   bin31 >= 12.5
|   |   |   |   bin2 < 42.5
|   |   |   |   |   bin2 < 8 : YES (1/0)
|   |   |   |   |   bin2 >= 8 : NO (6/0)
|   |   |   |   bin2 >= 42.5 : YES (3/0)
|   bin3 >= 61.5
|   |   bin9 < 132.5
|   |   |   bin30 < 9
|   |   |   |   bin21 < 11.5
|   |   |   |   |   bin15 < 13.5
|   |   |   |   |   |   bin2 < 36.5 : NO (1/0)
|   |   |   |   |   |   bin2 >= 36.5 : YES (2/0)
|   |   |   |   |   bin15 >= 13.5 : NO (2/0)
|   |   |   |   bin21 >= 11.5
|   |   |   |   |   bin25 < 18 : YES (7/0)
|   |   |   |   |   bin25 >= 18 : NO (1/0)
|   |   |   bin30 >= 9 : YES (19/0)
|   |   bin9 >= 132.5
|   |   |   bin7 < 135.5 : YES (1/0)
|   |   |   bin7 >= 135.5 : NO (2/0)
bin25 >= 97 : NO (11/0)

Size of the tree : 37
RandomTree
==========

bin25 < 97
|   bin3 < 44.5
|   |   bin10 < 23.5
|   |   |   bin1 < 23
|   |   |   |   bin22 < 15
|   |   |   |   |   bin32 < 35.5 : NO (3/0)
|   |   |   |   |   bin32 >= 35.5 : YES (3/0)
|   |   |   |   bin22 >= 15 : NO (3/0)
|   |   |   bin1 >= 23
|   |   |   |   bin4 < 4.5 : NO (1/0)
|   |   |   |   bin4 >= 4.5
|   |   |   |   |   bin3 < 28.5 : YES (9/0)
|   |   |   |   |   bin3 >= 28.5
|   |   |   |   |   |   bin8 < 16.5 : YES (1/0)
|   |   |   |   |   |   bin8 >= 16.5 : NO (1/0)
|   |   bin10 >= 23.5 : NO (10/0)
|   bin3 >= 44.5
|   |   bin2 < 108.5
|   |   |   bin2 < 101
|   |   |   |   bin9 < 153
|   |   |   |   |   bin24 < 4.5
|   |   |   |   |   |   bin21 < 3.5 : YES (2/0)
|   |   |   |   |   |   bin21 >= 3.5 : NO (2/0)
|   |   |   |   |   bin24 >= 4.5
|   |   |   |   |   |   bin20 < 79.5 : YES (13/0)
|   |   |   |   |   |   bin20 >= 79.5
|   |   |   |   |   |   |   bin11 < 74.5 : NO (1/0)
|   |   |   |   |   |   |   bin11 >= 74.5 : YES (2/0)
|   |   |   |   bin9 >= 153 : NO (2/0)
|   |   |   bin2 >= 101 : NO (2/0)
|   |   bin2 >= 108.5
|   |   |   bin32 < 1.5
|   |   |   |   bin7 < 42.5 : YES (1/0)
|   |   |   |   bin7 >= 42.5 : NO (1/0)
|   |   |   bin32 >= 1.5 : YES (19/0)
bin25 >= 97 : NO (14/0)

Size of the tree : 37
RandomTree
==========

bin25 < 97
|   bin3 < 52.5
|   |   bin18 < 12
|   |   |   bin15 < 21 : YES (12/0)
|   |   |   bin15 >= 21 : NO (2/0)
|   |   bin18 >= 12
|   |   |   bin27 < 17 : NO (10/0)
|   |   |   bin27 >= 17
|   |   |   |   bin32 < 11.5 : NO (4/0)
|   |   |   |   bin32 >= 11.5
|   |   |   |   |   bin16 < 21 : YES (3/0)
|   |   |   |   |   bin16 >= 21
|   |   |   |   |   |   bin3 < 15.5 : NO (2/0)
|   |   |   |   |   |   bin3 >= 15.5
|   |   |   |   |   |   |   bin8 < 20 : YES (1/0)
|   |   |   |   |   |   |   bin8 >= 20
|   |   |   |   |   |   |   |   bin2 < 41.5 : NO (2/0)
|   |   |   |   |   |   |   |   bin2 >= 41.5
|   |   |   |   |   |   |   |   |   bin2 < 60 : YES (2/0)
|   |   |   |   |   |   |   |   |   bin2 >= 60 : NO (1/0)
|   bin3 >= 52.5
|   |   bin9 < 150
|   |   |   bin7 < 52
|   |   |   |   bin21 < 24
|   |   |   |   |   bin21 < 11.5
|   |   |   |   |   |   bin3 < 94 : YES (2/0)
|   |   |   |   |   |   bin3 >= 94 : NO (2/0)
|   |   |   |   |   bin21 >= 11.5 : YES (6/0)
|   |   |   |   bin21 >= 24 : NO (2/0)
|   |   |   bin7 >= 52
|   |   |   |   bin9 < 132.5 : YES (23/0)
|   |   |   |   bin9 >= 132.5
|   |   |   |   |   bin7 < 144.5 : YES (1/0)
|   |   |   |   |   bin7 >= 144.5 : NO (1/0)
|   |   bin9 >= 150 : NO (2/0)
bin25 >= 97 : NO (12/0)

Size of the tree : 37
RandomTree
==========

bin25 < 102.5
|   bin3 < 64
|   |   bin18 < 12
|   |   |   bin6 < 25.5
|   |   |   |   bin7 < 2 : NO (1/0)
|   |   |   |   bin7 >= 2 : YES (11/0)
|   |   |   bin6 >= 25.5
|   |   |   |   bin19 < 8.5
|   |   |   |   |   bin5 < 128.5 : NO (3/0)
|   |   |   |   |   bin5 >= 128.5 : YES (1/0)
|   |   |   |   bin19 >= 8.5 : YES (2/0)
|   |   bin18 >= 12
|   |   |   bin26 < 12 : NO (10/0)
|   |   |   bin26 >= 12
|   |   |   |   bin31 < 10 : NO (3/0)
|   |   |   |   bin31 >= 10
|   |   |   |   |   bin30 < 18.5 : YES (4/0)
|   |   |   |   |   bin30 >= 18.5
|   |   |   |   |   |   bin23 < 19.5 : YES (2/0)
|   |   |   |   |   |   bin23 >= 19.5
|   |   |   |   |   |   |   bin2 < 7.5
|   |   |   |   |   |   |   |   bin3 < 3 : NO (1/0)
|   |   |   |   |   |   |   |   bin3 >= 3 : YES (2/0)
|   |   |   |   |   |   |   bin2 >= 7.5
|   |   |   |   |   |   |   |   bin14 < 122.5 : NO (9/0)
|   |   |   |   |   |   |   |   bin14 >= 122.5 : YES (1/0)
|   bin3 >= 64
|   |   bin21 < 7.5 : NO (2/0)
|   |   bin21 >= 7.5
|   |   |   bin11 < 87.5 : YES (22/0)
|   |   |   bin11 >= 87.5
|   |   |   |   bin13 < 80.5 : NO (1/0)
|   |   |   |   bin13 >= 80.5 : YES (5/0)
bin25 >= 102.5 : NO (10/0)

Size of the tree : 35
RandomTree
==========

bin25 < 97
|   bin3 < 61.5
|   |   bin12 < 25.5
|   |   |   bin15 < 29.5
|   |   |   |   bin8 < 25
|   |   |   |   |   bin7 < 23.5
|   |   |   |   |   |   bin4 < 39
|   |   |   |   |   |   |   bin17 < 2 : NO (1/0)
|   |   |   |   |   |   |   bin17 >= 2
|   |   |   |   |   |   |   |   bin19 < 11.5 : YES (9/0)
|   |   |   |   |   |   |   |   bin19 >= 11.5
|   |   |   |   |   |   |   |   |   bin2 < 43.5
|   |   |   |   |   |   |   |   |   |   bin2 < 7.5 : YES (1/0)
|   |   |   |   |   |   |   |   |   |   bin2 >= 7.5 : NO (2/0)
|   |   |   |   |   |   |   |   |   bin2 >= 43.5 : YES (2/0)
|   |   |   |   |   |   bin4 >= 39 : NO (1/0)
|   |   |   |   |   bin7 >= 23.5 : NO (2/0)
|   |   |   |   bin8 >= 25 : YES (4/0)
|   |   |   bin15 >= 29.5 : NO (2/0)
|   |   bin12 >= 25.5
|   |   |   bin1 < 103
|   |   |   |   bin30 < 109 : NO (15/0)
|   |   |   |   bin30 >= 109 : YES (1/0)
|   |   |   bin1 >= 103
|   |   |   |   bin17 < 31 : NO (1/0)
|   |   |   |   bin17 >= 31 : YES (4/0)
|   bin3 >= 61.5
|   |   bin29 < 4.5
|   |   |   bin3 < 73 : YES (2/0)
|   |   |   bin3 >= 73
|   |   |   |   bin32 < 2 : YES (1/0)
|   |   |   |   bin32 >= 2 : NO (3/0)
|   |   bin29 >= 4.5
|   |   |   bin18 < 96.5
|   |   |   |   bin31 < 4 : NO (1/0)
|   |   |   |   bin31 >= 4
|   |   |   |   |   bin10 < 120 : YES (23/0)
|   |   |   |   |   bin10 >= 120
|   |   |   |   |   |   bin3 < 129 : YES (2/0)
|   |   |   |   |   |   bin3 >= 129 : NO (1/0)
|   |   |   bin18 >= 96.5
|   |   |   |   bin20 < 119.5 : NO (2/0)
|   |   |   |   bin20 >= 119.5 : YES (1/0)
bin25 >= 97 : NO (9/0)

Size of the tree : 45Accuracy of RandomTree: 59,00%
---------------------------------Decision Stump

Classifications

bin2 <= 70.5 : NO
bin2 > 70.5 : YES
bin2 is missing : NO

Class distributions

bin2 <= 70.5
YES	NO	
0.22413793103448276	0.7758620689655172	
bin2 > 70.5
YES	NO	
0.84375	0.15625	
bin2 is missing
YES	NO	
0.4444444444444444	0.5555555555555556	
Decision Stump

Classifications

bin2 <= 70.5 : NO
bin2 > 70.5 : YES
bin2 is missing : NO

Class distributions

bin2 <= 70.5
YES	NO	
0.2857142857142857	0.7142857142857143	
bin2 > 70.5
YES	NO	
0.8148148148148148	0.18518518518518517	
bin2 is missing
YES	NO	
0.4444444444444444	0.5555555555555556	
Decision Stump

Classifications

bin1 <= 39.5 : NO
bin1 > 39.5 : YES
bin1 is missing : NO

Class distributions

bin1 <= 39.5
YES	NO	
0.1956521739130435	0.8043478260869565	
bin1 > 39.5
YES	NO	
0.7045454545454546	0.29545454545454547	
bin1 is missing
YES	NO	
0.4444444444444444	0.5555555555555556	
Decision Stump

Classifications

bin2 <= 70.5 : NO
bin2 > 70.5 : YES
bin2 is missing : NO

Class distributions

bin2 <= 70.5
YES	NO	
0.25	0.75	
bin2 > 70.5
YES	NO	
0.8333333333333334	0.16666666666666666	
bin2 is missing
YES	NO	
0.4444444444444444	0.5555555555555556	
Decision Stump

Classifications

bin1 <= 39.5 : NO
bin1 > 39.5 : YES
bin1 is missing : NO

Class distributions

bin1 <= 39.5
YES	NO	
0.17777777777777778	0.8222222222222222	
bin1 > 39.5
YES	NO	
0.7111111111111111	0.28888888888888886	
bin1 is missing
YES	NO	
0.4444444444444444	0.5555555555555556	
Decision Stump

Classifications

bin2 <= 70.5 : NO
bin2 > 70.5 : YES
bin2 is missing : YES

Class distributions

bin2 <= 70.5
YES	NO	
0.35714285714285715	0.6428571428571429	
bin2 > 70.5
YES	NO	
0.8823529411764706	0.11764705882352941	
bin2 is missing
YES	NO	
0.5555555555555556	0.4444444444444444	
Decision Stump

Classifications

bin1 <= 39.5 : NO
bin1 > 39.5 : YES
bin1 is missing : YES

Class distributions

bin1 <= 39.5
YES	NO	
0.2619047619047619	0.7380952380952381	
bin1 > 39.5
YES	NO	
0.8125	0.1875	
bin1 is missing
YES	NO	
0.5555555555555556	0.4444444444444444	
Decision Stump

Classifications

bin1 <= 39.0 : NO
bin1 > 39.0 : YES
bin1 is missing : YES

Class distributions

bin1 <= 39.0
YES	NO	
0.2619047619047619	0.7380952380952381	
bin1 > 39.0
YES	NO	
0.8125	0.1875	
bin1 is missing
YES	NO	
0.5555555555555556	0.4444444444444444	
Decision Stump

Classifications

bin2 <= 70.5 : NO
bin2 > 70.5 : YES
bin2 is missing : YES

Class distributions

bin2 <= 70.5
YES	NO	
0.3448275862068966	0.6551724137931034	
bin2 > 70.5
YES	NO	
0.9375	0.0625	
bin2 is missing
YES	NO	
0.5555555555555556	0.4444444444444444	
Decision Stump

Classifications

bin2 <= 70.5 : NO
bin2 > 70.5 : YES
bin2 is missing : YES

Class distributions

bin2 <= 70.5
YES	NO	
0.36363636363636365	0.6363636363636364	
bin2 > 70.5
YES	NO	
0.8571428571428571	0.14285714285714285	
bin2 is missing
YES	NO	
0.5555555555555556	0.4444444444444444	
Accuracy of DecisionStump: 69,00%
---------------------------------