J48 pruned tree
------------------

bin40 <= 68
|   bin19 <= 96: NO (5.0/1.0)
|   bin19 > 96
|   |   bin49 <= 120: NO (3.0/1.0)
|   |   bin49 > 120: YES (34.0/1.0)
bin40 > 68
|   bin2 <= 157: NO (45.0/2.0)
|   bin2 > 157: YES (3.0)

Number of Leaves  : 	5

Size of the tree : 	9
J48 pruned tree
------------------

bin44 <= 117
|   bin13 <= 144
|   |   bin35 <= 94
|   |   |   bin21 <= 74: YES (3.0)
|   |   |   bin21 > 74: NO (9.0)
|   |   bin35 > 94
|   |   |   bin49 <= 120
|   |   |   |   bin35 <= 100: YES (4.0/1.0)
|   |   |   |   bin35 > 100: NO (6.0)
|   |   |   bin49 > 120: YES (36.0/2.0)
|   bin13 > 144: NO (6.0)
bin44 > 117: NO (26.0)

Number of Leaves  : 	7

Size of the tree : 	13
J48 pruned tree
------------------

bin28 <= 101
|   bin20 <= 96
|   |   bin34 <= 80: YES (5.0/1.0)
|   |   bin34 > 80: NO (11.0)
|   bin20 > 96
|   |   bin2 <= 143: YES (29.0/1.0)
|   |   bin2 > 143
|   |   |   bin4 <= 150
|   |   |   |   bin2 <= 148: YES (3.0/1.0)
|   |   |   |   bin2 > 148: NO (4.0)
|   |   |   bin4 > 150: YES (5.0)
bin28 > 101: NO (33.0/1.0)

Number of Leaves  : 	7

Size of the tree : 	13
J48 pruned tree
------------------

bin44 <= 117
|   bin49 <= 86: NO (6.0)
|   bin49 > 86
|   |   bin13 <= 143
|   |   |   bin19 <= 96
|   |   |   |   bin21 <= 74: YES (3.0)
|   |   |   |   bin21 > 74: NO (6.0)
|   |   |   bin19 > 96
|   |   |   |   bin49 <= 120
|   |   |   |   |   bin17 <= 118: YES (2.0)
|   |   |   |   |   bin17 > 118: NO (3.0)
|   |   |   |   bin49 > 120: YES (36.0/2.0)
|   |   bin13 > 143: NO (8.0/1.0)
bin44 > 117: NO (26.0)

Number of Leaves  : 	8

Size of the tree : 	15
J48 pruned tree
------------------

bin44 <= 117
|   bin52 <= 90: NO (8.0)
|   bin52 > 90
|   |   bin35 <= 93
|   |   |   bin1 <= 61: YES (2.0)
|   |   |   bin1 > 61: NO (8.0)
|   |   bin35 > 93
|   |   |   bin39 <= 55: YES (28.0/1.0)
|   |   |   bin39 > 55
|   |   |   |   bin23 <= 81: NO (4.0)
|   |   |   |   bin23 > 81
|   |   |   |   |   bin51 <= 109
|   |   |   |   |   |   bin19 <= 115: YES (3.0)
|   |   |   |   |   |   bin19 > 115: NO (3.0)
|   |   |   |   |   bin51 > 109: YES (8.0)
bin44 > 117: NO (26.0)

Number of Leaves  : 	9

Size of the tree : 	17
J48 pruned tree
------------------

bin44 <= 117
|   bin5 <= 164
|   |   bin49 <= 84: NO (4.0)
|   |   bin49 > 84
|   |   |   bin50 <= 95
|   |   |   |   bin53 <= 86: YES (2.0)
|   |   |   |   bin53 > 86: NO (4.0)
|   |   |   bin50 > 95
|   |   |   |   bin40 <= 58: YES (35.0/1.0)
|   |   |   |   bin40 > 58
|   |   |   |   |   bin58 <= 103
|   |   |   |   |   |   bin25 <= 97: NO (4.0)
|   |   |   |   |   |   bin25 > 97
|   |   |   |   |   |   |   bin49 <= 157: YES (4.0)
|   |   |   |   |   |   |   bin49 > 157: NO (2.0)
|   |   |   |   |   bin58 > 103: YES (10.0)
|   bin5 > 164: NO (5.0)
bin44 > 117: NO (20.0)

Number of Leaves  : 	10

Size of the tree : 	19
J48 pruned tree
------------------

bin28 <= 101
|   bin4 <= 64: NO (5.0)
|   bin4 > 64
|   |   bin50 <= 95
|   |   |   bin61 <= 60: YES (2.0)
|   |   |   bin61 > 60: NO (5.0)
|   |   bin50 > 95
|   |   |   bin5 <= 136: YES (37.0)
|   |   |   bin5 > 136
|   |   |   |   bin17 <= 136: NO (2.0)
|   |   |   |   bin17 > 136
|   |   |   |   |   bin6 <= 79: NO (2.0)
|   |   |   |   |   bin6 > 79: YES (9.0)
bin28 > 101
|   bin18 <= 154: NO (26.0)
|   bin18 > 154: YES (2.0)

Number of Leaves  : 	9

Size of the tree : 	17
J48 pruned tree
------------------

bin44 <= 117
|   bin5 <= 164
|   |   bin2 <= 105
|   |   |   bin5 <= 72: YES (2.0)
|   |   |   bin5 > 72: NO (7.0/1.0)
|   |   bin2 > 105
|   |   |   bin16 <= 92: YES (33.0)
|   |   |   bin16 > 92
|   |   |   |   bin4 <= 150
|   |   |   |   |   bin3 <= 144
|   |   |   |   |   |   bin12 <= 96: NO (2.0)
|   |   |   |   |   |   bin12 > 96: YES (5.0)
|   |   |   |   |   bin3 > 144: NO (4.0)
|   |   |   |   bin4 > 150: YES (9.0)
|   bin5 > 164: NO (5.0)
bin44 > 117: NO (23.0)

Number of Leaves  : 	9

Size of the tree : 	17
J48 pruned tree
------------------

bin44 <= 117
|   bin49 <= 84: NO (5.0)
|   bin49 > 84
|   |   bin35 <= 93
|   |   |   bin19 <= 76: YES (3.0)
|   |   |   bin19 > 76: NO (6.0)
|   |   bin35 > 93
|   |   |   bin39 <= 56: YES (35.0/1.0)
|   |   |   bin39 > 56
|   |   |   |   bin22 <= 77: NO (3.0)
|   |   |   |   bin22 > 77
|   |   |   |   |   bin48 <= 44: NO (4.0/1.0)
|   |   |   |   |   bin48 > 44: YES (12.0)
bin44 > 117: NO (22.0)

Number of Leaves  : 	8

Size of the tree : 	15
J48 pruned tree
------------------

bin44 <= 117
|   bin52 <= 90: NO (9.0/1.0)
|   bin52 > 90
|   |   bin35 <= 93
|   |   |   bin21 <= 74: YES (3.0)
|   |   |   bin21 > 74: NO (7.0)
|   |   bin35 > 93
|   |   |   bin39 <= 56: YES (35.0/1.0)
|   |   |   bin39 > 56
|   |   |   |   bin22 <= 77: NO (3.0)
|   |   |   |   bin22 > 77
|   |   |   |   |   bin48 <= 28: NO (2.0)
|   |   |   |   |   bin48 > 28: YES (13.0/1.0)
bin44 > 117: NO (18.0)

Number of Leaves  : 	8

Size of the tree : 	15
Logistic model tree 
------------------
: LM_1:3/3 (90)

Number of Leaves  : 	1

Size of the Tree : 	1
LM_1:
Class 0 :
0.22 + 
[bin4] * 0.01 +
[bin40] * -0.01 +
[bin63] * -0.01

Class 1 :
-0.22 + 
[bin4] * -0.01 +
[bin40] * 0.01 +
[bin63] * 0.01
Logistic model tree 
------------------
: LM_1:4/4 (90)

Number of Leaves  : 	1

Size of the Tree : 	1
LM_1:
Class 0 :
-0.51 + 
[bin2] * 0.01 +
[bin11] * -0.01 +
[bin40] * -0.01 +
[bin51] * 0.01

Class 1 :
0.51 + 
[bin2] * -0.01 +
[bin11] * 0.01 +
[bin40] * 0.01 +
[bin51] * -0.01
Logistic model tree 
------------------

bin28 <= 101
|   bin20 <= 96: LM_1:22/66 (16)
|   bin20 > 96
|   |   bin2 <= 143: LM_2:22/88 (29)
|   |   bin2 > 143: LM_3:22/88 (12)
bin28 > 101: LM_4:22/44 (33)

Number of Leaves  : 	4

Size of the Tree : 	7


LM_1:
Class 0 :
-18.5 + 
[bin1] * -0.01 +
[bin2] * 0.01 +
[bin8] * 0.02 +
[bin12] * 0.01 +
[bin15] * -0.01 +
[bin16] * 0.01 +
[bin18] * -0.08 +
[bin20] * 0.04 +
[bin24] * 0.01 +
[bin25] * -0 +
[bin26] * -0 +
[bin27] * -0.01 +
[bin29] * -0 +
[bin30] * -0.01 +
[bin32] * 0.03 +
[bin33] * -0 +
[bin35] * -0.01 +
[bin36] * 0.12 +
[bin40] * 0.03 +
[bin41] * -0 +
[bin44] * 0.01 +
[bin46] * -0.01 +
[bin49] * 0.01 +
[bin50] * 0.01 +
[bin51] * -0 +
[bin52] * 0.03 +
[bin63] * -0

Class 1 :
18.5 + 
[bin1] * 0.01 +
[bin2] * -0.01 +
[bin8] * -0.02 +
[bin12] * -0.01 +
[bin15] * 0.01 +
[bin16] * -0.01 +
[bin18] * 0.08 +
[bin20] * -0.04 +
[bin24] * -0.01 +
[bin25] * 0    +
[bin26] * 0    +
[bin27] * 0.01 +
[bin29] * 0    +
[bin30] * 0.01 +
[bin32] * -0.03 +
[bin33] * 0    +
[bin35] * 0.01 +
[bin36] * -0.12 +
[bin40] * -0.03 +
[bin41] * 0    +
[bin44] * -0.01 +
[bin46] * 0.01 +
[bin49] * -0.01 +
[bin50] * -0.01 +
[bin51] * 0    +
[bin52] * -0.03 +
[bin63] * 0   


LM_2:
Class 0 :
471.92 + 
[bin1] * -0.08 +
[bin2] * 0.01 +
[bin5] * 0.01 +
[bin7] * 0    +
[bin11] * 0.04 +
[bin12] * 0.03 +
[bin13] * -0.01 +
[bin15] * -0.01 +
[bin18] * -0 +
[bin20] * 0.01 +
[bin24] * 0.01 +
[bin25] * -0 +
[bin26] * -0 +
[bin29] * -0 +
[bin30] * -0.01 +
[bin32] * 0.01 +
[bin33] * -0 +
[bin35] * -0.01 +
[bin36] * -0.02 +
[bin40] * -0.02 +
[bin41] * -0 +
[bin44] * 0.01 +
[bin46] * -0.01 +
[bin49] * -2.86 +
[bin50] * 0.01 +
[bin51] * -0 +
[bin52] * 0    +
[bin57] * 0.01 +
[bin60] * 0.01 +
[bin63] * -0

Class 1 :
-471.92 + 
[bin1] * 0.08 +
[bin2] * -0.01 +
[bin5] * -0.01 +
[bin7] * -0 +
[bin11] * -0.04 +
[bin12] * -0.03 +
[bin13] * 0.01 +
[bin15] * 0.01 +
[bin18] * 0    +
[bin20] * -0.01 +
[bin24] * -0.01 +
[bin25] * 0    +
[bin26] * 0    +
[bin29] * 0    +
[bin30] * 0.01 +
[bin32] * -0.01 +
[bin33] * 0    +
[bin35] * 0.01 +
[bin36] * 0.02 +
[bin40] * 0.02 +
[bin41] * 0    +
[bin44] * -0.01 +
[bin46] * 0.01 +
[bin49] * 2.86 +
[bin50] * -0.01 +
[bin51] * 0    +
[bin52] * -0 +
[bin57] * -0.01 +
[bin60] * -0.01 +
[bin63] * 0   

LM_3:
Class 0 :
9.28 + 
[bin1] * -0.08 +
[bin2] * 0.01 +
[bin4] * 0.05 +
[bin5] * 0.01 +
[bin7] * 0    +
[bin9] * 0.01 +
[bin11] * 0    +
[bin12] * -0.01 +
[bin13] * -0.01 +
[bin15] * -0.01 +
[bin16] * -0.01 +
[bin18] * -0 +
[bin20] * 0.01 +
[bin21] * -0.01 +
[bin24] * 0.01 +
[bin25] * -0 +
[bin26] * -0 +
[bin29] * -0.01 +
[bin30] * -0.01 +
[bin32] * 0.01 +
[bin33] * -0 +
[bin35] * -0.04 +
[bin36] * -0.02 +
[bin39] * -0.01 +
[bin40] * -0.03 +
[bin41] * -0 +
[bin44] * 0.01 +
[bin46] * -0.01 +
[bin49] * 0.01 +
[bin50] * 0.01 +
[bin51] * -0 +
[bin52] * 0    +
[bin54] * 0.02 +
[bin57] * 0.01 +
[bin60] * 0.02 +
[bin62] * 0.01 +
[bin63] * -0 +
[bin64] * 0.02

Class 1 :
-9.28 + 
[bin1] * 0.08 +
[bin2] * -0.01 +
[bin4] * -0.05 +
[bin5] * -0.01 +
[bin7] * -0 +
[bin9] * -0.01 +
[bin11] * -0 +
[bin12] * 0.01 +
[bin13] * 0.01 +
[bin15] * 0.01 +
[bin16] * 0.01 +
[bin18] * 0    +
[bin20] * -0.01 +
[bin21] * 0.01 +
[bin24] * -0.01 +
[bin25] * 0    +
[bin26] * 0    +
[bin29] * 0.01 +
[bin30] * 0.01 +
[bin32] * -0.01 +
[bin33] * 0    +
[bin35] * 0.04 +
[bin36] * 0.02 +
[bin39] * 0.01 +
[bin40] * 0.03 +
[bin41] * 0    +
[bin44] * -0.01 +
[bin46] * 0.01 +
[bin49] * -0.01 +
[bin50] * -0.01 +
[bin51] * 0    +
[bin52] * -0 +
[bin54] * -0.02 +
[bin57] * -0.01 +
[bin60] * -0.02 +
[bin62] * -0.01 +
[bin63] * 0    +
[bin64] * -0.02

LM_4:
Class 0 :
-47.59 + 
[bin2] * 0.01 +
[bin12] * -0.03 +
[bin18] * 0.24 +
[bin20] * 0.01 +
[bin24] * 0    +
[bin25] * -0 +
[bin26] * -0 +
[bin30] * -0.01 +
[bin33] * 0.01 +
[bin34] * 0.01 +
[bin40] * -0.01 +
[bin41] * 0.13 +
[bin44] * 0    +
[bin49] * 0.01 +
[bin50] * 0.01 +
[bin51] * 0    +
[bin59] * -0.01 +
[bin60] * -0.04 +
[bin62] * -0.03 +
[bin63] * -0

Class 1 :
47.59 + 
[bin2] * -0.01 +
[bin12] * 0.03 +
[bin18] * -0.24 +
[bin20] * -0.01 +
[bin24] * -0 +
[bin25] * 0    +
[bin26] * 0    +
[bin30] * 0.01 +
[bin33] * -0.01 +
[bin34] * -0.01 +
[bin40] * 0.01 +
[bin41] * -0.13 +
[bin44] * -0 +
[bin49] * -0.01 +
[bin50] * -0.01 +
[bin51] * -0 +
[bin59] * 0.01 +
[bin60] * 0.04 +
[bin62] * 0.03 +
[bin63] * 0   
Logistic model tree 
------------------
: LM_1:24/24 (90)

Number of Leaves  : 	1

Size of the Tree : 	1
LM_1:
Class 0 :
-2.04 + 
[bin2] * 0.01 +
[bin8] * 0    +
[bin11] * -0.01 +
[bin12] * -0 +
[bin15] * -0 +
[bin20] * 0.01 +
[bin24] * 0    +
[bin25] * -0.01 +
[bin30] * -0 +
[bin40] * -0.01 +
[bin44] * 0    +
[bin45] * -0 +
[bin49] * 0.01 +
[bin50] * 0.01 +
[bin51] * 0.02 +
[bin62] * -0 +
[bin63] * -0

Class 1 :
2.04 + 
[bin2] * -0.01 +
[bin8] * -0 +
[bin11] * 0.01 +
[bin12] * 0    +
[bin15] * 0    +
[bin20] * -0.01 +
[bin24] * -0 +
[bin25] * 0.01 +
[bin30] * 0    +
[bin40] * 0.01 +
[bin44] * -0 +
[bin45] * 0    +
[bin49] * -0.01 +
[bin50] * -0.01 +
[bin51] * -0.02 +
[bin62] * 0    +
[bin63] * 0   
Logistic model tree 
------------------
: LM_1:5/5 (90)

Number of Leaves  : 	1

Size of the Tree : 	1
LM_1:
Class 0 :
-1.28 + 
[bin2] * 0.01 +
[bin11] * -0.01 +
[bin20] * 0.01 +
[bin40] * -0.01 +
[bin51] * 0.01

Class 1 :
1.28 + 
[bin2] * -0.01 +
[bin11] * 0.01 +
[bin20] * -0.01 +
[bin40] * 0.01 +
[bin51] * -0.01
Logistic model tree 
------------------
: LM_1:20/20 (90)

Number of Leaves  : 	1

Size of the Tree : 	1
LM_1:
Class 0 :
-2.46 + 
[bin3] * 0    +
[bin7] * 0    +
[bin12] * -0.01 +
[bin30] * -0 +
[bin40] * -0.01 +
[bin44] * 0.01 +
[bin45] * -0 +
[bin49] * 0.01 +
[bin50] * 0.02 +
[bin51] * 0.02 +
[bin52] * 0    +
[bin63] * -0.01

Class 1 :
2.46 + 
[bin3] * -0 +
[bin7] * -0 +
[bin12] * 0.01 +
[bin30] * 0    +
[bin40] * 0.01 +
[bin44] * -0.01 +
[bin45] * 0    +
[bin49] * -0.01 +
[bin50] * -0.02 +
[bin51] * -0.02 +
[bin52] * -0 +
[bin63] * 0.01
Logistic model tree 
------------------

bin28 <= 101
|   bin4 <= 64: LM_1:3/9 (5)
|   bin4 > 64
|   |   bin50 <= 95: LM_2:3/12 (7)
|   |   bin50 > 95: LM_3:3/12 (50)
bin28 > 101: LM_4:3/6 (28)

Number of Leaves  : 	4

Size of the Tree : 	7


LM_1:
Class 0 :
-3.61 + 
[bin2] * 0.01 +
[bin32] * 0.01 +
[bin36] * 0.02 +
[bin38] * -0.01 +
[bin44] * -0.01 +
[bin51] * 0.01 +
[bin55] * -0 +
[bin56] * -0.01

Class 1 :
3.61 + 
[bin2] * -0.01 +
[bin32] * -0.01 +
[bin36] * -0.02 +
[bin38] * 0.01 +
[bin44] * 0.01 +
[bin51] * -0.01 +
[bin55] * 0    +
[bin56] * 0.01


LM_2:
Class 0 :
-1.81 + 
[bin2] * 0.01 +
[bin13] * -0.02 +
[bin29] * -0.05 +
[bin32] * 0.01 +
[bin36] * 0.04 +
[bin38] * -0.01 +
[bin44] * -0.01 +
[bin48] * 0.01 +
[bin51] * 0.01 +
[bin60] * 0.05

Class 1 :
1.81 + 
[bin2] * -0.01 +
[bin13] * 0.02 +
[bin29] * 0.05 +
[bin32] * -0.01 +
[bin36] * -0.04 +
[bin38] * 0.01 +
[bin44] * 0.01 +
[bin48] * -0.01 +
[bin51] * -0.01 +
[bin60] * -0.05

LM_3:
Class 0 :
3.43 + 
[bin2] * -0 +
[bin5] * -0.02 +
[bin13] * -0.02 +
[bin32] * 0.01 +
[bin36] * 0.04 +
[bin38] * -0.01 +
[bin44] * -0.01 +
[bin48] * 0.01 +
[bin50] * -0.03 +
[bin51] * 0.01

Class 1 :
-3.43 + 
[bin2] * 0    +
[bin5] * 0.02 +
[bin13] * 0.02 +
[bin32] * -0.01 +
[bin36] * -0.04 +
[bin38] * 0.01 +
[bin44] * 0.01 +
[bin48] * -0.01 +
[bin50] * 0.03 +
[bin51] * -0.01

LM_4:
Class 0 :
-7.53 + 
[bin2] * 0.01 +
[bin18] * 0.03 +
[bin34] * 0.01 +
[bin44] * -0.01 +
[bin51] * 0.01

Class 1 :
7.53 + 
[bin2] * -0.01 +
[bin18] * -0.03 +
[bin34] * -0.01 +
[bin44] * 0.01 +
[bin51] * -0.01
Logistic model tree 
------------------
: LM_1:1/1 (90)

Number of Leaves  : 	1

Size of the Tree : 	1
LM_1:
Class 0 :
1.13 + 
[bin44] * -0.01

Class 1 :
-1.13 + 
[bin44] * 0.01
Logistic model tree 
------------------
: LM_1:53/53 (90)

Number of Leaves  : 	1

Size of the Tree : 	1
LM_1:
Class 0 :
-0.99 + 
[bin1] * 0    +
[bin3] * 0.01 +
[bin12] * -0.02 +
[bin17] * -0 +
[bin18] * -0 +
[bin24] * 0.01 +
[bin25] * -0.01 +
[bin28] * -0.01 +
[bin29] * -0 +
[bin35] * -0 +
[bin36] * 0.01 +
[bin38] * -0 +
[bin44] * 0    +
[bin46] * -0 +
[bin49] * 0.01 +
[bin50] * 0.01 +
[bin52] * 0.01 +
[bin62] * -0 +
[bin63] * -0.01

Class 1 :
0.99 + 
[bin1] * -0 +
[bin3] * -0.01 +
[bin12] * 0.02 +
[bin17] * 0    +
[bin18] * 0    +
[bin24] * -0.01 +
[bin25] * 0.01 +
[bin28] * 0.01 +
[bin29] * 0    +
[bin35] * 0    +
[bin36] * -0.01 +
[bin38] * 0    +
[bin44] * -0 +
[bin46] * 0    +
[bin49] * -0.01 +
[bin50] * -0.01 +
[bin52] * -0.01 +
[bin62] * 0    +
[bin63] * 0.01
Logistic model tree 
------------------
: LM_1:48/48 (90)

Number of Leaves  : 	1

Size of the Tree : 	1
LM_1:
Class 0 :
-1.16 + 
[bin3] * 0    +
[bin4] * 0.01 +
[bin8] * 0    +
[bin12] * -0.02 +
[bin15] * -0 +
[bin17] * -0 +
[bin20] * 0.01 +
[bin24] * 0.01 +
[bin29] * -0 +
[bin30] * -0.01 +
[bin33] * -0 +
[bin40] * -0.01 +
[bin44] * 0.01 +
[bin45] * -0.01 +
[bin46] * -0 +
[bin49] * 0.01 +
[bin50] * 0.02 +
[bin52] * 0    +
[bin62] * -0 +
[bin63] * -0

Class 1 :
1.16 + 
[bin3] * -0 +
[bin4] * -0.01 +
[bin8] * -0 +
[bin12] * 0.02 +
[bin15] * 0    +
[bin17] * 0    +
[bin20] * -0.01 +
[bin24] * -0.01 +
[bin29] * 0    +
[bin30] * 0.01 +
[bin33] * 0    +
[bin40] * 0.01 +
[bin44] * -0.01 +
[bin45] * 0.01 +
[bin46] * 0    +
[bin49] * -0.01 +
[bin50] * -0.02 +
[bin52] * -0 +
[bin62] * 0    +
[bin63] * 0   

RandomTree
==========

bin28 < 86
|   bin20 < 95.5
|   |   bin14 < 130.5 : NO (7/0)
|   |   bin14 >= 130.5 : YES (1/0)
|   bin20 >= 95.5
|   |   bin14 < 97.5
|   |   |   bin3 < 101.5 : NO (1/0)
|   |   |   bin3 >= 101.5 : YES (27/0)
|   |   bin14 >= 97.5
|   |   |   bin44 < 27
|   |   |   |   bin21 < 64 : YES (1/0)
|   |   |   |   bin21 >= 64 : NO (3/0)
|   |   |   bin44 >= 27
|   |   |   |   bin11 < 102
|   |   |   |   |   bin5 < 122 : NO (1/0)
|   |   |   |   |   bin5 >= 122 : YES (1/0)
|   |   |   |   bin11 >= 102 : YES (7/0)
bin28 >= 86
|   bin21 < 141 : NO (25/0)
|   bin21 >= 141
|   |   bin50 < 116.5 : NO (11/0)
|   |   bin50 >= 116.5
|   |   |   bin25 < 148.5 : YES (3/0)
|   |   |   bin25 >= 148.5 : NO (2/0)

Size of the tree : 25
RandomTree
==========

bin28 < 93.5
|   bin20 < 96.5
|   |   bin34 < 81
|   |   |   bin31 < 110.5 : YES (3/0)
|   |   |   bin31 >= 110.5 : NO (1/0)
|   |   bin34 >= 81
|   |   |   bin24 < 25 : YES (1/0)
|   |   |   bin24 >= 25 : NO (8/0)
|   bin20 >= 96.5
|   |   bin44 < 13.5
|   |   |   bin14 < 95 : YES (1/0)
|   |   |   bin14 >= 95 : NO (2/0)
|   |   bin44 >= 13.5
|   |   |   bin62 < 44.5 : YES (21/0)
|   |   |   bin62 >= 44.5
|   |   |   |   bin48 < 63
|   |   |   |   |   bin23 < 53.5 : YES (2/0)
|   |   |   |   |   bin23 >= 53.5
|   |   |   |   |   |   bin28 < 71
|   |   |   |   |   |   |   bin4 < 152.5 : NO (3/0)
|   |   |   |   |   |   |   bin4 >= 152.5 : YES (1/0)
|   |   |   |   |   |   bin28 >= 71 : YES (2/0)
|   |   |   |   bin48 >= 63 : YES (5/0)
bin28 >= 93.5
|   bin35 < 149.5
|   |   bin51 < 100.5 : NO (25/0)
|   |   bin51 >= 100.5
|   |   |   bin12 < 100.5
|   |   |   |   bin47 < 84 : NO (1/0)
|   |   |   |   bin47 >= 84 : YES (3/0)
|   |   |   bin12 >= 100.5 : NO (10/0)
|   bin35 >= 149.5 : YES (1/0)

Size of the tree : 33
RandomTree
==========

bin28 < 102.5
|   bin16 < 44.5 : NO (5/0)
|   bin16 >= 44.5
|   |   bin12 < 80.5 : YES (18/0)
|   |   bin12 >= 80.5
|   |   |   bin51 < 95.5
|   |   |   |   bin34 < 81 : YES (1/0)
|   |   |   |   bin34 >= 81 : NO (5/0)
|   |   |   bin51 >= 95.5
|   |   |   |   bin41 < 158
|   |   |   |   |   bin49 < 121
|   |   |   |   |   |   bin2 < 155.5 : NO (3/0)
|   |   |   |   |   |   bin2 >= 155.5
|   |   |   |   |   |   |   bin15 < 119.5 : NO (1/0)
|   |   |   |   |   |   |   bin15 >= 119.5 : YES (3/0)
|   |   |   |   |   bin49 >= 121
|   |   |   |   |   |   bin51 < 121.5 : YES (14/0)
|   |   |   |   |   |   bin51 >= 121.5
|   |   |   |   |   |   |   bin20 < 72.5 : NO (1/0)
|   |   |   |   |   |   |   bin20 >= 72.5
|   |   |   |   |   |   |   |   bin19 < 131.5 : YES (3/0)
|   |   |   |   |   |   |   |   bin19 >= 131.5 : NO (1/0)
|   |   |   |   bin41 >= 158 : NO (2/0)
bin28 >= 102.5
|   bin12 < 92.5
|   |   bin17 < 176 : NO (3/0)
|   |   bin17 >= 176 : YES (1/0)
|   bin12 >= 92.5 : NO (29/0)

Size of the tree : 29
RandomTree
==========

bin28 < 102.5
|   bin16 < 46.5 : NO (5/0)
|   bin16 >= 46.5
|   |   bin12 < 79.5 : YES (13/0)
|   |   bin12 >= 79.5
|   |   |   bin51 < 94.5
|   |   |   |   bin34 < 81 : YES (1/0)
|   |   |   |   bin34 >= 81 : NO (5/0)
|   |   |   bin51 >= 94.5
|   |   |   |   bin22 < 73
|   |   |   |   |   bin49 < 120.5 : NO (1/0)
|   |   |   |   |   bin49 >= 120.5 : YES (16/0)
|   |   |   |   bin22 >= 73
|   |   |   |   |   bin23 < 108
|   |   |   |   |   |   bin20 < 110 : NO (5/0)
|   |   |   |   |   |   bin20 >= 110
|   |   |   |   |   |   |   bin51 < 116.5 : YES (3/0)
|   |   |   |   |   |   |   bin51 >= 116.5
|   |   |   |   |   |   |   |   bin27 < 67 : YES (1/0)
|   |   |   |   |   |   |   |   bin27 >= 67 : NO (2/0)
|   |   |   |   |   bin23 >= 108 : YES (4/0)
bin28 >= 102.5
|   bin19 < 139.5 : NO (30/0)
|   bin19 >= 139.5
|   |   bin59 < 92.5 : YES (2/0)
|   |   bin59 >= 92.5 : NO (2/0)

Size of the tree : 27
RandomTree
==========

bin28 < 102.5
|   bin39 < 57
|   |   bin35 < 93.5
|   |   |   bin17 < 87 : YES (1/0)
|   |   |   bin17 >= 87 : NO (3/0)
|   |   bin35 >= 93.5
|   |   |   bin24 < 23.5
|   |   |   |   bin3 < 139 : YES (1/0)
|   |   |   |   bin3 >= 139 : NO (1/0)
|   |   |   bin24 >= 23.5 : YES (26/0)
|   bin39 >= 57
|   |   bin24 < 97
|   |   |   bin2 < 56.5 : YES (1/0)
|   |   |   bin2 >= 56.5
|   |   |   |   bin15 < 155
|   |   |   |   |   bin14 < 70
|   |   |   |   |   |   bin20 < 102.5 : NO (2/0)
|   |   |   |   |   |   bin20 >= 102.5 : YES (1/0)
|   |   |   |   |   bin14 >= 70 : NO (10/0)
|   |   |   |   bin15 >= 155 : YES (1/0)
|   |   bin24 >= 97
|   |   |   bin38 < 133.5 : YES (5/0)
|   |   |   bin38 >= 133.5
|   |   |   |   bin6 < 150 : YES (2/0)
|   |   |   |   bin6 >= 150 : NO (2/0)
bin28 >= 102.5
|   bin17 < 171.5 : NO (30/0)
|   bin17 >= 171.5
|   |   bin29 < 174.5 : YES (2/0)
|   |   bin29 >= 174.5 : NO (2/0)

Size of the tree : 31
RandomTree
==========

bin28 < 102.5
|   bin39 < 57.5
|   |   bin18 < 97
|   |   |   bin17 < 113 : YES (2/0)
|   |   |   bin17 >= 113 : NO (2/0)
|   |   bin18 >= 97
|   |   |   bin24 < 23.5
|   |   |   |   bin3 < 139 : YES (1/0)
|   |   |   |   bin3 >= 139 : NO (1/0)
|   |   |   bin24 >= 23.5 : YES (33/0)
|   bin39 >= 57.5
|   |   bin24 < 95.5
|   |   |   bin30 < 69 : NO (4/0)
|   |   |   bin30 >= 69
|   |   |   |   bin5 < 139
|   |   |   |   |   bin26 < 137.5 : YES (3/0)
|   |   |   |   |   bin26 >= 137.5 : NO (1/0)
|   |   |   |   bin5 >= 139
|   |   |   |   |   bin20 < 106.5
|   |   |   |   |   |   bin14 < 70 : YES (1/0)
|   |   |   |   |   |   bin14 >= 70 : NO (1/0)
|   |   |   |   |   bin20 >= 106.5 : NO (3/0)
|   |   bin24 >= 95.5
|   |   |   bin57 < 84.5
|   |   |   |   bin30 < 87.5 : YES (1/0)
|   |   |   |   bin30 >= 87.5 : NO (2/0)
|   |   |   bin57 >= 84.5 : YES (7/0)
bin28 >= 102.5
|   bin50 < 133 : NO (25/0)
|   bin50 >= 133
|   |   bin4 < 88 : NO (1/0)
|   |   bin4 >= 88 : YES (2/0)

Size of the tree : 33
RandomTree
==========

bin28 < 103.5
|   bin16 < 44.5 : NO (5/0)
|   bin16 >= 44.5
|   |   bin35 < 93.5
|   |   |   bin17 < 113
|   |   |   |   bin20 < 68.5 : NO (1/0)
|   |   |   |   bin20 >= 68.5 : YES (3/0)
|   |   |   bin17 >= 113 : NO (4/0)
|   |   bin35 >= 93.5
|   |   |   bin38 < 83 : YES (36/0)
|   |   |   bin38 >= 83
|   |   |   |   bin40 < 74 : NO (2/0)
|   |   |   |   bin40 >= 74
|   |   |   |   |   bin2 < 118.5
|   |   |   |   |   |   bin5 < 143.5 : YES (1/0)
|   |   |   |   |   |   bin5 >= 143.5 : NO (2/0)
|   |   |   |   |   bin2 >= 118.5 : YES (8/0)
bin28 >= 103.5
|   bin51 < 113 : NO (24/0)
|   bin51 >= 113
|   |   bin27 < 146 : YES (2/0)
|   |   bin27 >= 146 : NO (2/0)

Size of the tree : 23
RandomTree
==========

bin28 < 93.5
|   bin39 < 57.5
|   |   bin12 < 94 : YES (28/0)
|   |   bin12 >= 94
|   |   |   bin19 < 102
|   |   |   |   bin7 < 120.5 : NO (2/0)
|   |   |   |   bin7 >= 120.5 : YES (2/0)
|   |   |   bin19 >= 102 : YES (6/0)
|   bin39 >= 57.5
|   |   bin22 < 78.5 : NO (4/0)
|   |   bin22 >= 78.5
|   |   |   bin49 < 118
|   |   |   |   bin2 < 158.5 : NO (3/0)
|   |   |   |   bin2 >= 158.5 : YES (1/0)
|   |   |   bin49 >= 118 : YES (8/0)
bin28 >= 93.5
|   bin39 < 129.5
|   |   bin51 < 112
|   |   |   bin59 < 89
|   |   |   |   bin14 < 113.5 : NO (2/0)
|   |   |   |   bin14 >= 113.5 : YES (1/0)
|   |   |   bin59 >= 89 : NO (14/0)
|   |   bin51 >= 112
|   |   |   bin10 < 120.5 : YES (4/0)
|   |   |   bin10 >= 120.5 : NO (1/0)
|   bin39 >= 129.5 : NO (14/0)

Size of the tree : 27
RandomTree
==========

bin28 < 102.5
|   bin39 < 57.5
|   |   bin35 < 93.5
|   |   |   bin17 < 113 : YES (2/0)
|   |   |   bin17 >= 113 : NO (3/0)
|   |   bin35 >= 93.5
|   |   |   bin24 < 23.5
|   |   |   |   bin3 < 139 : YES (1/0)
|   |   |   |   bin3 >= 139 : NO (1/0)
|   |   |   bin24 >= 23.5 : YES (33/0)
|   bin39 >= 57.5
|   |   bin24 < 97
|   |   |   bin30 < 103.5
|   |   |   |   bin5 < 137
|   |   |   |   |   bin26 < 72 : NO (1/0)
|   |   |   |   |   bin26 >= 72 : YES (3/0)
|   |   |   |   bin5 >= 137
|   |   |   |   |   bin20 < 102.5 : NO (3/0)
|   |   |   |   |   bin20 >= 102.5
|   |   |   |   |   |   bin14 < 104 : YES (1/0)
|   |   |   |   |   |   bin14 >= 104 : NO (1/0)
|   |   |   bin30 >= 103.5 : NO (4/0)
|   |   bin24 >= 97
|   |   |   bin6 < 154 : YES (7/0)
|   |   |   bin6 >= 154
|   |   |   |   bin17 < 104.5 : YES (1/0)
|   |   |   |   bin17 >= 104.5 : NO (1/0)
bin28 >= 102.5
|   bin50 < 133 : NO (25/0)
|   bin50 >= 133
|   |   bin4 < 88 : NO (1/0)
|   |   bin4 >= 88 : YES (2/0)

Size of the tree : 33
RandomTree
==========

bin28 < 102.5
|   bin39 < 57.5
|   |   bin35 < 93.5
|   |   |   bin17 < 113 : YES (2/0)
|   |   |   bin17 >= 113 : NO (3/0)
|   |   bin35 >= 93.5
|   |   |   bin24 < 23.5
|   |   |   |   bin3 < 139 : YES (1/0)
|   |   |   |   bin3 >= 139 : NO (1/0)
|   |   |   bin24 >= 23.5 : YES (33/0)
|   bin39 >= 57.5
|   |   bin24 < 97
|   |   |   bin53 < 141
|   |   |   |   bin36 < 125
|   |   |   |   |   bin14 < 119 : YES (3/0)
|   |   |   |   |   bin14 >= 119
|   |   |   |   |   |   bin20 < 112.5 : NO (3/0)
|   |   |   |   |   |   bin20 >= 112.5 : YES (1/0)
|   |   |   |   bin36 >= 125 : NO (3/0)
|   |   |   bin53 >= 141 : NO (5/0)
|   |   bin24 >= 97
|   |   |   bin28 < 71.5 : NO (1/0)
|   |   |   bin28 >= 71.5
|   |   |   |   bin6 < 154 : YES (7/0)
|   |   |   |   bin6 >= 154
|   |   |   |   |   bin17 < 104.5 : YES (1/0)
|   |   |   |   |   bin17 >= 104.5 : NO (1/0)
bin28 >= 102.5
|   bin50 < 133 : NO (22/0)
|   bin50 >= 133
|   |   bin4 < 88 : NO (1/0)
|   |   bin4 >= 88 : YES (2/0)

Size of the tree : 33Decision Stump

Classifications

bin40 <= 69.5 : YES
bin40 > 69.5 : NO
bin40 is missing : NO

Class distributions

bin40 <= 69.5
YES	NO	
0.8333333333333334	0.16666666666666666	
bin40 > 69.5
YES	NO	
0.10416666666666667	0.8958333333333334	
bin40 is missing
YES	NO	
0.4444444444444444	0.5555555555555556	
Decision Stump

Classifications

bin38 <= 61.5 : YES
bin38 > 61.5 : NO
bin38 is missing : NO

Class distributions

bin38 <= 61.5
YES	NO	
0.8529411764705882	0.14705882352941177	
bin38 > 61.5
YES	NO	
0.19642857142857142	0.8035714285714286	
bin38 is missing
YES	NO	
0.4444444444444444	0.5555555555555556	
Decision Stump

Classifications

bin28 <= 102.5 : YES
bin28 > 102.5 : NO
bin28 is missing : NO

Class distributions

bin28 <= 102.5
YES	NO	
0.6842105263157895	0.3157894736842105	
bin28 > 102.5
YES	NO	
0.030303030303030304	0.9696969696969697	
bin28 is missing
YES	NO	
0.4444444444444444	0.5555555555555556	
Decision Stump

Classifications

bin44 <= 117.5 : YES
bin44 > 117.5 : NO
bin44 is missing : NO

Class distributions

bin44 <= 117.5
YES	NO	
0.625	0.375	
bin44 > 117.5
YES	NO	
0.0	1.0	
bin44 is missing
YES	NO	
0.4444444444444444	0.5555555555555556	
Decision Stump

Classifications

bin44 <= 117.5 : YES
bin44 > 117.5 : NO
bin44 is missing : NO

Class distributions

bin44 <= 117.5
YES	NO	
0.625	0.375	
bin44 > 117.5
YES	NO	
0.0	1.0	
bin44 is missing
YES	NO	
0.4444444444444444	0.5555555555555556	
Decision Stump

Classifications

bin28 <= 102.5 : YES
bin28 > 102.5 : NO
bin28 is missing : YES

Class distributions

bin28 <= 102.5
YES	NO	
0.7741935483870968	0.22580645161290322	
bin28 > 102.5
YES	NO	
0.07142857142857142	0.9285714285714286	
bin28 is missing
YES	NO	
0.5555555555555556	0.4444444444444444	
Decision Stump

Classifications

bin28 <= 103.5 : YES
bin28 > 103.5 : NO
bin28 is missing : YES

Class distributions

bin28 <= 103.5
YES	NO	
0.7741935483870968	0.22580645161290322	
bin28 > 103.5
YES	NO	
0.07142857142857142	0.9285714285714286	
bin28 is missing
YES	NO	
0.5555555555555556	0.4444444444444444	
Decision Stump

Classifications

bin44 <= 117.5 : YES
bin44 > 117.5 : NO
bin44 is missing : YES

Class distributions

bin44 <= 117.5
YES	NO	
0.746268656716418	0.2537313432835821	
bin44 > 117.5
YES	NO	
0.0	1.0	
bin44 is missing
YES	NO	
0.5555555555555556	0.4444444444444444	
Decision Stump

Classifications

bin44 <= 118.5 : YES
bin44 > 118.5 : NO
bin44 is missing : YES

Class distributions

bin44 <= 118.5
YES	NO	
0.7352941176470589	0.2647058823529412	
bin44 > 118.5
YES	NO	
0.0	1.0	
bin44 is missing
YES	NO	
0.5555555555555556	0.4444444444444444	
Decision Stump

Classifications

bin44 <= 117.5 : YES
bin44 > 117.5 : NO
bin44 is missing : YES

Class distributions

bin44 <= 117.5
YES	NO	
0.6944444444444444	0.3055555555555556	
bin44 > 117.5
YES	NO	
0.0	1.0	
bin44 is missing
YES	NO	
0.5555555555555556	0.4444444444444444	
J48 pruned tree
------------------

bin40 <= 68
|   bin19 <= 96: NO (5.0/1.0)
|   bin19 > 96
|   |   bin49 <= 120: NO (3.0/1.0)
|   |   bin49 > 120: YES (34.0/1.0)
bin40 > 68
|   bin2 <= 157: NO (45.0/2.0)
|   bin2 > 157: YES (3.0)

Number of Leaves  : 	5

Size of the tree : 	9
J48 pruned tree
------------------

bin44 <= 117
|   bin13 <= 144
|   |   bin35 <= 94
|   |   |   bin21 <= 74: YES (3.0)
|   |   |   bin21 > 74: NO (9.0)
|   |   bin35 > 94
|   |   |   bin49 <= 120
|   |   |   |   bin35 <= 100: YES (4.0/1.0)
|   |   |   |   bin35 > 100: NO (6.0)
|   |   |   bin49 > 120: YES (36.0/2.0)
|   bin13 > 144: NO (6.0)
bin44 > 117: NO (26.0)

Number of Leaves  : 	7

Size of the tree : 	13
J48 pruned tree
------------------

bin28 <= 101
|   bin20 <= 96
|   |   bin34 <= 80: YES (5.0/1.0)
|   |   bin34 > 80: NO (11.0)
|   bin20 > 96
|   |   bin2 <= 143: YES (29.0/1.0)
|   |   bin2 > 143
|   |   |   bin4 <= 150
|   |   |   |   bin2 <= 148: YES (3.0/1.0)
|   |   |   |   bin2 > 148: NO (4.0)
|   |   |   bin4 > 150: YES (5.0)
bin28 > 101: NO (33.0/1.0)

Number of Leaves  : 	7

Size of the tree : 	13
J48 pruned tree
------------------

bin44 <= 117
|   bin49 <= 86: NO (6.0)
|   bin49 > 86
|   |   bin13 <= 143
|   |   |   bin19 <= 96
|   |   |   |   bin21 <= 74: YES (3.0)
|   |   |   |   bin21 > 74: NO (6.0)
|   |   |   bin19 > 96
|   |   |   |   bin49 <= 120
|   |   |   |   |   bin17 <= 118: YES (2.0)
|   |   |   |   |   bin17 > 118: NO (3.0)
|   |   |   |   bin49 > 120: YES (36.0/2.0)
|   |   bin13 > 143: NO (8.0/1.0)
bin44 > 117: NO (26.0)

Number of Leaves  : 	8

Size of the tree : 	15
J48 pruned tree
------------------

bin44 <= 117
|   bin52 <= 90: NO (8.0)
|   bin52 > 90
|   |   bin35 <= 93
|   |   |   bin1 <= 61: YES (2.0)
|   |   |   bin1 > 61: NO (8.0)
|   |   bin35 > 93
|   |   |   bin39 <= 55: YES (28.0/1.0)
|   |   |   bin39 > 55
|   |   |   |   bin23 <= 81: NO (4.0)
|   |   |   |   bin23 > 81
|   |   |   |   |   bin51 <= 109
|   |   |   |   |   |   bin19 <= 115: YES (3.0)
|   |   |   |   |   |   bin19 > 115: NO (3.0)
|   |   |   |   |   bin51 > 109: YES (8.0)
bin44 > 117: NO (26.0)

Number of Leaves  : 	9

Size of the tree : 	17
J48 pruned tree
------------------

bin44 <= 117
|   bin5 <= 164
|   |   bin49 <= 84: NO (4.0)
|   |   bin49 > 84
|   |   |   bin50 <= 95
|   |   |   |   bin53 <= 86: YES (2.0)
|   |   |   |   bin53 > 86: NO (4.0)
|   |   |   bin50 > 95
|   |   |   |   bin40 <= 58: YES (35.0/1.0)
|   |   |   |   bin40 > 58
|   |   |   |   |   bin58 <= 103
|   |   |   |   |   |   bin25 <= 97: NO (4.0)
|   |   |   |   |   |   bin25 > 97
|   |   |   |   |   |   |   bin49 <= 157: YES (4.0)
|   |   |   |   |   |   |   bin49 > 157: NO (2.0)
|   |   |   |   |   bin58 > 103: YES (10.0)
|   bin5 > 164: NO (5.0)
bin44 > 117: NO (20.0)

Number of Leaves  : 	10

Size of the tree : 	19
J48 pruned tree
------------------

bin28 <= 101
|   bin4 <= 64: NO (5.0)
|   bin4 > 64
|   |   bin50 <= 95
|   |   |   bin61 <= 60: YES (2.0)
|   |   |   bin61 > 60: NO (5.0)
|   |   bin50 > 95
|   |   |   bin5 <= 136: YES (37.0)
|   |   |   bin5 > 136
|   |   |   |   bin17 <= 136: NO (2.0)
|   |   |   |   bin17 > 136
|   |   |   |   |   bin6 <= 79: NO (2.0)
|   |   |   |   |   bin6 > 79: YES (9.0)
bin28 > 101
|   bin18 <= 154: NO (26.0)
|   bin18 > 154: YES (2.0)

Number of Leaves  : 	9

Size of the tree : 	17
J48 pruned tree
------------------

bin44 <= 117
|   bin5 <= 164
|   |   bin2 <= 105
|   |   |   bin5 <= 72: YES (2.0)
|   |   |   bin5 > 72: NO (7.0/1.0)
|   |   bin2 > 105
|   |   |   bin16 <= 92: YES (33.0)
|   |   |   bin16 > 92
|   |   |   |   bin4 <= 150
|   |   |   |   |   bin3 <= 144
|   |   |   |   |   |   bin12 <= 96: NO (2.0)
|   |   |   |   |   |   bin12 > 96: YES (5.0)
|   |   |   |   |   bin3 > 144: NO (4.0)
|   |   |   |   bin4 > 150: YES (9.0)
|   bin5 > 164: NO (5.0)
bin44 > 117: NO (23.0)

Number of Leaves  : 	9

Size of the tree : 	17
J48 pruned tree
------------------

bin44 <= 117
|   bin49 <= 84: NO (5.0)
|   bin49 > 84
|   |   bin35 <= 93
|   |   |   bin19 <= 76: YES (3.0)
|   |   |   bin19 > 76: NO (6.0)
|   |   bin35 > 93
|   |   |   bin39 <= 56: YES (35.0/1.0)
|   |   |   bin39 > 56
|   |   |   |   bin22 <= 77: NO (3.0)
|   |   |   |   bin22 > 77
|   |   |   |   |   bin48 <= 44: NO (4.0/1.0)
|   |   |   |   |   bin48 > 44: YES (12.0)
bin44 > 117: NO (22.0)

Number of Leaves  : 	8

Size of the tree : 	15
J48 pruned tree
------------------

bin44 <= 117
|   bin52 <= 90: NO (9.0/1.0)
|   bin52 > 90
|   |   bin35 <= 93
|   |   |   bin21 <= 74: YES (3.0)
|   |   |   bin21 > 74: NO (7.0)
|   |   bin35 > 93
|   |   |   bin39 <= 56: YES (35.0/1.0)
|   |   |   bin39 > 56
|   |   |   |   bin22 <= 77: NO (3.0)
|   |   |   |   bin22 > 77
|   |   |   |   |   bin48 <= 28: NO (2.0)
|   |   |   |   |   bin48 > 28: YES (13.0/1.0)
bin44 > 117: NO (18.0)

Number of Leaves  : 	8

Size of the tree : 	15
Accuracy of J48: 69,00%
---------------------------------Logistic model tree 
------------------
: LM_1:3/3 (90)

Number of Leaves  : 	1

Size of the Tree : 	1
LM_1:
Class 0 :
0.22 + 
[bin4] * 0.01 +
[bin40] * -0.01 +
[bin63] * -0.01

Class 1 :
-0.22 + 
[bin4] * -0.01 +
[bin40] * 0.01 +
[bin63] * 0.01
Logistic model tree 
------------------
: LM_1:4/4 (90)

Number of Leaves  : 	1

Size of the Tree : 	1
LM_1:
Class 0 :
-0.51 + 
[bin2] * 0.01 +
[bin11] * -0.01 +
[bin40] * -0.01 +
[bin51] * 0.01

Class 1 :
0.51 + 
[bin2] * -0.01 +
[bin11] * 0.01 +
[bin40] * 0.01 +
[bin51] * -0.01
Logistic model tree 
------------------

bin28 <= 101
|   bin20 <= 96: LM_1:22/66 (16)
|   bin20 > 96
|   |   bin2 <= 143: LM_2:22/88 (29)
|   |   bin2 > 143: LM_3:22/88 (12)
bin28 > 101: LM_4:22/44 (33)

Number of Leaves  : 	4

Size of the Tree : 	7


LM_1:
Class 0 :
-18.5 + 
[bin1] * -0.01 +
[bin2] * 0.01 +
[bin8] * 0.02 +
[bin12] * 0.01 +
[bin15] * -0.01 +
[bin16] * 0.01 +
[bin18] * -0.08 +
[bin20] * 0.04 +
[bin24] * 0.01 +
[bin25] * -0 +
[bin26] * -0 +
[bin27] * -0.01 +
[bin29] * -0 +
[bin30] * -0.01 +
[bin32] * 0.03 +
[bin33] * -0 +
[bin35] * -0.01 +
[bin36] * 0.12 +
[bin40] * 0.03 +
[bin41] * -0 +
[bin44] * 0.01 +
[bin46] * -0.01 +
[bin49] * 0.01 +
[bin50] * 0.01 +
[bin51] * -0 +
[bin52] * 0.03 +
[bin63] * -0

Class 1 :
18.5 + 
[bin1] * 0.01 +
[bin2] * -0.01 +
[bin8] * -0.02 +
[bin12] * -0.01 +
[bin15] * 0.01 +
[bin16] * -0.01 +
[bin18] * 0.08 +
[bin20] * -0.04 +
[bin24] * -0.01 +
[bin25] * 0    +
[bin26] * 0    +
[bin27] * 0.01 +
[bin29] * 0    +
[bin30] * 0.01 +
[bin32] * -0.03 +
[bin33] * 0    +
[bin35] * 0.01 +
[bin36] * -0.12 +
[bin40] * -0.03 +
[bin41] * 0    +
[bin44] * -0.01 +
[bin46] * 0.01 +
[bin49] * -0.01 +
[bin50] * -0.01 +
[bin51] * 0    +
[bin52] * -0.03 +
[bin63] * 0   


LM_2:
Class 0 :
471.92 + 
[bin1] * -0.08 +
[bin2] * 0.01 +
[bin5] * 0.01 +
[bin7] * 0    +
[bin11] * 0.04 +
[bin12] * 0.03 +
[bin13] * -0.01 +
[bin15] * -0.01 +
[bin18] * -0 +
[bin20] * 0.01 +
[bin24] * 0.01 +
[bin25] * -0 +
[bin26] * -0 +
[bin29] * -0 +
[bin30] * -0.01 +
[bin32] * 0.01 +
[bin33] * -0 +
[bin35] * -0.01 +
[bin36] * -0.02 +
[bin40] * -0.02 +
[bin41] * -0 +
[bin44] * 0.01 +
[bin46] * -0.01 +
[bin49] * -2.86 +
[bin50] * 0.01 +
[bin51] * -0 +
[bin52] * 0    +
[bin57] * 0.01 +
[bin60] * 0.01 +
[bin63] * -0

Class 1 :
-471.92 + 
[bin1] * 0.08 +
[bin2] * -0.01 +
[bin5] * -0.01 +
[bin7] * -0 +
[bin11] * -0.04 +
[bin12] * -0.03 +
[bin13] * 0.01 +
[bin15] * 0.01 +
[bin18] * 0    +
[bin20] * -0.01 +
[bin24] * -0.01 +
[bin25] * 0    +
[bin26] * 0    +
[bin29] * 0    +
[bin30] * 0.01 +
[bin32] * -0.01 +
[bin33] * 0    +
[bin35] * 0.01 +
[bin36] * 0.02 +
[bin40] * 0.02 +
[bin41] * 0    +
[bin44] * -0.01 +
[bin46] * 0.01 +
[bin49] * 2.86 +
[bin50] * -0.01 +
[bin51] * 0    +
[bin52] * -0 +
[bin57] * -0.01 +
[bin60] * -0.01 +
[bin63] * 0   

LM_3:
Class 0 :
9.28 + 
[bin1] * -0.08 +
[bin2] * 0.01 +
[bin4] * 0.05 +
[bin5] * 0.01 +
[bin7] * 0    +
[bin9] * 0.01 +
[bin11] * 0    +
[bin12] * -0.01 +
[bin13] * -0.01 +
[bin15] * -0.01 +
[bin16] * -0.01 +
[bin18] * -0 +
[bin20] * 0.01 +
[bin21] * -0.01 +
[bin24] * 0.01 +
[bin25] * -0 +
[bin26] * -0 +
[bin29] * -0.01 +
[bin30] * -0.01 +
[bin32] * 0.01 +
[bin33] * -0 +
[bin35] * -0.04 +
[bin36] * -0.02 +
[bin39] * -0.01 +
[bin40] * -0.03 +
[bin41] * -0 +
[bin44] * 0.01 +
[bin46] * -0.01 +
[bin49] * 0.01 +
[bin50] * 0.01 +
[bin51] * -0 +
[bin52] * 0    +
[bin54] * 0.02 +
[bin57] * 0.01 +
[bin60] * 0.02 +
[bin62] * 0.01 +
[bin63] * -0 +
[bin64] * 0.02

Class 1 :
-9.28 + 
[bin1] * 0.08 +
[bin2] * -0.01 +
[bin4] * -0.05 +
[bin5] * -0.01 +
[bin7] * -0 +
[bin9] * -0.01 +
[bin11] * -0 +
[bin12] * 0.01 +
[bin13] * 0.01 +
[bin15] * 0.01 +
[bin16] * 0.01 +
[bin18] * 0    +
[bin20] * -0.01 +
[bin21] * 0.01 +
[bin24] * -0.01 +
[bin25] * 0    +
[bin26] * 0    +
[bin29] * 0.01 +
[bin30] * 0.01 +
[bin32] * -0.01 +
[bin33] * 0    +
[bin35] * 0.04 +
[bin36] * 0.02 +
[bin39] * 0.01 +
[bin40] * 0.03 +
[bin41] * 0    +
[bin44] * -0.01 +
[bin46] * 0.01 +
[bin49] * -0.01 +
[bin50] * -0.01 +
[bin51] * 0    +
[bin52] * -0 +
[bin54] * -0.02 +
[bin57] * -0.01 +
[bin60] * -0.02 +
[bin62] * -0.01 +
[bin63] * 0    +
[bin64] * -0.02

LM_4:
Class 0 :
-47.59 + 
[bin2] * 0.01 +
[bin12] * -0.03 +
[bin18] * 0.24 +
[bin20] * 0.01 +
[bin24] * 0    +
[bin25] * -0 +
[bin26] * -0 +
[bin30] * -0.01 +
[bin33] * 0.01 +
[bin34] * 0.01 +
[bin40] * -0.01 +
[bin41] * 0.13 +
[bin44] * 0    +
[bin49] * 0.01 +
[bin50] * 0.01 +
[bin51] * 0    +
[bin59] * -0.01 +
[bin60] * -0.04 +
[bin62] * -0.03 +
[bin63] * -0

Class 1 :
47.59 + 
[bin2] * -0.01 +
[bin12] * 0.03 +
[bin18] * -0.24 +
[bin20] * -0.01 +
[bin24] * -0 +
[bin25] * 0    +
[bin26] * 0    +
[bin30] * 0.01 +
[bin33] * -0.01 +
[bin34] * -0.01 +
[bin40] * 0.01 +
[bin41] * -0.13 +
[bin44] * -0 +
[bin49] * -0.01 +
[bin50] * -0.01 +
[bin51] * -0 +
[bin59] * 0.01 +
[bin60] * 0.04 +
[bin62] * 0.03 +
[bin63] * 0   
Logistic model tree 
------------------
: LM_1:24/24 (90)

Number of Leaves  : 	1

Size of the Tree : 	1
LM_1:
Class 0 :
-2.04 + 
[bin2] * 0.01 +
[bin8] * 0    +
[bin11] * -0.01 +
[bin12] * -0 +
[bin15] * -0 +
[bin20] * 0.01 +
[bin24] * 0    +
[bin25] * -0.01 +
[bin30] * -0 +
[bin40] * -0.01 +
[bin44] * 0    +
[bin45] * -0 +
[bin49] * 0.01 +
[bin50] * 0.01 +
[bin51] * 0.02 +
[bin62] * -0 +
[bin63] * -0

Class 1 :
2.04 + 
[bin2] * -0.01 +
[bin8] * -0 +
[bin11] * 0.01 +
[bin12] * 0    +
[bin15] * 0    +
[bin20] * -0.01 +
[bin24] * -0 +
[bin25] * 0.01 +
[bin30] * 0    +
[bin40] * 0.01 +
[bin44] * -0 +
[bin45] * 0    +
[bin49] * -0.01 +
[bin50] * -0.01 +
[bin51] * -0.02 +
[bin62] * 0    +
[bin63] * 0   
Logistic model tree 
------------------
: LM_1:5/5 (90)

Number of Leaves  : 	1

Size of the Tree : 	1
LM_1:
Class 0 :
-1.28 + 
[bin2] * 0.01 +
[bin11] * -0.01 +
[bin20] * 0.01 +
[bin40] * -0.01 +
[bin51] * 0.01

Class 1 :
1.28 + 
[bin2] * -0.01 +
[bin11] * 0.01 +
[bin20] * -0.01 +
[bin40] * 0.01 +
[bin51] * -0.01
Logistic model tree 
------------------
: LM_1:20/20 (90)

Number of Leaves  : 	1

Size of the Tree : 	1
LM_1:
Class 0 :
-2.46 + 
[bin3] * 0    +
[bin7] * 0    +
[bin12] * -0.01 +
[bin30] * -0 +
[bin40] * -0.01 +
[bin44] * 0.01 +
[bin45] * -0 +
[bin49] * 0.01 +
[bin50] * 0.02 +
[bin51] * 0.02 +
[bin52] * 0    +
[bin63] * -0.01

Class 1 :
2.46 + 
[bin3] * -0 +
[bin7] * -0 +
[bin12] * 0.01 +
[bin30] * 0    +
[bin40] * 0.01 +
[bin44] * -0.01 +
[bin45] * 0    +
[bin49] * -0.01 +
[bin50] * -0.02 +
[bin51] * -0.02 +
[bin52] * -0 +
[bin63] * 0.01
Logistic model tree 
------------------

bin28 <= 101
|   bin4 <= 64: LM_1:3/9 (5)
|   bin4 > 64
|   |   bin50 <= 95: LM_2:3/12 (7)
|   |   bin50 > 95: LM_3:3/12 (50)
bin28 > 101: LM_4:3/6 (28)

Number of Leaves  : 	4

Size of the Tree : 	7


LM_1:
Class 0 :
-3.61 + 
[bin2] * 0.01 +
[bin32] * 0.01 +
[bin36] * 0.02 +
[bin38] * -0.01 +
[bin44] * -0.01 +
[bin51] * 0.01 +
[bin55] * -0 +
[bin56] * -0.01

Class 1 :
3.61 + 
[bin2] * -0.01 +
[bin32] * -0.01 +
[bin36] * -0.02 +
[bin38] * 0.01 +
[bin44] * 0.01 +
[bin51] * -0.01 +
[bin55] * 0    +
[bin56] * 0.01


LM_2:
Class 0 :
-1.81 + 
[bin2] * 0.01 +
[bin13] * -0.02 +
[bin29] * -0.05 +
[bin32] * 0.01 +
[bin36] * 0.04 +
[bin38] * -0.01 +
[bin44] * -0.01 +
[bin48] * 0.01 +
[bin51] * 0.01 +
[bin60] * 0.05

Class 1 :
1.81 + 
[bin2] * -0.01 +
[bin13] * 0.02 +
[bin29] * 0.05 +
[bin32] * -0.01 +
[bin36] * -0.04 +
[bin38] * 0.01 +
[bin44] * 0.01 +
[bin48] * -0.01 +
[bin51] * -0.01 +
[bin60] * -0.05

LM_3:
Class 0 :
3.43 + 
[bin2] * -0 +
[bin5] * -0.02 +
[bin13] * -0.02 +
[bin32] * 0.01 +
[bin36] * 0.04 +
[bin38] * -0.01 +
[bin44] * -0.01 +
[bin48] * 0.01 +
[bin50] * -0.03 +
[bin51] * 0.01

Class 1 :
-3.43 + 
[bin2] * 0    +
[bin5] * 0.02 +
[bin13] * 0.02 +
[bin32] * -0.01 +
[bin36] * -0.04 +
[bin38] * 0.01 +
[bin44] * 0.01 +
[bin48] * -0.01 +
[bin50] * 0.03 +
[bin51] * -0.01

LM_4:
Class 0 :
-7.53 + 
[bin2] * 0.01 +
[bin18] * 0.03 +
[bin34] * 0.01 +
[bin44] * -0.01 +
[bin51] * 0.01

Class 1 :
7.53 + 
[bin2] * -0.01 +
[bin18] * -0.03 +
[bin34] * -0.01 +
[bin44] * 0.01 +
[bin51] * -0.01
Logistic model tree 
------------------
: LM_1:1/1 (90)

Number of Leaves  : 	1

Size of the Tree : 	1
LM_1:
Class 0 :
1.13 + 
[bin44] * -0.01

Class 1 :
-1.13 + 
[bin44] * 0.01
Logistic model tree 
------------------
: LM_1:53/53 (90)

Number of Leaves  : 	1

Size of the Tree : 	1
LM_1:
Class 0 :
-0.99 + 
[bin1] * 0    +
[bin3] * 0.01 +
[bin12] * -0.02 +
[bin17] * -0 +
[bin18] * -0 +
[bin24] * 0.01 +
[bin25] * -0.01 +
[bin28] * -0.01 +
[bin29] * -0 +
[bin35] * -0 +
[bin36] * 0.01 +
[bin38] * -0 +
[bin44] * 0    +
[bin46] * -0 +
[bin49] * 0.01 +
[bin50] * 0.01 +
[bin52] * 0.01 +
[bin62] * -0 +
[bin63] * -0.01

Class 1 :
0.99 + 
[bin1] * -0 +
[bin3] * -0.01 +
[bin12] * 0.02 +
[bin17] * 0    +
[bin18] * 0    +
[bin24] * -0.01 +
[bin25] * 0.01 +
[bin28] * 0.01 +
[bin29] * 0    +
[bin35] * 0    +
[bin36] * -0.01 +
[bin38] * 0    +
[bin44] * -0 +
[bin46] * 0    +
[bin49] * -0.01 +
[bin50] * -0.01 +
[bin52] * -0.01 +
[bin62] * 0    +
[bin63] * 0.01
Logistic model tree 
------------------
: LM_1:48/48 (90)

Number of Leaves  : 	1

Size of the Tree : 	1
LM_1:
Class 0 :
-1.16 + 
[bin3] * 0    +
[bin4] * 0.01 +
[bin8] * 0    +
[bin12] * -0.02 +
[bin15] * -0 +
[bin17] * -0 +
[bin20] * 0.01 +
[bin24] * 0.01 +
[bin29] * -0 +
[bin30] * -0.01 +
[bin33] * -0 +
[bin40] * -0.01 +
[bin44] * 0.01 +
[bin45] * -0.01 +
[bin46] * -0 +
[bin49] * 0.01 +
[bin50] * 0.02 +
[bin52] * 0    +
[bin62] * -0 +
[bin63] * -0

Class 1 :
1.16 + 
[bin3] * -0 +
[bin4] * -0.01 +
[bin8] * -0 +
[bin12] * 0.02 +
[bin15] * 0    +
[bin17] * 0    +
[bin20] * -0.01 +
[bin24] * -0.01 +
[bin29] * 0    +
[bin30] * 0.01 +
[bin33] * 0    +
[bin40] * 0.01 +
[bin44] * -0.01 +
[bin45] * 0.01 +
[bin46] * 0    +
[bin49] * -0.01 +
[bin50] * -0.02 +
[bin52] * -0 +
[bin62] * 0    +
[bin63] * 0   
Accuracy of LMT: 70,00%
---------------------------------
RandomTree
==========

bin28 < 86
|   bin20 < 95.5
|   |   bin14 < 130.5 : NO (7/0)
|   |   bin14 >= 130.5 : YES (1/0)
|   bin20 >= 95.5
|   |   bin14 < 97.5
|   |   |   bin3 < 101.5 : NO (1/0)
|   |   |   bin3 >= 101.5 : YES (27/0)
|   |   bin14 >= 97.5
|   |   |   bin44 < 27
|   |   |   |   bin21 < 64 : YES (1/0)
|   |   |   |   bin21 >= 64 : NO (3/0)
|   |   |   bin44 >= 27
|   |   |   |   bin11 < 102
|   |   |   |   |   bin5 < 122 : NO (1/0)
|   |   |   |   |   bin5 >= 122 : YES (1/0)
|   |   |   |   bin11 >= 102 : YES (7/0)
bin28 >= 86
|   bin21 < 141 : NO (25/0)
|   bin21 >= 141
|   |   bin50 < 116.5 : NO (11/0)
|   |   bin50 >= 116.5
|   |   |   bin25 < 148.5 : YES (3/0)
|   |   |   bin25 >= 148.5 : NO (2/0)

Size of the tree : 25
RandomTree
==========

bin28 < 93.5
|   bin20 < 96.5
|   |   bin34 < 81
|   |   |   bin31 < 110.5 : YES (3/0)
|   |   |   bin31 >= 110.5 : NO (1/0)
|   |   bin34 >= 81
|   |   |   bin24 < 25 : YES (1/0)
|   |   |   bin24 >= 25 : NO (8/0)
|   bin20 >= 96.5
|   |   bin44 < 13.5
|   |   |   bin14 < 95 : YES (1/0)
|   |   |   bin14 >= 95 : NO (2/0)
|   |   bin44 >= 13.5
|   |   |   bin62 < 44.5 : YES (21/0)
|   |   |   bin62 >= 44.5
|   |   |   |   bin48 < 63
|   |   |   |   |   bin23 < 53.5 : YES (2/0)
|   |   |   |   |   bin23 >= 53.5
|   |   |   |   |   |   bin28 < 71
|   |   |   |   |   |   |   bin4 < 152.5 : NO (3/0)
|   |   |   |   |   |   |   bin4 >= 152.5 : YES (1/0)
|   |   |   |   |   |   bin28 >= 71 : YES (2/0)
|   |   |   |   bin48 >= 63 : YES (5/0)
bin28 >= 93.5
|   bin35 < 149.5
|   |   bin51 < 100.5 : NO (25/0)
|   |   bin51 >= 100.5
|   |   |   bin12 < 100.5
|   |   |   |   bin47 < 84 : NO (1/0)
|   |   |   |   bin47 >= 84 : YES (3/0)
|   |   |   bin12 >= 100.5 : NO (10/0)
|   bin35 >= 149.5 : YES (1/0)

Size of the tree : 33
RandomTree
==========

bin28 < 102.5
|   bin16 < 44.5 : NO (5/0)
|   bin16 >= 44.5
|   |   bin12 < 80.5 : YES (18/0)
|   |   bin12 >= 80.5
|   |   |   bin51 < 95.5
|   |   |   |   bin34 < 81 : YES (1/0)
|   |   |   |   bin34 >= 81 : NO (5/0)
|   |   |   bin51 >= 95.5
|   |   |   |   bin41 < 158
|   |   |   |   |   bin49 < 121
|   |   |   |   |   |   bin2 < 155.5 : NO (3/0)
|   |   |   |   |   |   bin2 >= 155.5
|   |   |   |   |   |   |   bin15 < 119.5 : NO (1/0)
|   |   |   |   |   |   |   bin15 >= 119.5 : YES (3/0)
|   |   |   |   |   bin49 >= 121
|   |   |   |   |   |   bin51 < 121.5 : YES (14/0)
|   |   |   |   |   |   bin51 >= 121.5
|   |   |   |   |   |   |   bin20 < 72.5 : NO (1/0)
|   |   |   |   |   |   |   bin20 >= 72.5
|   |   |   |   |   |   |   |   bin19 < 131.5 : YES (3/0)
|   |   |   |   |   |   |   |   bin19 >= 131.5 : NO (1/0)
|   |   |   |   bin41 >= 158 : NO (2/0)
bin28 >= 102.5
|   bin12 < 92.5
|   |   bin17 < 176 : NO (3/0)
|   |   bin17 >= 176 : YES (1/0)
|   bin12 >= 92.5 : NO (29/0)

Size of the tree : 29
RandomTree
==========

bin28 < 102.5
|   bin16 < 46.5 : NO (5/0)
|   bin16 >= 46.5
|   |   bin12 < 79.5 : YES (13/0)
|   |   bin12 >= 79.5
|   |   |   bin51 < 94.5
|   |   |   |   bin34 < 81 : YES (1/0)
|   |   |   |   bin34 >= 81 : NO (5/0)
|   |   |   bin51 >= 94.5
|   |   |   |   bin22 < 73
|   |   |   |   |   bin49 < 120.5 : NO (1/0)
|   |   |   |   |   bin49 >= 120.5 : YES (16/0)
|   |   |   |   bin22 >= 73
|   |   |   |   |   bin23 < 108
|   |   |   |   |   |   bin20 < 110 : NO (5/0)
|   |   |   |   |   |   bin20 >= 110
|   |   |   |   |   |   |   bin51 < 116.5 : YES (3/0)
|   |   |   |   |   |   |   bin51 >= 116.5
|   |   |   |   |   |   |   |   bin27 < 67 : YES (1/0)
|   |   |   |   |   |   |   |   bin27 >= 67 : NO (2/0)
|   |   |   |   |   bin23 >= 108 : YES (4/0)
bin28 >= 102.5
|   bin19 < 139.5 : NO (30/0)
|   bin19 >= 139.5
|   |   bin59 < 92.5 : YES (2/0)
|   |   bin59 >= 92.5 : NO (2/0)

Size of the tree : 27
RandomTree
==========

bin28 < 102.5
|   bin39 < 57
|   |   bin35 < 93.5
|   |   |   bin17 < 87 : YES (1/0)
|   |   |   bin17 >= 87 : NO (3/0)
|   |   bin35 >= 93.5
|   |   |   bin24 < 23.5
|   |   |   |   bin3 < 139 : YES (1/0)
|   |   |   |   bin3 >= 139 : NO (1/0)
|   |   |   bin24 >= 23.5 : YES (26/0)
|   bin39 >= 57
|   |   bin24 < 97
|   |   |   bin2 < 56.5 : YES (1/0)
|   |   |   bin2 >= 56.5
|   |   |   |   bin15 < 155
|   |   |   |   |   bin14 < 70
|   |   |   |   |   |   bin20 < 102.5 : NO (2/0)
|   |   |   |   |   |   bin20 >= 102.5 : YES (1/0)
|   |   |   |   |   bin14 >= 70 : NO (10/0)
|   |   |   |   bin15 >= 155 : YES (1/0)
|   |   bin24 >= 97
|   |   |   bin38 < 133.5 : YES (5/0)
|   |   |   bin38 >= 133.5
|   |   |   |   bin6 < 150 : YES (2/0)
|   |   |   |   bin6 >= 150 : NO (2/0)
bin28 >= 102.5
|   bin17 < 171.5 : NO (30/0)
|   bin17 >= 171.5
|   |   bin29 < 174.5 : YES (2/0)
|   |   bin29 >= 174.5 : NO (2/0)

Size of the tree : 31
RandomTree
==========

bin28 < 102.5
|   bin39 < 57.5
|   |   bin18 < 97
|   |   |   bin17 < 113 : YES (2/0)
|   |   |   bin17 >= 113 : NO (2/0)
|   |   bin18 >= 97
|   |   |   bin24 < 23.5
|   |   |   |   bin3 < 139 : YES (1/0)
|   |   |   |   bin3 >= 139 : NO (1/0)
|   |   |   bin24 >= 23.5 : YES (33/0)
|   bin39 >= 57.5
|   |   bin24 < 95.5
|   |   |   bin30 < 69 : NO (4/0)
|   |   |   bin30 >= 69
|   |   |   |   bin5 < 139
|   |   |   |   |   bin26 < 137.5 : YES (3/0)
|   |   |   |   |   bin26 >= 137.5 : NO (1/0)
|   |   |   |   bin5 >= 139
|   |   |   |   |   bin20 < 106.5
|   |   |   |   |   |   bin14 < 70 : YES (1/0)
|   |   |   |   |   |   bin14 >= 70 : NO (1/0)
|   |   |   |   |   bin20 >= 106.5 : NO (3/0)
|   |   bin24 >= 95.5
|   |   |   bin57 < 84.5
|   |   |   |   bin30 < 87.5 : YES (1/0)
|   |   |   |   bin30 >= 87.5 : NO (2/0)
|   |   |   bin57 >= 84.5 : YES (7/0)
bin28 >= 102.5
|   bin50 < 133 : NO (25/0)
|   bin50 >= 133
|   |   bin4 < 88 : NO (1/0)
|   |   bin4 >= 88 : YES (2/0)

Size of the tree : 33
RandomTree
==========

bin28 < 103.5
|   bin16 < 44.5 : NO (5/0)
|   bin16 >= 44.5
|   |   bin35 < 93.5
|   |   |   bin17 < 113
|   |   |   |   bin20 < 68.5 : NO (1/0)
|   |   |   |   bin20 >= 68.5 : YES (3/0)
|   |   |   bin17 >= 113 : NO (4/0)
|   |   bin35 >= 93.5
|   |   |   bin38 < 83 : YES (36/0)
|   |   |   bin38 >= 83
|   |   |   |   bin40 < 74 : NO (2/0)
|   |   |   |   bin40 >= 74
|   |   |   |   |   bin2 < 118.5
|   |   |   |   |   |   bin5 < 143.5 : YES (1/0)
|   |   |   |   |   |   bin5 >= 143.5 : NO (2/0)
|   |   |   |   |   bin2 >= 118.5 : YES (8/0)
bin28 >= 103.5
|   bin51 < 113 : NO (24/0)
|   bin51 >= 113
|   |   bin27 < 146 : YES (2/0)
|   |   bin27 >= 146 : NO (2/0)

Size of the tree : 23
RandomTree
==========

bin28 < 93.5
|   bin39 < 57.5
|   |   bin12 < 94 : YES (28/0)
|   |   bin12 >= 94
|   |   |   bin19 < 102
|   |   |   |   bin7 < 120.5 : NO (2/0)
|   |   |   |   bin7 >= 120.5 : YES (2/0)
|   |   |   bin19 >= 102 : YES (6/0)
|   bin39 >= 57.5
|   |   bin22 < 78.5 : NO (4/0)
|   |   bin22 >= 78.5
|   |   |   bin49 < 118
|   |   |   |   bin2 < 158.5 : NO (3/0)
|   |   |   |   bin2 >= 158.5 : YES (1/0)
|   |   |   bin49 >= 118 : YES (8/0)
bin28 >= 93.5
|   bin39 < 129.5
|   |   bin51 < 112
|   |   |   bin59 < 89
|   |   |   |   bin14 < 113.5 : NO (2/0)
|   |   |   |   bin14 >= 113.5 : YES (1/0)
|   |   |   bin59 >= 89 : NO (14/0)
|   |   bin51 >= 112
|   |   |   bin10 < 120.5 : YES (4/0)
|   |   |   bin10 >= 120.5 : NO (1/0)
|   bin39 >= 129.5 : NO (14/0)

Size of the tree : 27
RandomTree
==========

bin28 < 102.5
|   bin39 < 57.5
|   |   bin35 < 93.5
|   |   |   bin17 < 113 : YES (2/0)
|   |   |   bin17 >= 113 : NO (3/0)
|   |   bin35 >= 93.5
|   |   |   bin24 < 23.5
|   |   |   |   bin3 < 139 : YES (1/0)
|   |   |   |   bin3 >= 139 : NO (1/0)
|   |   |   bin24 >= 23.5 : YES (33/0)
|   bin39 >= 57.5
|   |   bin24 < 97
|   |   |   bin30 < 103.5
|   |   |   |   bin5 < 137
|   |   |   |   |   bin26 < 72 : NO (1/0)
|   |   |   |   |   bin26 >= 72 : YES (3/0)
|   |   |   |   bin5 >= 137
|   |   |   |   |   bin20 < 102.5 : NO (3/0)
|   |   |   |   |   bin20 >= 102.5
|   |   |   |   |   |   bin14 < 104 : YES (1/0)
|   |   |   |   |   |   bin14 >= 104 : NO (1/0)
|   |   |   bin30 >= 103.5 : NO (4/0)
|   |   bin24 >= 97
|   |   |   bin6 < 154 : YES (7/0)
|   |   |   bin6 >= 154
|   |   |   |   bin17 < 104.5 : YES (1/0)
|   |   |   |   bin17 >= 104.5 : NO (1/0)
bin28 >= 102.5
|   bin50 < 133 : NO (25/0)
|   bin50 >= 133
|   |   bin4 < 88 : NO (1/0)
|   |   bin4 >= 88 : YES (2/0)

Size of the tree : 33
RandomTree
==========

bin28 < 102.5
|   bin39 < 57.5
|   |   bin35 < 93.5
|   |   |   bin17 < 113 : YES (2/0)
|   |   |   bin17 >= 113 : NO (3/0)
|   |   bin35 >= 93.5
|   |   |   bin24 < 23.5
|   |   |   |   bin3 < 139 : YES (1/0)
|   |   |   |   bin3 >= 139 : NO (1/0)
|   |   |   bin24 >= 23.5 : YES (33/0)
|   bin39 >= 57.5
|   |   bin24 < 97
|   |   |   bin53 < 141
|   |   |   |   bin36 < 125
|   |   |   |   |   bin14 < 119 : YES (3/0)
|   |   |   |   |   bin14 >= 119
|   |   |   |   |   |   bin20 < 112.5 : NO (3/0)
|   |   |   |   |   |   bin20 >= 112.5 : YES (1/0)
|   |   |   |   bin36 >= 125 : NO (3/0)
|   |   |   bin53 >= 141 : NO (5/0)
|   |   bin24 >= 97
|   |   |   bin28 < 71.5 : NO (1/0)
|   |   |   bin28 >= 71.5
|   |   |   |   bin6 < 154 : YES (7/0)
|   |   |   |   bin6 >= 154
|   |   |   |   |   bin17 < 104.5 : YES (1/0)
|   |   |   |   |   bin17 >= 104.5 : NO (1/0)
bin28 >= 102.5
|   bin50 < 133 : NO (22/0)
|   bin50 >= 133
|   |   bin4 < 88 : NO (1/0)
|   |   bin4 >= 88 : YES (2/0)

Size of the tree : 33Accuracy of RandomTree: 73,00%
---------------------------------Decision Stump

Classifications

bin40 <= 69.5 : YES
bin40 > 69.5 : NO
bin40 is missing : NO

Class distributions

bin40 <= 69.5
YES	NO	
0.8333333333333334	0.16666666666666666	
bin40 > 69.5
YES	NO	
0.10416666666666667	0.8958333333333334	
bin40 is missing
YES	NO	
0.4444444444444444	0.5555555555555556	
Decision Stump

Classifications

bin38 <= 61.5 : YES
bin38 > 61.5 : NO
bin38 is missing : NO

Class distributions

bin38 <= 61.5
YES	NO	
0.8529411764705882	0.14705882352941177	
bin38 > 61.5
YES	NO	
0.19642857142857142	0.8035714285714286	
bin38 is missing
YES	NO	
0.4444444444444444	0.5555555555555556	
Decision Stump

Classifications

bin28 <= 102.5 : YES
bin28 > 102.5 : NO
bin28 is missing : NO

Class distributions

bin28 <= 102.5
YES	NO	
0.6842105263157895	0.3157894736842105	
bin28 > 102.5
YES	NO	
0.030303030303030304	0.9696969696969697	
bin28 is missing
YES	NO	
0.4444444444444444	0.5555555555555556	
Decision Stump

Classifications

bin44 <= 117.5 : YES
bin44 > 117.5 : NO
bin44 is missing : NO

Class distributions

bin44 <= 117.5
YES	NO	
0.625	0.375	
bin44 > 117.5
YES	NO	
0.0	1.0	
bin44 is missing
YES	NO	
0.4444444444444444	0.5555555555555556	
Decision Stump

Classifications

bin44 <= 117.5 : YES
bin44 > 117.5 : NO
bin44 is missing : NO

Class distributions

bin44 <= 117.5
YES	NO	
0.625	0.375	
bin44 > 117.5
YES	NO	
0.0	1.0	
bin44 is missing
YES	NO	
0.4444444444444444	0.5555555555555556	
Decision Stump

Classifications

bin28 <= 102.5 : YES
bin28 > 102.5 : NO
bin28 is missing : YES

Class distributions

bin28 <= 102.5
YES	NO	
0.7741935483870968	0.22580645161290322	
bin28 > 102.5
YES	NO	
0.07142857142857142	0.9285714285714286	
bin28 is missing
YES	NO	
0.5555555555555556	0.4444444444444444	
Decision Stump

Classifications

bin28 <= 103.5 : YES
bin28 > 103.5 : NO
bin28 is missing : YES

Class distributions

bin28 <= 103.5
YES	NO	
0.7741935483870968	0.22580645161290322	
bin28 > 103.5
YES	NO	
0.07142857142857142	0.9285714285714286	
bin28 is missing
YES	NO	
0.5555555555555556	0.4444444444444444	
Decision Stump

Classifications

bin44 <= 117.5 : YES
bin44 > 117.5 : NO
bin44 is missing : YES

Class distributions

bin44 <= 117.5
YES	NO	
0.746268656716418	0.2537313432835821	
bin44 > 117.5
YES	NO	
0.0	1.0	
bin44 is missing
YES	NO	
0.5555555555555556	0.4444444444444444	
Decision Stump

Classifications

bin44 <= 118.5 : YES
bin44 > 118.5 : NO
bin44 is missing : YES

Class distributions

bin44 <= 118.5
YES	NO	
0.7352941176470589	0.2647058823529412	
bin44 > 118.5
YES	NO	
0.0	1.0	
bin44 is missing
YES	NO	
0.5555555555555556	0.4444444444444444	
Decision Stump

Classifications

bin44 <= 117.5 : YES
bin44 > 117.5 : NO
bin44 is missing : YES

Class distributions

bin44 <= 117.5
YES	NO	
0.6944444444444444	0.3055555555555556	
bin44 > 117.5
YES	NO	
0.0	1.0	
bin44 is missing
YES	NO	
0.5555555555555556	0.4444444444444444	
Accuracy of DecisionStump: 63,00%
---------------------------------