J48 pruned tree
------------------

bin9 <= 94
|   bin162 <= 26
|   |   bin4 <= 5
|   |   |   bin252 <= 15: NO (12.0)
|   |   |   bin252 > 15
|   |   |   |   bin93 <= 9: NO (3.0)
|   |   |   |   bin93 > 9: YES (6.0/1.0)
|   |   bin4 > 5
|   |   |   bin254 <= 3
|   |   |   |   bin250 <= 2
|   |   |   |   |   bin242 <= 1
|   |   |   |   |   |   bin4 <= 27: YES (3.0)
|   |   |   |   |   |   bin4 > 27: NO (2.0)
|   |   |   |   |   bin242 > 1: YES (3.0)
|   |   |   |   bin250 > 2: NO (3.0)
|   |   |   bin254 > 3: YES (17.0)
|   bin162 > 26
|   |   bin22 <= 124: NO (29.0)
|   |   bin22 > 124: YES (2.0)
bin9 > 94: YES (10.0)

Number of Leaves  : 	11

Size of the tree : 	21
J48 pruned tree
------------------

bin11 <= 62
|   bin162 <= 24
|   |   bin4 <= 5
|   |   |   bin253 <= 15: NO (11.0)
|   |   |   bin253 > 15
|   |   |   |   bin2 <= 1: YES (6.0)
|   |   |   |   bin2 > 1: NO (5.0/1.0)
|   |   bin4 > 5
|   |   |   bin254 <= 3
|   |   |   |   bin250 <= 2: YES (7.0/2.0)
|   |   |   |   bin250 > 2: NO (3.0)
|   |   |   bin254 > 3: YES (12.0)
|   bin162 > 24: NO (30.0/1.0)
bin11 > 62: YES (16.0/1.0)

Number of Leaves  : 	8

Size of the tree : 	15
J48 pruned tree
------------------

bin192 <= 79
|   bin4 <= 5
|   |   bin250 <= 7: NO (15.0)
|   |   bin250 > 7
|   |   |   bin13 <= 15
|   |   |   |   bin13 <= 2
|   |   |   |   |   bin2 <= 0: NO (2.0)
|   |   |   |   |   bin2 > 0: YES (4.0)
|   |   |   |   bin13 > 2: NO (6.0)
|   |   |   bin13 > 15: YES (4.0)
|   bin4 > 5
|   |   bin163 <= 26
|   |   |   bin235 <= 3
|   |   |   |   bin210 <= 3: YES (10.0/2.0)
|   |   |   |   bin210 > 3: NO (3.0)
|   |   |   bin235 > 3: YES (20.0)
|   |   bin163 > 26
|   |   |   bin177 <= 40: NO (10.0/1.0)
|   |   |   bin177 > 40: YES (3.0)
bin192 > 79: NO (13.0)

Number of Leaves  : 	11

Size of the tree : 	21
J48 pruned tree
------------------

bin172 <= 28
|   bin5 <= 9
|   |   bin253 <= 15: NO (14.0)
|   |   bin253 > 15
|   |   |   bin2 <= 1: YES (5.0)
|   |   |   bin2 > 1
|   |   |   |   bin1 <= 9: NO (4.0)
|   |   |   |   bin1 > 9: YES (2.0)
|   bin5 > 9
|   |   bin254 <= 3
|   |   |   bin14 <= 19: NO (4.0)
|   |   |   bin14 > 19: YES (7.0/1.0)
|   |   bin254 > 3: YES (24.0)
bin172 > 28
|   bin22 <= 124: NO (27.0)
|   bin22 > 124: YES (3.0)

Number of Leaves  : 	9

Size of the tree : 	17
J48 pruned tree
------------------

bin11 <= 62
|   bin162 <= 26
|   |   bin4 <= 5
|   |   |   bin6 <= 1
|   |   |   |   bin6 <= 0: NO (2.0)
|   |   |   |   bin6 > 0: YES (6.0/1.0)
|   |   |   bin6 > 1: NO (13.0)
|   |   bin4 > 5
|   |   |   bin255 <= 4
|   |   |   |   bin250 <= 2
|   |   |   |   |   bin151 <= 1: NO (3.0/1.0)
|   |   |   |   |   bin151 > 1: YES (4.0)
|   |   |   |   bin250 > 2: NO (3.0)
|   |   |   bin255 > 4: YES (15.0)
|   bin162 > 26: NO (28.0)
bin11 > 62: YES (16.0/1.0)

Number of Leaves  : 	9

Size of the tree : 	17
J48 pruned tree
------------------

bin192 <= 79
|   bin5 <= 8
|   |   bin250 <= 8: NO (14.0)
|   |   bin250 > 8
|   |   |   bin13 <= 15
|   |   |   |   bin13 <= 2: YES (6.0/1.0)
|   |   |   |   bin13 > 2: NO (5.0)
|   |   |   bin13 > 15: YES (5.0)
|   bin5 > 8
|   |   bin166 <= 29
|   |   |   bin251 <= 2
|   |   |   |   bin250 <= 2: YES (12.0/2.0)
|   |   |   |   bin250 > 2: NO (2.0)
|   |   |   bin251 > 2: YES (27.0)
|   |   bin166 > 29
|   |   |   bin165 <= 44: NO (6.0)
|   |   |   bin165 > 44: YES (3.0)
bin192 > 79: NO (10.0)

Number of Leaves  : 	10

Size of the tree : 	19
J48 pruned tree
------------------

bin196 <= 87
|   bin11 <= 62
|   |   bin246 <= 20
|   |   |   bin4 <= 5
|   |   |   |   bin253 <= 8: NO (12.0)
|   |   |   |   bin253 > 8
|   |   |   |   |   bin2 <= 1: YES (7.0)
|   |   |   |   |   bin2 > 1: NO (5.0/1.0)
|   |   |   bin4 > 5
|   |   |   |   bin10 <= 62: YES (27.0/2.0)
|   |   |   |   bin10 > 62: NO (2.0)
|   |   bin246 > 20: NO (8.0)
|   bin11 > 62: YES (17.0)
bin196 > 87: NO (12.0)

Number of Leaves  : 	8

Size of the tree : 	15
J48 pruned tree
------------------

bin172 <= 28
|   bin240 <= 8
|   |   bin243 <= 7
|   |   |   bin249 <= 3
|   |   |   |   bin1 <= 12: NO (8.0)
|   |   |   |   bin1 > 12
|   |   |   |   |   bin180 <= 9: YES (13.0/2.0)
|   |   |   |   |   bin180 > 9: NO (2.0)
|   |   |   bin249 > 3: YES (16.0)
|   |   bin243 > 7: NO (3.0)
|   bin240 > 8: YES (19.0)
bin172 > 28
|   bin22 <= 124: NO (25.0)
|   bin22 > 124: YES (4.0)

Number of Leaves  : 	8

Size of the tree : 	15
J48 pruned tree
------------------

bin192 <= 79
|   bin5 <= 8
|   |   bin250 <= 8: NO (13.0)
|   |   bin250 > 8
|   |   |   bin14 <= 15
|   |   |   |   bin13 <= 2
|   |   |   |   |   bin2 <= 0: NO (2.0)
|   |   |   |   |   bin2 > 0: YES (5.0)
|   |   |   |   bin13 > 2: NO (5.0)
|   |   |   bin14 > 15: YES (5.0)
|   bin5 > 8
|   |   bin166 <= 29
|   |   |   bin135 <= 3
|   |   |   |   bin133 <= 2: YES (8.0/1.0)
|   |   |   |   bin133 > 2: NO (2.0)
|   |   |   bin135 > 3: YES (30.0)
|   |   bin166 > 29
|   |   |   bin177 <= 40: NO (6.0)
|   |   |   bin177 > 40: YES (3.0)
bin192 > 79: NO (11.0)

Number of Leaves  : 	11

Size of the tree : 	21
J48 pruned tree
------------------

bin172 <= 28
|   bin5 <= 8
|   |   bin251 <= 9: NO (11.0)
|   |   bin251 > 9
|   |   |   bin179 <= 14: YES (10.0/1.0)
|   |   |   bin179 > 14: NO (2.0)
|   bin5 > 8
|   |   bin235 <= 3
|   |   |   bin228 <= 2: YES (14.0/2.0)
|   |   |   bin228 > 2: NO (3.0)
|   |   bin235 > 3: YES (25.0)
bin172 > 28
|   bin22 <= 124: NO (21.0)
|   bin22 > 124: YES (4.0)

Number of Leaves  : 	8

Size of the tree : 	15
Logistic model tree 
------------------

bin221 <= 42: LM_1:2/4 (75)
bin221 > 42: LM_2:2/4 (15)

Number of Leaves  : 	2

Size of the Tree : 	3

LM_1:
Class 0 :
-0.19 + 
[bin4] * 0.01 +
[bin16] * 0.01 +
[bin78] * -0.01 +
[bin165] * -0.01

Class 1 :
0.19 + 
[bin4] * -0.01 +
[bin16] * -0.01 +
[bin78] * 0.01 +
[bin165] * 0.01

LM_2:
Class 0 :
-1.65 + 
[bin16] * 0.01 +
[bin163] * 0    +
[bin165] * -0.01

Class 1 :
1.65 + 
[bin16] * -0.01 +
[bin163] * -0 +
[bin165] * 0.01
Logistic model tree 
------------------

bin11 <= 62
|   bin162 <= 24
|   |   bin4 <= 5: LM_1:39/156 (22)
|   |   bin4 > 5: LM_2:39/156 (22)
|   bin162 > 24: LM_3:39/117 (30)
bin11 > 62: LM_4:39/78 (16)

Number of Leaves  : 	4

Size of the Tree : 	7



LM_1:
Class 0 :
-6.76 + 
[bin1] * 0.01 +
[bin2] * 0.01 +
[bin3] * -0.37 +
[bin7] * 0.01 +
[bin8] * 0.01 +
[bin10] * -0.03 +
[bin11] * -0.02 +
[bin14] * 0.01 +
[bin15] * 0.01 +
[bin16] * 0.02 +
[bin18] * 0.02 +
[bin19] * 0.01 +
[bin20] * 0.01 +
[bin21] * -0.01 +
[bin25] * 0.04 +
[bin27] * 0.01 +
[bin39] * -0.03 +
[bin42] * -0.03 +
[bin65] * -0.01 +
[bin89] * -0.01 +
[bin90] * -0.04 +
[bin112] * 0.01 +
[bin132] * -0 +
[bin146] * 0.04 +
[bin151] * 0.02 +
[bin160] * -0.03 +
[bin165] * -0.01 +
[bin175] * -0.06 +
[bin177] * 0    +
[bin181] * -0.04 +
[bin192] * -0 +
[bin196] * -0.01 +
[bin215] * -0.01 +
[bin221] * -0 +
[bin223] * -0.01 +
[bin230] * -0.01 +
[bin231] * -0.01 +
[bin232] * 0.01 +
[bin233] * 0.01 +
[bin234] * 0.26 +
[bin236] * 0    +
[bin238] * 0    +
[bin243] * -0.02 +
[bin244] * -0.1 +
[bin248] * -0 +
[bin249] * -0.01 +
[bin252] * 0.03 +
[bin253] * 0.06 +
[bin255] * 0.18 +
[bin256] * 0.01

Class 1 :
6.76 + 
[bin1] * -0.01 +
[bin2] * -0.01 +
[bin3] * 0.37 +
[bin7] * -0.01 +
[bin8] * -0.01 +
[bin10] * 0.03 +
[bin11] * 0.02 +
[bin14] * -0.01 +
[bin15] * -0.01 +
[bin16] * -0.02 +
[bin18] * -0.02 +
[bin19] * -0.01 +
[bin20] * -0.01 +
[bin21] * 0.01 +
[bin25] * -0.04 +
[bin27] * -0.01 +
[bin39] * 0.03 +
[bin42] * 0.03 +
[bin65] * 0.01 +
[bin89] * 0.01 +
[bin90] * 0.04 +
[bin112] * -0.01 +
[bin132] * 0    +
[bin146] * -0.04 +
[bin151] * -0.02 +
[bin160] * 0.03 +
[bin165] * 0.01 +
[bin175] * 0.06 +
[bin177] * -0 +
[bin181] * 0.04 +
[bin192] * 0    +
[bin196] * 0.01 +
[bin215] * 0.01 +
[bin221] * 0    +
[bin223] * 0.01 +
[bin230] * 0.01 +
[bin231] * 0.01 +
[bin232] * -0.01 +
[bin233] * -0.01 +
[bin234] * -0.26 +
[bin236] * -0 +
[bin238] * -0 +
[bin243] * 0.02 +
[bin244] * 0.1  +
[bin248] * 0    +
[bin249] * 0.01 +
[bin252] * -0.03 +
[bin253] * -0.06 +
[bin255] * -0.18 +
[bin256] * -0.01

LM_2:
Class 0 :
-1.58 + 
[bin1] * 0.01 +
[bin2] * 0.02 +
[bin4] * -0.01 +
[bin7] * 0.01 +
[bin8] * 0.01 +
[bin10] * -0.03 +
[bin11] * -0.03 +
[bin16] * 0.02 +
[bin18] * 0.02 +
[bin20] * 0.01 +
[bin21] * -0.01 +
[bin25] * 0.03 +
[bin30] * 0.06 +
[bin39] * -0.03 +
[bin42] * -0.03 +
[bin65] * -0.01 +
[bin85] * 0.02 +
[bin89] * -0.01 +
[bin112] * 0.01 +
[bin119] * -0.04 +
[bin132] * -0 +
[bin146] * 0.04 +
[bin151] * 0.02 +
[bin165] * -0.01 +
[bin175] * -0.06 +
[bin177] * 0    +
[bin181] * -0.04 +
[bin190] * -0.13 +
[bin192] * -0 +
[bin196] * -0.06 +
[bin215] * -0.01 +
[bin218] * -0.05 +
[bin221] * -0 +
[bin223] * -0.15 +
[bin230] * -0.01 +
[bin231] * -0.01 +
[bin232] * 0.01 +
[bin233] * 0.01 +
[bin234] * 0.65 +
[bin236] * 0    +
[bin238] * 0    +
[bin243] * -0.02 +
[bin244] * -0.05 +
[bin248] * -0 +
[bin249] * -0.01 +
[bin250] * -0.3 +
[bin252] * -0.29 +
[bin253] * 0.01 +
[bin254] * 0.16 +
[bin255] * 0.04 +
[bin256] * 0.09

Class 1 :
1.58 + 
[bin1] * -0.01 +
[bin2] * -0.02 +
[bin4] * 0.01 +
[bin7] * -0.01 +
[bin8] * -0.01 +
[bin10] * 0.03 +
[bin11] * 0.03 +
[bin16] * -0.02 +
[bin18] * -0.02 +
[bin20] * -0.01 +
[bin21] * 0.01 +
[bin25] * -0.03 +
[bin30] * -0.06 +
[bin39] * 0.03 +
[bin42] * 0.03 +
[bin65] * 0.01 +
[bin85] * -0.02 +
[bin89] * 0.01 +
[bin112] * -0.01 +
[bin119] * 0.04 +
[bin132] * 0    +
[bin146] * -0.04 +
[bin151] * -0.02 +
[bin165] * 0.01 +
[bin175] * 0.06 +
[bin177] * -0 +
[bin181] * 0.04 +
[bin190] * 0.13 +
[bin192] * 0    +
[bin196] * 0.06 +
[bin215] * 0.01 +
[bin218] * 0.05 +
[bin221] * 0    +
[bin223] * 0.15 +
[bin230] * 0.01 +
[bin231] * 0.01 +
[bin232] * -0.01 +
[bin233] * -0.01 +
[bin234] * -0.65 +
[bin236] * -0 +
[bin238] * -0 +
[bin243] * 0.02 +
[bin244] * 0.05 +
[bin248] * 0    +
[bin249] * 0.01 +
[bin250] * 0.3  +
[bin252] * 0.29 +
[bin253] * -0.01 +
[bin254] * -0.16 +
[bin255] * -0.04 +
[bin256] * -0.09

LM_3:
Class 0 :
-43.68 + 
[bin1] * 0.01 +
[bin2] * 0.01 +
[bin7] * 0.01 +
[bin10] * -0.03 +
[bin11] * -0.02 +
[bin16] * 0.01 +
[bin18] * 0.02 +
[bin20] * 0.01 +
[bin21] * -0.01 +
[bin22] * 0.2  +
[bin23] * 0.11 +
[bin24] * 0.07 +
[bin25] * 0.02 +
[bin42] * -0.03 +
[bin65] * -0.01 +
[bin112] * 0.01 +
[bin132] * -0 +
[bin149] * 0.01 +
[bin165] * -0.01 +
[bin166] * 0.06 +
[bin173] * 0.01 +
[bin177] * 0    +
[bin192] * -0 +
[bin196] * -0.01 +
[bin215] * -0.01 +
[bin221] * -0 +
[bin230] * -0.01 +
[bin231] * -0.01 +
[bin232] * 0.01 +
[bin233] * 0.01 +
[bin236] * 0    +
[bin238] * 0    +
[bin244] * -0.01 +
[bin248] * -0 +
[bin249] * -0.01 +
[bin253] * 0.01 +
[bin255] * 0.01 +
[bin256] * 0.01

Class 1 :
30.55 + 
[bin1] * -0.01 +
[bin2] * 0.03 +
[bin3] * 0.03 +
[bin5] * 0.02 +
[bin7] * -0.01 +
[bin10] * 0.03 +
[bin11] * 0.02 +
[bin12] * 0.03 +
[bin15] * 0.07 +
[bin16] * -0.01 +
[bin18] * -0.02 +
[bin20] * -0.01 +
[bin21] * 0.01 +
[bin22] * -0.19 +
[bin23] * -0.08 +
[bin24] * -0.01 +
[bin25] * -0.02 +
[bin37] * -0.05 +
[bin42] * 0.03 +
[bin65] * 0.01 +
[bin112] * -0.01 +
[bin132] * 0    +
[bin165] * 0.01 +
[bin166] * -0.06 +
[bin173] * -0.01 +
[bin177] * -0 +
[bin182] * -0.01 +
[bin192] * 0    +
[bin196] * 0.01 +
[bin215] * 0.01 +
[bin221] * 0    +
[bin230] * 0.01 +
[bin231] * 0.01 +
[bin232] * -0.01 +
[bin233] * -0.01 +
[bin236] * -0 +
[bin238] * -0 +
[bin244] * 0.01 +
[bin248] * 0    +
[bin249] * 0.01 +
[bin253] * -0.01 +
[bin255] * -0.01 +
[bin256] * 0.01

LM_4:
Class 0 :
40.57 + 
[bin1] * -0.08 +
[bin2] * -0.07 +
[bin11] * -0.11 +
[bin16] * 0.01 +
[bin17] * -0.04 +
[bin20] * 0.01 +
[bin21] * -0 +
[bin25] * 0.01 +
[bin42] * -0.01 +
[bin58] * -0.03 +
[bin60] * -0.08 +
[bin65] * -0.01 +
[bin112] * 0.01 +
[bin132] * -0 +
[bin165] * -0.01 +
[bin177] * 0    +
[bin192] * -0 +
[bin196] * -0.01 +
[bin215] * -0.01 +
[bin221] * -0 +
[bin232] * 0.01 +
[bin233] * 0.01 +
[bin236] * 0    +
[bin238] * 0    +
[bin248] * -0 +
[bin249] * -0.01 +
[bin252] * 0.03 +
[bin253] * 0.01 +
[bin256] * 0   

Class 1 :
-40.57 + 
[bin1] * 0.08 +
[bin2] * 0.07 +
[bin11] * 0.11 +
[bin16] * -0.01 +
[bin17] * 0.04 +
[bin20] * -0.01 +
[bin21] * 0    +
[bin25] * -0.01 +
[bin42] * 0.01 +
[bin58] * 0.03 +
[bin60] * 0.08 +
[bin65] * 0.01 +
[bin112] * -0.01 +
[bin132] * 0    +
[bin165] * 0.01 +
[bin177] * -0 +
[bin192] * 0    +
[bin196] * 0.01 +
[bin215] * 0.01 +
[bin221] * 0    +
[bin232] * -0.01 +
[bin233] * -0.01 +
[bin236] * -0 +
[bin238] * -0 +
[bin248] * 0    +
[bin249] * 0.01 +
[bin252] * -0.03 +
[bin253] * -0.01 +
[bin256] * -0
Logistic model tree 
------------------
: LM_1:3/3 (90)

Number of Leaves  : 	1

Size of the Tree : 	1
LM_1:
Class 0 :
-0.5 + 
[bin9] * 0.01 +
[bin193] * -0.01 +
[bin256] * 0   

Class 1 :
0.5  + 
[bin9] * -0.01 +
[bin193] * 0.01 +
[bin256] * -0
Logistic model tree 
------------------
: LM_1:6/6 (90)

Number of Leaves  : 	1

Size of the Tree : 	1
LM_1:
Class 0 :
-0.84 + 
[bin1] * 0    +
[bin16] * 0.01 +
[bin19] * 0    +
[bin165] * -0.01 +
[bin221] * -0.01 +
[bin256] * 0   

Class 1 :
0.84 + 
[bin1] * -0 +
[bin16] * -0.01 +
[bin19] * -0 +
[bin165] * 0.01 +
[bin221] * 0.01 +
[bin256] * -0
Logistic model tree 
------------------

bin11 <= 62
|   bin162 <= 26
|   |   bin4 <= 5: LM_1:36/144 (21)
|   |   bin4 > 5: LM_2:36/144 (25)
|   bin162 > 26: LM_3:35/107 (28)
bin11 > 62: LM_4:36/72 (16)

Number of Leaves  : 	4

Size of the Tree : 	7



LM_1:
Class 0 :
-4.37 + 
[bin1] * 0.01 +
[bin2] * 0.02 +
[bin3] * -0.05 +
[bin4] * -0.72 +
[bin6] * -0.01 +
[bin9] * 0.02 +
[bin16] * 0.02 +
[bin20] * -0.05 +
[bin25] * 0.01 +
[bin27] * 0.03 +
[bin39] * -0 +
[bin60] * 0.01 +
[bin77] * -0 +
[bin119] * -0.06 +
[bin132] * -0.01 +
[bin137] * -0.01 +
[bin138] * -0.14 +
[bin144] * 0.04 +
[bin146] * 0.04 +
[bin153] * -0.06 +
[bin165] * -0.06 +
[bin166] * -0.01 +
[bin168] * -0.01 +
[bin172] * -0.01 +
[bin181] * -0.08 +
[bin192] * -0.02 +
[bin207] * 0.01 +
[bin210] * 0.01 +
[bin221] * -0.01 +
[bin222] * -0.03 +
[bin225] * -0.01 +
[bin226] * -0.01 +
[bin232] * 0.03 +
[bin234] * 0.04 +
[bin236] * 0.01 +
[bin244] * -0.01 +
[bin247] * -0 +
[bin249] * -0 +
[bin253] * 0.01 +
[bin255] * 0.16 +
[bin256] * 0.02

Class 1 :
4.37 + 
[bin1] * -0.01 +
[bin2] * -0.02 +
[bin3] * 0.05 +
[bin4] * 0.72 +
[bin6] * 0.01 +
[bin9] * -0.02 +
[bin16] * -0.02 +
[bin20] * 0.05 +
[bin25] * -0.01 +
[bin27] * -0.03 +
[bin39] * 0    +
[bin60] * -0.01 +
[bin77] * 0    +
[bin119] * 0.06 +
[bin132] * 0.01 +
[bin137] * 0.01 +
[bin138] * 0.14 +
[bin144] * -0.04 +
[bin146] * -0.04 +
[bin153] * 0.06 +
[bin165] * 0.06 +
[bin166] * 0.01 +
[bin168] * 0.01 +
[bin172] * 0.01 +
[bin181] * 0.08 +
[bin192] * 0.02 +
[bin207] * -0.01 +
[bin210] * -0.01 +
[bin221] * 0.01 +
[bin222] * 0.03 +
[bin225] * 0.01 +
[bin226] * 0.01 +
[bin232] * -0.03 +
[bin234] * -0.04 +
[bin236] * -0.01 +
[bin244] * 0.01 +
[bin247] * 0    +
[bin249] * 0    +
[bin253] * -0.01 +
[bin255] * -0.16 +
[bin256] * -0.02

LM_2:
Class 0 :
-2.71 + 
[bin1] * 0.01 +
[bin2] * 0.02 +
[bin4] * -0.02 +
[bin6] * -0.01 +
[bin9] * 0.02 +
[bin16] * 0.02 +
[bin20] * -0.05 +
[bin25] * 0.01 +
[bin27] * 0.01 +
[bin39] * -0 +
[bin60] * 0.01 +
[bin67] * 0.03 +
[bin69] * 0.07 +
[bin77] * -0 +
[bin124] * -0.09 +
[bin132] * -0.01 +
[bin137] * -0.01 +
[bin144] * 0.04 +
[bin146] * 0.04 +
[bin166] * -0.01 +
[bin168] * -0.01 +
[bin172] * -0.01 +
[bin181] * -0.08 +
[bin190] * -0.05 +
[bin192] * -0.02 +
[bin196] * -0.11 +
[bin207] * 0.01 +
[bin210] * 0.01 +
[bin221] * -0.01 +
[bin222] * -0.03 +
[bin223] * -0.1 +
[bin225] * -0.01 +
[bin226] * -0.01 +
[bin232] * 0.03 +
[bin234] * 0.04 +
[bin235] * 0.52 +
[bin236] * 0.01 +
[bin244] * -0.01 +
[bin247] * -0 +
[bin249] * -0 +
[bin250] * -0.45 +
[bin253] * 0.01 +
[bin254] * 0.2  +
[bin255] * 0.03 +
[bin256] * 0.04

Class 1 :
2.71 + 
[bin1] * -0.01 +
[bin2] * -0.02 +
[bin4] * 0.02 +
[bin6] * 0.01 +
[bin9] * -0.02 +
[bin16] * -0.02 +
[bin20] * 0.05 +
[bin25] * -0.01 +
[bin27] * -0.01 +
[bin39] * 0    +
[bin60] * -0.01 +
[bin67] * -0.03 +
[bin69] * -0.07 +
[bin77] * 0    +
[bin124] * 0.09 +
[bin132] * 0.01 +
[bin137] * 0.01 +
[bin144] * -0.04 +
[bin146] * -0.04 +
[bin166] * 0.01 +
[bin168] * 0.01 +
[bin172] * 0.01 +
[bin181] * 0.08 +
[bin190] * 0.05 +
[bin192] * 0.02 +
[bin196] * 0.11 +
[bin207] * -0.01 +
[bin210] * -0.01 +
[bin221] * 0.01 +
[bin222] * 0.03 +
[bin223] * 0.1  +
[bin225] * 0.01 +
[bin226] * 0.01 +
[bin232] * -0.03 +
[bin234] * -0.04 +
[bin235] * -0.52 +
[bin236] * -0.01 +
[bin244] * 0.01 +
[bin247] * 0    +
[bin249] * 0    +
[bin250] * 0.45 +
[bin253] * -0.01 +
[bin254] * -0.2 +
[bin255] * -0.03 +
[bin256] * -0.04

LM_3:
Class 0 :
-19.33 + 
[bin1] * 0.01 +
[bin2] * 0.01 +
[bin4] * -0 +
[bin6] * -0.01 +
[bin9] * 0.01 +
[bin16] * 0.02 +
[bin20] * -0.03 +
[bin25] * 0.01 +
[bin27] * 0.01 +
[bin39] * -0 +
[bin60] * 0.01 +
[bin77] * -0 +
[bin132] * -0.01 +
[bin137] * -0.01 +
[bin166] * -0.01 +
[bin168] * -0.01 +
[bin172] * -0.01 +
[bin181] * -0.02 +
[bin192] * -0.02 +
[bin210] * 0.01 +
[bin221] * -0.01 +
[bin225] * -0.01 +
[bin226] * -0.01 +
[bin232] * 0.03 +
[bin236] * 0.01 +
[bin247] * -0 +
[bin249] * -0 +
[bin253] * 0.01 +
[bin255] * 0.02 +
[bin256] * 0.01

Class 1 :
19.33 + 
[bin1] * -0.01 +
[bin2] * -0.01 +
[bin4] * 0    +
[bin6] * 0.01 +
[bin9] * -0.01 +
[bin16] * -0.02 +
[bin20] * 0.03 +
[bin25] * -0.01 +
[bin27] * -0.01 +
[bin39] * 0    +
[bin60] * -0.01 +
[bin77] * 0    +
[bin132] * 0.01 +
[bin137] * 0.01 +
[bin166] * 0.01 +
[bin168] * 0.01 +
[bin172] * 0.01 +
[bin181] * 0.02 +
[bin192] * 0.02 +
[bin210] * -0.01 +
[bin221] * 0.01 +
[bin225] * 0.01 +
[bin226] * 0.01 +
[bin232] * -0.03 +
[bin236] * -0.01 +
[bin247] * 0    +
[bin249] * 0    +
[bin253] * -0.01 +
[bin255] * -0.02 +
[bin256] * -0.01

LM_4:
Class 0 :
22.03 + 
[bin1] * 0    +
[bin2] * -0.04 +
[bin6] * -0 +
[bin9] * 0.01 +
[bin11] * -0.02 +
[bin16] * 0.01 +
[bin27] * 0.01 +
[bin50] * -0.01 +
[bin59] * -0.02 +
[bin60] * -0.05 +
[bin77] * -0 +
[bin132] * -0.01 +
[bin166] * -0.01 +
[bin168] * -0.01 +
[bin172] * -0.01 +
[bin192] * -0.02 +
[bin221] * -0.01 +
[bin232] * 0.03 +
[bin236] * 0.01 +
[bin247] * -0 +
[bin249] * -0 +
[bin252] * 0.04 +
[bin253] * 0.28 +
[bin255] * -0.48 +
[bin256] * 0   

Class 1 :
-22.03 + 
[bin1] * -0 +
[bin2] * 0.04 +
[bin6] * 0    +
[bin9] * -0.01 +
[bin11] * 0.02 +
[bin16] * -0.01 +
[bin27] * -0.01 +
[bin50] * 0.01 +
[bin59] * 0.02 +
[bin60] * 0.05 +
[bin77] * 0    +
[bin132] * 0.01 +
[bin166] * 0.01 +
[bin168] * 0.01 +
[bin172] * 0.01 +
[bin192] * 0.02 +
[bin221] * 0.01 +
[bin232] * -0.03 +
[bin236] * -0.01 +
[bin247] * 0    +
[bin249] * 0    +
[bin252] * -0.04 +
[bin253] * -0.28 +
[bin255] * 0.48 +
[bin256] * -0
Logistic model tree 
------------------
: LM_1:6/6 (90)

Number of Leaves  : 	1

Size of the Tree : 	1
LM_1:
Class 0 :
-0.46 + 
[bin1] * 0    +
[bin11] * 0.01 +
[bin16] * 0    +
[bin72] * -0.01 +
[bin193] * -0.01 +
[bin256] * 0   

Class 1 :
0.46 + 
[bin1] * -0 +
[bin11] * -0.01 +
[bin16] * -0 +
[bin72] * 0.01 +
[bin193] * 0.01 +
[bin256] * -0
Logistic model tree 
------------------
: LM_1:4/4 (90)

Number of Leaves  : 	1

Size of the Tree : 	1
LM_1:
Class 0 :
0.03 + 
[bin2] * 0.01 +
[bin18] * 0.01 +
[bin132] * -0.01 +
[bin196] * -0.01

Class 1 :
-0.03 + 
[bin2] * -0.01 +
[bin18] * -0.01 +
[bin132] * 0.01 +
[bin196] * 0.01
Logistic model tree 
------------------
: LM_1:6/6 (90)

Number of Leaves  : 	1

Size of the Tree : 	1
LM_1:
Class 0 :
-0.44 + 
[bin1] * 0    +
[bin18] * 0.01 +
[bin27] * 0    +
[bin165] * -0.01 +
[bin221] * -0.01 +
[bin256] * 0   

Class 1 :
0.44 + 
[bin1] * -0 +
[bin18] * -0.01 +
[bin27] * -0 +
[bin165] * 0.01 +
[bin221] * 0.01 +
[bin256] * -0
Logistic model tree 
------------------
: LM_1:3/3 (90)

Number of Leaves  : 	1

Size of the Tree : 	1
LM_1:
Class 0 :
-0.11 + 
[bin4] * 0.01 +
[bin16] * 0.01 +
[bin165] * -0.01

Class 1 :
0.11 + 
[bin4] * -0.01 +
[bin16] * -0.01 +
[bin165] * 0.01
Logistic model tree 
------------------
: LM_1:2/2 (90)

Number of Leaves  : 	1

Size of the Tree : 	1
LM_1:
Class 0 :
0.08 + 
[bin11] * 0.01 +
[bin165] * -0.01

Class 1 :
-0.08 + 
[bin11] * -0.01 +
[bin165] * 0.01

RandomTree
==========

bin167 < 27.5
|   bin26 < 17.5
|   |   bin8 < 6.5 : NO (9/0)
|   |   bin8 >= 6.5
|   |   |   bin60 < 10
|   |   |   |   bin33 < 2 : NO (1/0)
|   |   |   |   bin33 >= 2
|   |   |   |   |   bin170 < 2.5 : YES (6/0)
|   |   |   |   |   bin170 >= 2.5
|   |   |   |   |   |   bin99 < 4.5
|   |   |   |   |   |   |   bin7 < 16.5 : NO (1/0)
|   |   |   |   |   |   |   bin7 >= 16.5 : YES (1/0)
|   |   |   |   |   |   bin99 >= 4.5 : YES (2/0)
|   |   |   bin60 >= 10 : NO (5/0)
|   bin26 >= 17.5
|   |   bin13 < 21.5
|   |   |   bin36 < 48
|   |   |   |   bin251 < 4 : NO (2/0)
|   |   |   |   bin251 >= 4 : YES (4/0)
|   |   |   bin36 >= 48 : NO (2/0)
|   |   bin13 >= 21.5
|   |   |   bin213 < 4.5
|   |   |   |   bin121 < 8 : YES (4/0)
|   |   |   |   bin121 >= 8
|   |   |   |   |   bin8 < 72.5 : NO (3/0)
|   |   |   |   |   bin8 >= 72.5 : YES (1/0)
|   |   |   bin213 >= 4.5 : YES (19/0)
bin167 >= 27.5
|   bin14 < 26.5 : NO (20/0)
|   bin14 >= 26.5
|   |   bin199 < 36 : NO (5/0)
|   |   bin199 >= 36
|   |   |   bin21 < 67.5 : NO (2/0)
|   |   |   bin21 >= 67.5 : YES (3/0)

Size of the tree : 35
RandomTree
==========

bin167 < 27.5
|   bin133 < 54
|   |   bin8 < 7.5
|   |   |   bin246 < 4 : NO (6/0)
|   |   |   bin246 >= 4
|   |   |   |   bin96 < 9.5
|   |   |   |   |   bin12 < 2.5 : YES (4/0)
|   |   |   |   |   bin12 >= 2.5
|   |   |   |   |   |   bin99 < 6.5 : NO (1/0)
|   |   |   |   |   |   bin99 >= 6.5 : YES (1/0)
|   |   |   |   bin96 >= 9.5
|   |   |   |   |   bin7 < 2
|   |   |   |   |   |   bin13 < 0.5 : NO (1/0)
|   |   |   |   |   |   bin13 >= 0.5
|   |   |   |   |   |   |   bin41 < 57.5 : YES (2/0)
|   |   |   |   |   |   |   bin41 >= 57.5 : NO (1/0)
|   |   |   |   |   bin7 >= 2 : NO (3/0)
|   |   bin8 >= 7.5
|   |   |   bin251 < 8.5
|   |   |   |   bin245 < 4.5
|   |   |   |   |   bin83 < 14.5
|   |   |   |   |   |   bin8 < 128.5
|   |   |   |   |   |   |   bin223 < 14.5
|   |   |   |   |   |   |   |   bin250 < 3.5 : YES (9/0)
|   |   |   |   |   |   |   |   bin250 >= 3.5
|   |   |   |   |   |   |   |   |   bin21 < 21 : NO (1/0)
|   |   |   |   |   |   |   |   |   bin21 >= 21 : YES (1/0)
|   |   |   |   |   |   |   bin223 >= 14.5 : NO (1/0)
|   |   |   |   |   |   bin8 >= 128.5 : NO (1/0)
|   |   |   |   |   bin83 >= 14.5 : NO (5/0)
|   |   |   |   bin245 >= 4.5 : YES (6/0)
|   |   |   bin251 >= 8.5 : YES (13/0)
|   bin133 >= 54 : NO (3/0)
bin167 >= 27.5
|   bin14 < 70.5
|   |   bin25 < 89 : NO (26/0)
|   |   bin25 >= 89 : YES (1/0)
|   bin14 >= 70.5
|   |   bin42 < 147 : YES (3/0)
|   |   bin42 >= 147 : NO (1/0)

Size of the tree : 41
RandomTree
==========

bin163 < 27
|   bin2 < 6
|   |   bin208 < 3.5 : NO (6/0)
|   |   bin208 >= 3.5
|   |   |   bin180 < 5.5 : YES (3/0)
|   |   |   bin180 >= 5.5
|   |   |   |   bin255 < 12 : NO (5/0)
|   |   |   |   bin255 >= 12
|   |   |   |   |   bin26 < 21.5 : NO (4/0)
|   |   |   |   |   bin26 >= 21.5
|   |   |   |   |   |   bin100 < 66.5 : YES (5/0)
|   |   |   |   |   |   bin100 >= 66.5 : NO (1/0)
|   bin2 >= 6
|   |   bin246 < 3.5
|   |   |   bin103 < 13
|   |   |   |   bin30 < 2.5 : NO (1/0)
|   |   |   |   bin30 >= 2.5
|   |   |   |   |   bin119 < 8
|   |   |   |   |   |   bin245 < 2.5 : YES (7/0)
|   |   |   |   |   |   bin245 >= 2.5
|   |   |   |   |   |   |   bin3 < 19 : YES (1/0)
|   |   |   |   |   |   |   bin3 >= 19
|   |   |   |   |   |   |   |   bin2 < 42 : NO (1/0)
|   |   |   |   |   |   |   |   bin2 >= 42 : YES (1/0)
|   |   |   |   |   bin119 >= 8 : NO (1/0)
|   |   |   bin103 >= 13 : NO (3/0)
|   |   bin246 >= 3.5 : YES (18/0)
bin163 >= 27
|   bin21 < 67 : NO (27/0)
|   bin21 >= 67
|   |   bin50 < 148.5 : YES (5/0)
|   |   bin50 >= 148.5 : NO (1/0)

Size of the tree : 33
RandomTree
==========

bin163 < 27
|   bin2 < 6
|   |   bin16 < 22.5
|   |   |   bin59 < 2 : YES (1/0)
|   |   |   bin59 >= 2
|   |   |   |   bin255 < 30.5 : NO (12/0)
|   |   |   |   bin255 >= 30.5
|   |   |   |   |   bin62 < 20 : YES (2/0)
|   |   |   |   |   bin62 >= 20 : NO (2/0)
|   |   bin16 >= 22.5
|   |   |   bin136 < 8.5 : NO (2/0)
|   |   |   bin136 >= 8.5 : YES (6/0)
|   bin2 >= 6
|   |   bin246 < 3.5
|   |   |   bin103 < 13
|   |   |   |   bin30 < 15.5
|   |   |   |   |   bin69 < 3.5
|   |   |   |   |   |   bin61 < 1.5 : NO (1/0)
|   |   |   |   |   |   bin61 >= 1.5 : YES (4/0)
|   |   |   |   |   bin69 >= 3.5 : NO (2/0)
|   |   |   |   bin30 >= 15.5 : YES (5/0)
|   |   |   bin103 >= 13 : NO (3/0)
|   |   bin246 >= 3.5 : YES (18/0)
bin163 >= 27
|   bin113 < 57.5 : NO (18/0)
|   bin113 >= 57.5
|   |   bin31 < 62.5 : NO (10/0)
|   |   bin31 >= 62.5 : YES (4/0)

Size of the tree : 29
RandomTree
==========

bin163 < 27
|   bin2 < 6
|   |   bin70 < 30
|   |   |   bin248 < 4.5 : NO (8/0)
|   |   |   bin248 >= 4.5
|   |   |   |   bin6 < 1.5
|   |   |   |   |   bin62 < 20 : YES (4/0)
|   |   |   |   |   bin62 >= 20 : NO (1/0)
|   |   |   |   bin6 >= 1.5 : NO (6/0)
|   |   bin70 >= 30
|   |   |   bin15 < 16 : NO (1/0)
|   |   |   bin15 >= 16 : YES (4/0)
|   bin2 >= 6
|   |   bin246 < 3.5
|   |   |   bin103 < 13
|   |   |   |   bin154 < 1.5
|   |   |   |   |   bin25 < 3 : NO (1/0)
|   |   |   |   |   bin25 >= 3
|   |   |   |   |   |   bin16 < 9 : YES (1/0)
|   |   |   |   |   |   bin16 >= 9 : NO (1/0)
|   |   |   |   bin154 >= 1.5
|   |   |   |   |   bin3 < 31.5
|   |   |   |   |   |   bin2 < 25 : YES (3/0)
|   |   |   |   |   |   bin2 >= 25 : NO (1/0)
|   |   |   |   |   bin3 >= 31.5 : YES (7/0)
|   |   |   bin103 >= 13 : NO (3/0)
|   |   bin246 >= 3.5 : YES (17/0)
bin163 >= 27
|   bin14 < 70.5 : NO (27/0)
|   bin14 >= 70.5
|   |   bin50 < 148.5 : YES (4/0)
|   |   bin50 >= 148.5 : NO (1/0)

Size of the tree : 33
RandomTree
==========

bin163 < 27
|   bin2 < 9.5
|   |   bin208 < 3.5 : NO (7/0)
|   |   bin208 >= 3.5
|   |   |   bin248 < 3.5 : NO (3/0)
|   |   |   bin248 >= 3.5
|   |   |   |   bin201 < 6.5 : YES (6/0)
|   |   |   |   bin201 >= 6.5
|   |   |   |   |   bin145 < 6.5 : NO (2/0)
|   |   |   |   |   bin145 >= 6.5
|   |   |   |   |   |   bin15 < 16
|   |   |   |   |   |   |   bin227 < 12 : NO (2/0)
|   |   |   |   |   |   |   bin227 >= 12 : YES (2/0)
|   |   |   |   |   |   bin15 >= 16 : YES (5/0)
|   bin2 >= 9.5
|   |   bin255 < 2.5
|   |   |   bin2 < 67.5
|   |   |   |   bin25 < 3 : NO (1/0)
|   |   |   |   bin25 >= 3 : YES (9/0)
|   |   |   bin2 >= 67.5
|   |   |   |   bin16 < 9 : YES (1/0)
|   |   |   |   bin16 >= 9 : NO (3/0)
|   |   bin255 >= 2.5 : YES (22/0)
bin163 >= 27
|   bin69 < 44.5 : NO (14/0)
|   bin69 >= 44.5
|   |   bin31 < 62.5 : NO (7/0)
|   |   bin31 >= 62.5
|   |   |   bin146 < 41.5 : NO (1/0)
|   |   |   bin146 >= 41.5 : YES (5/0)

Size of the tree : 31
RandomTree
==========

bin14 < 18.5
|   bin122 < 32.5
|   |   bin4 < 10
|   |   |   bin248 < 4.5 : NO (6/0)
|   |   |   bin248 >= 4.5
|   |   |   |   bin6 < 1.5
|   |   |   |   |   bin62 < 20 : YES (4/0)
|   |   |   |   |   bin62 >= 20 : NO (1/0)
|   |   |   |   bin6 >= 1.5
|   |   |   |   |   bin15 < 2.5 : YES (1/0)
|   |   |   |   |   bin15 >= 2.5 : NO (5/0)
|   |   bin4 >= 10
|   |   |   bin227 < 4.5
|   |   |   |   bin255 < 7.5
|   |   |   |   |   bin2 < 19.5 : YES (2/0)
|   |   |   |   |   bin2 >= 19.5
|   |   |   |   |   |   bin25 < 5
|   |   |   |   |   |   |   bin16 < 7 : YES (1/0)
|   |   |   |   |   |   |   bin16 >= 7 : NO (1/0)
|   |   |   |   |   |   bin25 >= 5 : NO (2/0)
|   |   |   |   bin255 >= 7.5 : YES (2/0)
|   |   |   bin227 >= 4.5 : YES (5/0)
|   bin122 >= 32.5 : NO (16/0)
bin14 >= 18.5
|   bin180 < 27.5
|   |   bin210 < 4.5
|   |   |   bin14 < 38.5 : YES (6/0)
|   |   |   bin14 >= 38.5
|   |   |   |   bin21 < 85.5 : NO (3/0)
|   |   |   |   bin21 >= 85.5 : YES (1/0)
|   |   bin210 >= 4.5 : YES (22/0)
|   bin180 >= 27.5
|   |   bin31 < 62.5
|   |   |   bin2 < 49.5 : NO (5/0)
|   |   |   bin2 >= 49.5
|   |   |   |   bin47 < 25.5 : NO (1/0)
|   |   |   |   bin47 >= 25.5 : YES (1/0)
|   |   bin31 >= 62.5 : YES (5/0)

Size of the tree : 39
RandomTree
==========

bin163 < 27
|   bin2 < 2.5
|   |   bin211 < 3.5 : NO (5/0)
|   |   bin211 >= 3.5
|   |   |   bin180 < 5.5 : YES (4/0)
|   |   |   bin180 >= 5.5
|   |   |   |   bin126 < 19.5 : NO (3/0)
|   |   |   |   bin126 >= 19.5
|   |   |   |   |   bin26 < 15.5 : NO (1/0)
|   |   |   |   |   bin26 >= 15.5
|   |   |   |   |   |   bin100 < 66.5 : YES (4/0)
|   |   |   |   |   |   bin100 >= 66.5 : NO (1/0)
|   bin2 >= 2.5
|   |   bin246 < 3.5
|   |   |   bin103 < 13
|   |   |   |   bin229 < 9.5
|   |   |   |   |   bin158 < 2.5 : YES (8/0)
|   |   |   |   |   bin158 >= 2.5
|   |   |   |   |   |   bin16 < 10 : NO (1/0)
|   |   |   |   |   |   bin16 >= 10 : YES (5/0)
|   |   |   |   bin229 >= 9.5 : NO (1/0)
|   |   |   bin103 >= 13 : NO (3/0)
|   |   bin246 >= 3.5 : YES (24/0)
bin163 >= 27
|   bin69 < 44.5 : NO (15/0)
|   bin69 >= 44.5
|   |   bin31 < 62.5 : NO (9/0)
|   |   bin31 >= 62.5
|   |   |   bin146 < 41.5 : NO (1/0)
|   |   |   bin146 >= 41.5 : YES (5/0)

Size of the tree : 31
RandomTree
==========

bin163 < 27
|   bin2 < 9.5
|   |   bin208 < 3.5 : NO (6/0)
|   |   bin208 >= 3.5
|   |   |   bin178 < 15.5
|   |   |   |   bin6 < 0.5 : NO (2/0)
|   |   |   |   bin6 >= 0.5
|   |   |   |   |   bin26 < 17
|   |   |   |   |   |   bin15 < 2.5 : YES (2/0)
|   |   |   |   |   |   bin15 >= 2.5
|   |   |   |   |   |   |   bin151 < 4 : YES (1/0)
|   |   |   |   |   |   |   bin151 >= 4 : NO (3/0)
|   |   |   |   |   bin26 >= 17 : YES (10/0)
|   |   |   bin178 >= 15.5 : NO (3/0)
|   bin2 >= 9.5
|   |   bin171 < 3.5
|   |   |   bin30 < 2.5 : NO (1/0)
|   |   |   bin30 >= 2.5
|   |   |   |   bin119 < 3.5 : YES (7/0)
|   |   |   |   bin119 >= 3.5
|   |   |   |   |   bin16 < 17 : NO (2/0)
|   |   |   |   |   bin16 >= 17 : YES (2/0)
|   |   bin171 >= 3.5 : YES (23/0)
bin163 >= 27
|   bin69 < 43.5 : NO (14/0)
|   bin69 >= 43.5
|   |   bin31 < 58 : NO (8/0)
|   |   bin31 >= 58
|   |   |   bin146 < 41.5 : NO (1/0)
|   |   |   bin146 >= 41.5 : YES (5/0)

Size of the tree : 31
RandomTree
==========

bin163 < 27
|   bin2 < 9.5
|   |   bin4 < 5.5
|   |   |   bin248 < 4 : NO (7/0)
|   |   |   bin248 >= 4
|   |   |   |   bin6 < 1.5
|   |   |   |   |   bin99 < 28.5 : YES (6/0)
|   |   |   |   |   bin99 >= 28.5 : NO (1/0)
|   |   |   |   bin6 >= 1.5
|   |   |   |   |   bin15 < 17.5 : NO (5/0)
|   |   |   |   |   bin15 >= 17.5 : YES (2/0)
|   |   bin4 >= 5.5 : YES (5/0)
|   bin2 >= 9.5
|   |   bin246 < 3.5
|   |   |   bin103 < 13
|   |   |   |   bin30 < 2.5 : NO (1/0)
|   |   |   |   bin30 >= 2.5
|   |   |   |   |   bin119 < 3.5 : YES (7/0)
|   |   |   |   |   bin119 >= 3.5
|   |   |   |   |   |   bin16 < 17
|   |   |   |   |   |   |   bin134 < 3.5 : NO (2/0)
|   |   |   |   |   |   |   bin134 >= 3.5 : YES (1/0)
|   |   |   |   |   |   bin16 >= 17 : YES (5/0)
|   |   |   bin103 >= 13 : NO (2/0)
|   |   bin246 >= 3.5 : YES (19/0)
bin163 >= 27
|   bin31 < 62.5 : NO (21/0)
|   bin31 >= 62.5
|   |   bin146 < 41.5 : NO (1/0)
|   |   bin146 >= 41.5 : YES (5/0)

Size of the tree : 31Decision Stump

Classifications

bin163 <= 27.0 : YES
bin163 > 27.0 : NO
bin163 is missing : NO

Class distributions

bin163 <= 27.0
YES	NO	
0.6271186440677966	0.3728813559322034	
bin163 > 27.0
YES	NO	
0.0967741935483871	0.9032258064516129	
bin163 is missing
YES	NO	
0.4444444444444444	0.5555555555555556	
Decision Stump

Classifications

bin166 <= 28.5 : YES
bin166 > 28.5 : NO
bin166 is missing : NO

Class distributions

bin166 <= 28.5
YES	NO	
0.6166666666666667	0.38333333333333336	
bin166 > 28.5
YES	NO	
0.1	0.9	
bin166 is missing
YES	NO	
0.4444444444444444	0.5555555555555556	
Decision Stump

Classifications

bin166 <= 28.5 : YES
bin166 > 28.5 : NO
bin166 is missing : NO

Class distributions

bin166 <= 28.5
YES	NO	
0.6101694915254238	0.3898305084745763	
bin166 > 28.5
YES	NO	
0.12903225806451613	0.8709677419354839	
bin166 is missing
YES	NO	
0.4444444444444444	0.5555555555555556	
Decision Stump

Classifications

bin166 <= 28.5 : YES
bin166 > 28.5 : NO
bin166 is missing : NO

Class distributions

bin166 <= 28.5
YES	NO	
0.6166666666666667	0.38333333333333336	
bin166 > 28.5
YES	NO	
0.1	0.9	
bin166 is missing
YES	NO	
0.4444444444444444	0.5555555555555556	
Decision Stump

Classifications

bin166 <= 28.5 : YES
bin166 > 28.5 : NO
bin166 is missing : NO

Class distributions

bin166 <= 28.5
YES	NO	
0.6166666666666667	0.38333333333333336	
bin166 > 28.5
YES	NO	
0.1	0.9	
bin166 is missing
YES	NO	
0.4444444444444444	0.5555555555555556	
Decision Stump

Classifications

bin166 <= 28.5 : YES
bin166 > 28.5 : NO
bin166 is missing : YES

Class distributions

bin166 <= 28.5
YES	NO	
0.7076923076923077	0.2923076923076923	
bin166 > 28.5
YES	NO	
0.16	0.84	
bin166 is missing
YES	NO	
0.5555555555555556	0.4444444444444444	
Decision Stump

Classifications

bin5 <= 10.5 : NO
bin5 > 10.5 : YES
bin5 is missing : YES

Class distributions

bin5 <= 10.5
YES	NO	
0.275	0.725	
bin5 > 10.5
YES	NO	
0.78	0.22	
bin5 is missing
YES	NO	
0.5555555555555556	0.4444444444444444	
Decision Stump

Classifications

bin172 <= 28.5 : YES
bin172 > 28.5 : NO
bin172 is missing : YES

Class distributions

bin172 <= 28.5
YES	NO	
0.7540983606557377	0.2459016393442623	
bin172 > 28.5
YES	NO	
0.13793103448275862	0.8620689655172413	
bin172 is missing
YES	NO	
0.5555555555555556	0.4444444444444444	
Decision Stump

Classifications

bin166 <= 28.5 : YES
bin166 > 28.5 : NO
bin166 is missing : YES

Class distributions

bin166 <= 28.5
YES	NO	
0.71875	0.28125	
bin166 > 28.5
YES	NO	
0.15384615384615385	0.8461538461538461	
bin166 is missing
YES	NO	
0.5555555555555556	0.4444444444444444	
Decision Stump

Classifications

bin166 <= 28.5 : YES
bin166 > 28.5 : NO
bin166 is missing : YES

Class distributions

bin166 <= 28.5
YES	NO	
0.7076923076923077	0.2923076923076923	
bin166 > 28.5
YES	NO	
0.16	0.84	
bin166 is missing
YES	NO	
0.5555555555555556	0.4444444444444444	
J48 pruned tree
------------------

bin9 <= 94
|   bin162 <= 26
|   |   bin4 <= 5
|   |   |   bin252 <= 15: NO (12.0)
|   |   |   bin252 > 15
|   |   |   |   bin93 <= 9: NO (3.0)
|   |   |   |   bin93 > 9: YES (6.0/1.0)
|   |   bin4 > 5
|   |   |   bin254 <= 3
|   |   |   |   bin250 <= 2
|   |   |   |   |   bin242 <= 1
|   |   |   |   |   |   bin4 <= 27: YES (3.0)
|   |   |   |   |   |   bin4 > 27: NO (2.0)
|   |   |   |   |   bin242 > 1: YES (3.0)
|   |   |   |   bin250 > 2: NO (3.0)
|   |   |   bin254 > 3: YES (17.0)
|   bin162 > 26
|   |   bin22 <= 124: NO (29.0)
|   |   bin22 > 124: YES (2.0)
bin9 > 94: YES (10.0)

Number of Leaves  : 	11

Size of the tree : 	21
J48 pruned tree
------------------

bin11 <= 62
|   bin162 <= 24
|   |   bin4 <= 5
|   |   |   bin253 <= 15: NO (11.0)
|   |   |   bin253 > 15
|   |   |   |   bin2 <= 1: YES (6.0)
|   |   |   |   bin2 > 1: NO (5.0/1.0)
|   |   bin4 > 5
|   |   |   bin254 <= 3
|   |   |   |   bin250 <= 2: YES (7.0/2.0)
|   |   |   |   bin250 > 2: NO (3.0)
|   |   |   bin254 > 3: YES (12.0)
|   bin162 > 24: NO (30.0/1.0)
bin11 > 62: YES (16.0/1.0)

Number of Leaves  : 	8

Size of the tree : 	15
J48 pruned tree
------------------

bin192 <= 79
|   bin4 <= 5
|   |   bin250 <= 7: NO (15.0)
|   |   bin250 > 7
|   |   |   bin13 <= 15
|   |   |   |   bin13 <= 2
|   |   |   |   |   bin2 <= 0: NO (2.0)
|   |   |   |   |   bin2 > 0: YES (4.0)
|   |   |   |   bin13 > 2: NO (6.0)
|   |   |   bin13 > 15: YES (4.0)
|   bin4 > 5
|   |   bin163 <= 26
|   |   |   bin235 <= 3
|   |   |   |   bin210 <= 3: YES (10.0/2.0)
|   |   |   |   bin210 > 3: NO (3.0)
|   |   |   bin235 > 3: YES (20.0)
|   |   bin163 > 26
|   |   |   bin177 <= 40: NO (10.0/1.0)
|   |   |   bin177 > 40: YES (3.0)
bin192 > 79: NO (13.0)

Number of Leaves  : 	11

Size of the tree : 	21
J48 pruned tree
------------------

bin172 <= 28
|   bin5 <= 9
|   |   bin253 <= 15: NO (14.0)
|   |   bin253 > 15
|   |   |   bin2 <= 1: YES (5.0)
|   |   |   bin2 > 1
|   |   |   |   bin1 <= 9: NO (4.0)
|   |   |   |   bin1 > 9: YES (2.0)
|   bin5 > 9
|   |   bin254 <= 3
|   |   |   bin14 <= 19: NO (4.0)
|   |   |   bin14 > 19: YES (7.0/1.0)
|   |   bin254 > 3: YES (24.0)
bin172 > 28
|   bin22 <= 124: NO (27.0)
|   bin22 > 124: YES (3.0)

Number of Leaves  : 	9

Size of the tree : 	17
J48 pruned tree
------------------

bin11 <= 62
|   bin162 <= 26
|   |   bin4 <= 5
|   |   |   bin6 <= 1
|   |   |   |   bin6 <= 0: NO (2.0)
|   |   |   |   bin6 > 0: YES (6.0/1.0)
|   |   |   bin6 > 1: NO (13.0)
|   |   bin4 > 5
|   |   |   bin255 <= 4
|   |   |   |   bin250 <= 2
|   |   |   |   |   bin151 <= 1: NO (3.0/1.0)
|   |   |   |   |   bin151 > 1: YES (4.0)
|   |   |   |   bin250 > 2: NO (3.0)
|   |   |   bin255 > 4: YES (15.0)
|   bin162 > 26: NO (28.0)
bin11 > 62: YES (16.0/1.0)

Number of Leaves  : 	9

Size of the tree : 	17
J48 pruned tree
------------------

bin192 <= 79
|   bin5 <= 8
|   |   bin250 <= 8: NO (14.0)
|   |   bin250 > 8
|   |   |   bin13 <= 15
|   |   |   |   bin13 <= 2: YES (6.0/1.0)
|   |   |   |   bin13 > 2: NO (5.0)
|   |   |   bin13 > 15: YES (5.0)
|   bin5 > 8
|   |   bin166 <= 29
|   |   |   bin251 <= 2
|   |   |   |   bin250 <= 2: YES (12.0/2.0)
|   |   |   |   bin250 > 2: NO (2.0)
|   |   |   bin251 > 2: YES (27.0)
|   |   bin166 > 29
|   |   |   bin165 <= 44: NO (6.0)
|   |   |   bin165 > 44: YES (3.0)
bin192 > 79: NO (10.0)

Number of Leaves  : 	10

Size of the tree : 	19
J48 pruned tree
------------------

bin196 <= 87
|   bin11 <= 62
|   |   bin246 <= 20
|   |   |   bin4 <= 5
|   |   |   |   bin253 <= 8: NO (12.0)
|   |   |   |   bin253 > 8
|   |   |   |   |   bin2 <= 1: YES (7.0)
|   |   |   |   |   bin2 > 1: NO (5.0/1.0)
|   |   |   bin4 > 5
|   |   |   |   bin10 <= 62: YES (27.0/2.0)
|   |   |   |   bin10 > 62: NO (2.0)
|   |   bin246 > 20: NO (8.0)
|   bin11 > 62: YES (17.0)
bin196 > 87: NO (12.0)

Number of Leaves  : 	8

Size of the tree : 	15
J48 pruned tree
------------------

bin172 <= 28
|   bin240 <= 8
|   |   bin243 <= 7
|   |   |   bin249 <= 3
|   |   |   |   bin1 <= 12: NO (8.0)
|   |   |   |   bin1 > 12
|   |   |   |   |   bin180 <= 9: YES (13.0/2.0)
|   |   |   |   |   bin180 > 9: NO (2.0)
|   |   |   bin249 > 3: YES (16.0)
|   |   bin243 > 7: NO (3.0)
|   bin240 > 8: YES (19.0)
bin172 > 28
|   bin22 <= 124: NO (25.0)
|   bin22 > 124: YES (4.0)

Number of Leaves  : 	8

Size of the tree : 	15
J48 pruned tree
------------------

bin192 <= 79
|   bin5 <= 8
|   |   bin250 <= 8: NO (13.0)
|   |   bin250 > 8
|   |   |   bin14 <= 15
|   |   |   |   bin13 <= 2
|   |   |   |   |   bin2 <= 0: NO (2.0)
|   |   |   |   |   bin2 > 0: YES (5.0)
|   |   |   |   bin13 > 2: NO (5.0)
|   |   |   bin14 > 15: YES (5.0)
|   bin5 > 8
|   |   bin166 <= 29
|   |   |   bin135 <= 3
|   |   |   |   bin133 <= 2: YES (8.0/1.0)
|   |   |   |   bin133 > 2: NO (2.0)
|   |   |   bin135 > 3: YES (30.0)
|   |   bin166 > 29
|   |   |   bin177 <= 40: NO (6.0)
|   |   |   bin177 > 40: YES (3.0)
bin192 > 79: NO (11.0)

Number of Leaves  : 	11

Size of the tree : 	21
J48 pruned tree
------------------

bin172 <= 28
|   bin5 <= 8
|   |   bin251 <= 9: NO (11.0)
|   |   bin251 > 9
|   |   |   bin179 <= 14: YES (10.0/1.0)
|   |   |   bin179 > 14: NO (2.0)
|   bin5 > 8
|   |   bin235 <= 3
|   |   |   bin228 <= 2: YES (14.0/2.0)
|   |   |   bin228 > 2: NO (3.0)
|   |   bin235 > 3: YES (25.0)
bin172 > 28
|   bin22 <= 124: NO (21.0)
|   bin22 > 124: YES (4.0)

Number of Leaves  : 	8

Size of the tree : 	15
Accuracy of J48: 67,00%
---------------------------------Logistic model tree 
------------------

bin221 <= 42: LM_1:2/4 (75)
bin221 > 42: LM_2:2/4 (15)

Number of Leaves  : 	2

Size of the Tree : 	3

LM_1:
Class 0 :
-0.19 + 
[bin4] * 0.01 +
[bin16] * 0.01 +
[bin78] * -0.01 +
[bin165] * -0.01

Class 1 :
0.19 + 
[bin4] * -0.01 +
[bin16] * -0.01 +
[bin78] * 0.01 +
[bin165] * 0.01

LM_2:
Class 0 :
-1.65 + 
[bin16] * 0.01 +
[bin163] * 0    +
[bin165] * -0.01

Class 1 :
1.65 + 
[bin16] * -0.01 +
[bin163] * -0 +
[bin165] * 0.01
Logistic model tree 
------------------

bin11 <= 62
|   bin162 <= 24
|   |   bin4 <= 5: LM_1:39/156 (22)
|   |   bin4 > 5: LM_2:39/156 (22)
|   bin162 > 24: LM_3:39/117 (30)
bin11 > 62: LM_4:39/78 (16)

Number of Leaves  : 	4

Size of the Tree : 	7



LM_1:
Class 0 :
-6.76 + 
[bin1] * 0.01 +
[bin2] * 0.01 +
[bin3] * -0.37 +
[bin7] * 0.01 +
[bin8] * 0.01 +
[bin10] * -0.03 +
[bin11] * -0.02 +
[bin14] * 0.01 +
[bin15] * 0.01 +
[bin16] * 0.02 +
[bin18] * 0.02 +
[bin19] * 0.01 +
[bin20] * 0.01 +
[bin21] * -0.01 +
[bin25] * 0.04 +
[bin27] * 0.01 +
[bin39] * -0.03 +
[bin42] * -0.03 +
[bin65] * -0.01 +
[bin89] * -0.01 +
[bin90] * -0.04 +
[bin112] * 0.01 +
[bin132] * -0 +
[bin146] * 0.04 +
[bin151] * 0.02 +
[bin160] * -0.03 +
[bin165] * -0.01 +
[bin175] * -0.06 +
[bin177] * 0    +
[bin181] * -0.04 +
[bin192] * -0 +
[bin196] * -0.01 +
[bin215] * -0.01 +
[bin221] * -0 +
[bin223] * -0.01 +
[bin230] * -0.01 +
[bin231] * -0.01 +
[bin232] * 0.01 +
[bin233] * 0.01 +
[bin234] * 0.26 +
[bin236] * 0    +
[bin238] * 0    +
[bin243] * -0.02 +
[bin244] * -0.1 +
[bin248] * -0 +
[bin249] * -0.01 +
[bin252] * 0.03 +
[bin253] * 0.06 +
[bin255] * 0.18 +
[bin256] * 0.01

Class 1 :
6.76 + 
[bin1] * -0.01 +
[bin2] * -0.01 +
[bin3] * 0.37 +
[bin7] * -0.01 +
[bin8] * -0.01 +
[bin10] * 0.03 +
[bin11] * 0.02 +
[bin14] * -0.01 +
[bin15] * -0.01 +
[bin16] * -0.02 +
[bin18] * -0.02 +
[bin19] * -0.01 +
[bin20] * -0.01 +
[bin21] * 0.01 +
[bin25] * -0.04 +
[bin27] * -0.01 +
[bin39] * 0.03 +
[bin42] * 0.03 +
[bin65] * 0.01 +
[bin89] * 0.01 +
[bin90] * 0.04 +
[bin112] * -0.01 +
[bin132] * 0    +
[bin146] * -0.04 +
[bin151] * -0.02 +
[bin160] * 0.03 +
[bin165] * 0.01 +
[bin175] * 0.06 +
[bin177] * -0 +
[bin181] * 0.04 +
[bin192] * 0    +
[bin196] * 0.01 +
[bin215] * 0.01 +
[bin221] * 0    +
[bin223] * 0.01 +
[bin230] * 0.01 +
[bin231] * 0.01 +
[bin232] * -0.01 +
[bin233] * -0.01 +
[bin234] * -0.26 +
[bin236] * -0 +
[bin238] * -0 +
[bin243] * 0.02 +
[bin244] * 0.1  +
[bin248] * 0    +
[bin249] * 0.01 +
[bin252] * -0.03 +
[bin253] * -0.06 +
[bin255] * -0.18 +
[bin256] * -0.01

LM_2:
Class 0 :
-1.58 + 
[bin1] * 0.01 +
[bin2] * 0.02 +
[bin4] * -0.01 +
[bin7] * 0.01 +
[bin8] * 0.01 +
[bin10] * -0.03 +
[bin11] * -0.03 +
[bin16] * 0.02 +
[bin18] * 0.02 +
[bin20] * 0.01 +
[bin21] * -0.01 +
[bin25] * 0.03 +
[bin30] * 0.06 +
[bin39] * -0.03 +
[bin42] * -0.03 +
[bin65] * -0.01 +
[bin85] * 0.02 +
[bin89] * -0.01 +
[bin112] * 0.01 +
[bin119] * -0.04 +
[bin132] * -0 +
[bin146] * 0.04 +
[bin151] * 0.02 +
[bin165] * -0.01 +
[bin175] * -0.06 +
[bin177] * 0    +
[bin181] * -0.04 +
[bin190] * -0.13 +
[bin192] * -0 +
[bin196] * -0.06 +
[bin215] * -0.01 +
[bin218] * -0.05 +
[bin221] * -0 +
[bin223] * -0.15 +
[bin230] * -0.01 +
[bin231] * -0.01 +
[bin232] * 0.01 +
[bin233] * 0.01 +
[bin234] * 0.65 +
[bin236] * 0    +
[bin238] * 0    +
[bin243] * -0.02 +
[bin244] * -0.05 +
[bin248] * -0 +
[bin249] * -0.01 +
[bin250] * -0.3 +
[bin252] * -0.29 +
[bin253] * 0.01 +
[bin254] * 0.16 +
[bin255] * 0.04 +
[bin256] * 0.09

Class 1 :
1.58 + 
[bin1] * -0.01 +
[bin2] * -0.02 +
[bin4] * 0.01 +
[bin7] * -0.01 +
[bin8] * -0.01 +
[bin10] * 0.03 +
[bin11] * 0.03 +
[bin16] * -0.02 +
[bin18] * -0.02 +
[bin20] * -0.01 +
[bin21] * 0.01 +
[bin25] * -0.03 +
[bin30] * -0.06 +
[bin39] * 0.03 +
[bin42] * 0.03 +
[bin65] * 0.01 +
[bin85] * -0.02 +
[bin89] * 0.01 +
[bin112] * -0.01 +
[bin119] * 0.04 +
[bin132] * 0    +
[bin146] * -0.04 +
[bin151] * -0.02 +
[bin165] * 0.01 +
[bin175] * 0.06 +
[bin177] * -0 +
[bin181] * 0.04 +
[bin190] * 0.13 +
[bin192] * 0    +
[bin196] * 0.06 +
[bin215] * 0.01 +
[bin218] * 0.05 +
[bin221] * 0    +
[bin223] * 0.15 +
[bin230] * 0.01 +
[bin231] * 0.01 +
[bin232] * -0.01 +
[bin233] * -0.01 +
[bin234] * -0.65 +
[bin236] * -0 +
[bin238] * -0 +
[bin243] * 0.02 +
[bin244] * 0.05 +
[bin248] * 0    +
[bin249] * 0.01 +
[bin250] * 0.3  +
[bin252] * 0.29 +
[bin253] * -0.01 +
[bin254] * -0.16 +
[bin255] * -0.04 +
[bin256] * -0.09

LM_3:
Class 0 :
-43.68 + 
[bin1] * 0.01 +
[bin2] * 0.01 +
[bin7] * 0.01 +
[bin10] * -0.03 +
[bin11] * -0.02 +
[bin16] * 0.01 +
[bin18] * 0.02 +
[bin20] * 0.01 +
[bin21] * -0.01 +
[bin22] * 0.2  +
[bin23] * 0.11 +
[bin24] * 0.07 +
[bin25] * 0.02 +
[bin42] * -0.03 +
[bin65] * -0.01 +
[bin112] * 0.01 +
[bin132] * -0 +
[bin149] * 0.01 +
[bin165] * -0.01 +
[bin166] * 0.06 +
[bin173] * 0.01 +
[bin177] * 0    +
[bin192] * -0 +
[bin196] * -0.01 +
[bin215] * -0.01 +
[bin221] * -0 +
[bin230] * -0.01 +
[bin231] * -0.01 +
[bin232] * 0.01 +
[bin233] * 0.01 +
[bin236] * 0    +
[bin238] * 0    +
[bin244] * -0.01 +
[bin248] * -0 +
[bin249] * -0.01 +
[bin253] * 0.01 +
[bin255] * 0.01 +
[bin256] * 0.01

Class 1 :
30.55 + 
[bin1] * -0.01 +
[bin2] * 0.03 +
[bin3] * 0.03 +
[bin5] * 0.02 +
[bin7] * -0.01 +
[bin10] * 0.03 +
[bin11] * 0.02 +
[bin12] * 0.03 +
[bin15] * 0.07 +
[bin16] * -0.01 +
[bin18] * -0.02 +
[bin20] * -0.01 +
[bin21] * 0.01 +
[bin22] * -0.19 +
[bin23] * -0.08 +
[bin24] * -0.01 +
[bin25] * -0.02 +
[bin37] * -0.05 +
[bin42] * 0.03 +
[bin65] * 0.01 +
[bin112] * -0.01 +
[bin132] * 0    +
[bin165] * 0.01 +
[bin166] * -0.06 +
[bin173] * -0.01 +
[bin177] * -0 +
[bin182] * -0.01 +
[bin192] * 0    +
[bin196] * 0.01 +
[bin215] * 0.01 +
[bin221] * 0    +
[bin230] * 0.01 +
[bin231] * 0.01 +
[bin232] * -0.01 +
[bin233] * -0.01 +
[bin236] * -0 +
[bin238] * -0 +
[bin244] * 0.01 +
[bin248] * 0    +
[bin249] * 0.01 +
[bin253] * -0.01 +
[bin255] * -0.01 +
[bin256] * 0.01

LM_4:
Class 0 :
40.57 + 
[bin1] * -0.08 +
[bin2] * -0.07 +
[bin11] * -0.11 +
[bin16] * 0.01 +
[bin17] * -0.04 +
[bin20] * 0.01 +
[bin21] * -0 +
[bin25] * 0.01 +
[bin42] * -0.01 +
[bin58] * -0.03 +
[bin60] * -0.08 +
[bin65] * -0.01 +
[bin112] * 0.01 +
[bin132] * -0 +
[bin165] * -0.01 +
[bin177] * 0    +
[bin192] * -0 +
[bin196] * -0.01 +
[bin215] * -0.01 +
[bin221] * -0 +
[bin232] * 0.01 +
[bin233] * 0.01 +
[bin236] * 0    +
[bin238] * 0    +
[bin248] * -0 +
[bin249] * -0.01 +
[bin252] * 0.03 +
[bin253] * 0.01 +
[bin256] * 0   

Class 1 :
-40.57 + 
[bin1] * 0.08 +
[bin2] * 0.07 +
[bin11] * 0.11 +
[bin16] * -0.01 +
[bin17] * 0.04 +
[bin20] * -0.01 +
[bin21] * 0    +
[bin25] * -0.01 +
[bin42] * 0.01 +
[bin58] * 0.03 +
[bin60] * 0.08 +
[bin65] * 0.01 +
[bin112] * -0.01 +
[bin132] * 0    +
[bin165] * 0.01 +
[bin177] * -0 +
[bin192] * 0    +
[bin196] * 0.01 +
[bin215] * 0.01 +
[bin221] * 0    +
[bin232] * -0.01 +
[bin233] * -0.01 +
[bin236] * -0 +
[bin238] * -0 +
[bin248] * 0    +
[bin249] * 0.01 +
[bin252] * -0.03 +
[bin253] * -0.01 +
[bin256] * -0
Logistic model tree 
------------------
: LM_1:3/3 (90)

Number of Leaves  : 	1

Size of the Tree : 	1
LM_1:
Class 0 :
-0.5 + 
[bin9] * 0.01 +
[bin193] * -0.01 +
[bin256] * 0   

Class 1 :
0.5  + 
[bin9] * -0.01 +
[bin193] * 0.01 +
[bin256] * -0
Logistic model tree 
------------------
: LM_1:6/6 (90)

Number of Leaves  : 	1

Size of the Tree : 	1
LM_1:
Class 0 :
-0.84 + 
[bin1] * 0    +
[bin16] * 0.01 +
[bin19] * 0    +
[bin165] * -0.01 +
[bin221] * -0.01 +
[bin256] * 0   

Class 1 :
0.84 + 
[bin1] * -0 +
[bin16] * -0.01 +
[bin19] * -0 +
[bin165] * 0.01 +
[bin221] * 0.01 +
[bin256] * -0
Logistic model tree 
------------------

bin11 <= 62
|   bin162 <= 26
|   |   bin4 <= 5: LM_1:36/144 (21)
|   |   bin4 > 5: LM_2:36/144 (25)
|   bin162 > 26: LM_3:35/107 (28)
bin11 > 62: LM_4:36/72 (16)

Number of Leaves  : 	4

Size of the Tree : 	7



LM_1:
Class 0 :
-4.37 + 
[bin1] * 0.01 +
[bin2] * 0.02 +
[bin3] * -0.05 +
[bin4] * -0.72 +
[bin6] * -0.01 +
[bin9] * 0.02 +
[bin16] * 0.02 +
[bin20] * -0.05 +
[bin25] * 0.01 +
[bin27] * 0.03 +
[bin39] * -0 +
[bin60] * 0.01 +
[bin77] * -0 +
[bin119] * -0.06 +
[bin132] * -0.01 +
[bin137] * -0.01 +
[bin138] * -0.14 +
[bin144] * 0.04 +
[bin146] * 0.04 +
[bin153] * -0.06 +
[bin165] * -0.06 +
[bin166] * -0.01 +
[bin168] * -0.01 +
[bin172] * -0.01 +
[bin181] * -0.08 +
[bin192] * -0.02 +
[bin207] * 0.01 +
[bin210] * 0.01 +
[bin221] * -0.01 +
[bin222] * -0.03 +
[bin225] * -0.01 +
[bin226] * -0.01 +
[bin232] * 0.03 +
[bin234] * 0.04 +
[bin236] * 0.01 +
[bin244] * -0.01 +
[bin247] * -0 +
[bin249] * -0 +
[bin253] * 0.01 +
[bin255] * 0.16 +
[bin256] * 0.02

Class 1 :
4.37 + 
[bin1] * -0.01 +
[bin2] * -0.02 +
[bin3] * 0.05 +
[bin4] * 0.72 +
[bin6] * 0.01 +
[bin9] * -0.02 +
[bin16] * -0.02 +
[bin20] * 0.05 +
[bin25] * -0.01 +
[bin27] * -0.03 +
[bin39] * 0    +
[bin60] * -0.01 +
[bin77] * 0    +
[bin119] * 0.06 +
[bin132] * 0.01 +
[bin137] * 0.01 +
[bin138] * 0.14 +
[bin144] * -0.04 +
[bin146] * -0.04 +
[bin153] * 0.06 +
[bin165] * 0.06 +
[bin166] * 0.01 +
[bin168] * 0.01 +
[bin172] * 0.01 +
[bin181] * 0.08 +
[bin192] * 0.02 +
[bin207] * -0.01 +
[bin210] * -0.01 +
[bin221] * 0.01 +
[bin222] * 0.03 +
[bin225] * 0.01 +
[bin226] * 0.01 +
[bin232] * -0.03 +
[bin234] * -0.04 +
[bin236] * -0.01 +
[bin244] * 0.01 +
[bin247] * 0    +
[bin249] * 0    +
[bin253] * -0.01 +
[bin255] * -0.16 +
[bin256] * -0.02

LM_2:
Class 0 :
-2.71 + 
[bin1] * 0.01 +
[bin2] * 0.02 +
[bin4] * -0.02 +
[bin6] * -0.01 +
[bin9] * 0.02 +
[bin16] * 0.02 +
[bin20] * -0.05 +
[bin25] * 0.01 +
[bin27] * 0.01 +
[bin39] * -0 +
[bin60] * 0.01 +
[bin67] * 0.03 +
[bin69] * 0.07 +
[bin77] * -0 +
[bin124] * -0.09 +
[bin132] * -0.01 +
[bin137] * -0.01 +
[bin144] * 0.04 +
[bin146] * 0.04 +
[bin166] * -0.01 +
[bin168] * -0.01 +
[bin172] * -0.01 +
[bin181] * -0.08 +
[bin190] * -0.05 +
[bin192] * -0.02 +
[bin196] * -0.11 +
[bin207] * 0.01 +
[bin210] * 0.01 +
[bin221] * -0.01 +
[bin222] * -0.03 +
[bin223] * -0.1 +
[bin225] * -0.01 +
[bin226] * -0.01 +
[bin232] * 0.03 +
[bin234] * 0.04 +
[bin235] * 0.52 +
[bin236] * 0.01 +
[bin244] * -0.01 +
[bin247] * -0 +
[bin249] * -0 +
[bin250] * -0.45 +
[bin253] * 0.01 +
[bin254] * 0.2  +
[bin255] * 0.03 +
[bin256] * 0.04

Class 1 :
2.71 + 
[bin1] * -0.01 +
[bin2] * -0.02 +
[bin4] * 0.02 +
[bin6] * 0.01 +
[bin9] * -0.02 +
[bin16] * -0.02 +
[bin20] * 0.05 +
[bin25] * -0.01 +
[bin27] * -0.01 +
[bin39] * 0    +
[bin60] * -0.01 +
[bin67] * -0.03 +
[bin69] * -0.07 +
[bin77] * 0    +
[bin124] * 0.09 +
[bin132] * 0.01 +
[bin137] * 0.01 +
[bin144] * -0.04 +
[bin146] * -0.04 +
[bin166] * 0.01 +
[bin168] * 0.01 +
[bin172] * 0.01 +
[bin181] * 0.08 +
[bin190] * 0.05 +
[bin192] * 0.02 +
[bin196] * 0.11 +
[bin207] * -0.01 +
[bin210] * -0.01 +
[bin221] * 0.01 +
[bin222] * 0.03 +
[bin223] * 0.1  +
[bin225] * 0.01 +
[bin226] * 0.01 +
[bin232] * -0.03 +
[bin234] * -0.04 +
[bin235] * -0.52 +
[bin236] * -0.01 +
[bin244] * 0.01 +
[bin247] * 0    +
[bin249] * 0    +
[bin250] * 0.45 +
[bin253] * -0.01 +
[bin254] * -0.2 +
[bin255] * -0.03 +
[bin256] * -0.04

LM_3:
Class 0 :
-19.33 + 
[bin1] * 0.01 +
[bin2] * 0.01 +
[bin4] * -0 +
[bin6] * -0.01 +
[bin9] * 0.01 +
[bin16] * 0.02 +
[bin20] * -0.03 +
[bin25] * 0.01 +
[bin27] * 0.01 +
[bin39] * -0 +
[bin60] * 0.01 +
[bin77] * -0 +
[bin132] * -0.01 +
[bin137] * -0.01 +
[bin166] * -0.01 +
[bin168] * -0.01 +
[bin172] * -0.01 +
[bin181] * -0.02 +
[bin192] * -0.02 +
[bin210] * 0.01 +
[bin221] * -0.01 +
[bin225] * -0.01 +
[bin226] * -0.01 +
[bin232] * 0.03 +
[bin236] * 0.01 +
[bin247] * -0 +
[bin249] * -0 +
[bin253] * 0.01 +
[bin255] * 0.02 +
[bin256] * 0.01

Class 1 :
19.33 + 
[bin1] * -0.01 +
[bin2] * -0.01 +
[bin4] * 0    +
[bin6] * 0.01 +
[bin9] * -0.01 +
[bin16] * -0.02 +
[bin20] * 0.03 +
[bin25] * -0.01 +
[bin27] * -0.01 +
[bin39] * 0    +
[bin60] * -0.01 +
[bin77] * 0    +
[bin132] * 0.01 +
[bin137] * 0.01 +
[bin166] * 0.01 +
[bin168] * 0.01 +
[bin172] * 0.01 +
[bin181] * 0.02 +
[bin192] * 0.02 +
[bin210] * -0.01 +
[bin221] * 0.01 +
[bin225] * 0.01 +
[bin226] * 0.01 +
[bin232] * -0.03 +
[bin236] * -0.01 +
[bin247] * 0    +
[bin249] * 0    +
[bin253] * -0.01 +
[bin255] * -0.02 +
[bin256] * -0.01

LM_4:
Class 0 :
22.03 + 
[bin1] * 0    +
[bin2] * -0.04 +
[bin6] * -0 +
[bin9] * 0.01 +
[bin11] * -0.02 +
[bin16] * 0.01 +
[bin27] * 0.01 +
[bin50] * -0.01 +
[bin59] * -0.02 +
[bin60] * -0.05 +
[bin77] * -0 +
[bin132] * -0.01 +
[bin166] * -0.01 +
[bin168] * -0.01 +
[bin172] * -0.01 +
[bin192] * -0.02 +
[bin221] * -0.01 +
[bin232] * 0.03 +
[bin236] * 0.01 +
[bin247] * -0 +
[bin249] * -0 +
[bin252] * 0.04 +
[bin253] * 0.28 +
[bin255] * -0.48 +
[bin256] * 0   

Class 1 :
-22.03 + 
[bin1] * -0 +
[bin2] * 0.04 +
[bin6] * 0    +
[bin9] * -0.01 +
[bin11] * 0.02 +
[bin16] * -0.01 +
[bin27] * -0.01 +
[bin50] * 0.01 +
[bin59] * 0.02 +
[bin60] * 0.05 +
[bin77] * 0    +
[bin132] * 0.01 +
[bin166] * 0.01 +
[bin168] * 0.01 +
[bin172] * 0.01 +
[bin192] * 0.02 +
[bin221] * 0.01 +
[bin232] * -0.03 +
[bin236] * -0.01 +
[bin247] * 0    +
[bin249] * 0    +
[bin252] * -0.04 +
[bin253] * -0.28 +
[bin255] * 0.48 +
[bin256] * -0
Logistic model tree 
------------------
: LM_1:6/6 (90)

Number of Leaves  : 	1

Size of the Tree : 	1
LM_1:
Class 0 :
-0.46 + 
[bin1] * 0    +
[bin11] * 0.01 +
[bin16] * 0    +
[bin72] * -0.01 +
[bin193] * -0.01 +
[bin256] * 0   

Class 1 :
0.46 + 
[bin1] * -0 +
[bin11] * -0.01 +
[bin16] * -0 +
[bin72] * 0.01 +
[bin193] * 0.01 +
[bin256] * -0
Logistic model tree 
------------------
: LM_1:4/4 (90)

Number of Leaves  : 	1

Size of the Tree : 	1
LM_1:
Class 0 :
0.03 + 
[bin2] * 0.01 +
[bin18] * 0.01 +
[bin132] * -0.01 +
[bin196] * -0.01

Class 1 :
-0.03 + 
[bin2] * -0.01 +
[bin18] * -0.01 +
[bin132] * 0.01 +
[bin196] * 0.01
Logistic model tree 
------------------
: LM_1:6/6 (90)

Number of Leaves  : 	1

Size of the Tree : 	1
LM_1:
Class 0 :
-0.44 + 
[bin1] * 0    +
[bin18] * 0.01 +
[bin27] * 0    +
[bin165] * -0.01 +
[bin221] * -0.01 +
[bin256] * 0   

Class 1 :
0.44 + 
[bin1] * -0 +
[bin18] * -0.01 +
[bin27] * -0 +
[bin165] * 0.01 +
[bin221] * 0.01 +
[bin256] * -0
Logistic model tree 
------------------
: LM_1:3/3 (90)

Number of Leaves  : 	1

Size of the Tree : 	1
LM_1:
Class 0 :
-0.11 + 
[bin4] * 0.01 +
[bin16] * 0.01 +
[bin165] * -0.01

Class 1 :
0.11 + 
[bin4] * -0.01 +
[bin16] * -0.01 +
[bin165] * 0.01
Logistic model tree 
------------------
: LM_1:2/2 (90)

Number of Leaves  : 	1

Size of the Tree : 	1
LM_1:
Class 0 :
0.08 + 
[bin11] * 0.01 +
[bin165] * -0.01

Class 1 :
-0.08 + 
[bin11] * -0.01 +
[bin165] * 0.01
Accuracy of LMT: 55,00%
---------------------------------
RandomTree
==========

bin167 < 27.5
|   bin26 < 17.5
|   |   bin8 < 6.5 : NO (9/0)
|   |   bin8 >= 6.5
|   |   |   bin60 < 10
|   |   |   |   bin33 < 2 : NO (1/0)
|   |   |   |   bin33 >= 2
|   |   |   |   |   bin170 < 2.5 : YES (6/0)
|   |   |   |   |   bin170 >= 2.5
|   |   |   |   |   |   bin99 < 4.5
|   |   |   |   |   |   |   bin7 < 16.5 : NO (1/0)
|   |   |   |   |   |   |   bin7 >= 16.5 : YES (1/0)
|   |   |   |   |   |   bin99 >= 4.5 : YES (2/0)
|   |   |   bin60 >= 10 : NO (5/0)
|   bin26 >= 17.5
|   |   bin13 < 21.5
|   |   |   bin36 < 48
|   |   |   |   bin251 < 4 : NO (2/0)
|   |   |   |   bin251 >= 4 : YES (4/0)
|   |   |   bin36 >= 48 : NO (2/0)
|   |   bin13 >= 21.5
|   |   |   bin213 < 4.5
|   |   |   |   bin121 < 8 : YES (4/0)
|   |   |   |   bin121 >= 8
|   |   |   |   |   bin8 < 72.5 : NO (3/0)
|   |   |   |   |   bin8 >= 72.5 : YES (1/0)
|   |   |   bin213 >= 4.5 : YES (19/0)
bin167 >= 27.5
|   bin14 < 26.5 : NO (20/0)
|   bin14 >= 26.5
|   |   bin199 < 36 : NO (5/0)
|   |   bin199 >= 36
|   |   |   bin21 < 67.5 : NO (2/0)
|   |   |   bin21 >= 67.5 : YES (3/0)

Size of the tree : 35
RandomTree
==========

bin167 < 27.5
|   bin133 < 54
|   |   bin8 < 7.5
|   |   |   bin246 < 4 : NO (6/0)
|   |   |   bin246 >= 4
|   |   |   |   bin96 < 9.5
|   |   |   |   |   bin12 < 2.5 : YES (4/0)
|   |   |   |   |   bin12 >= 2.5
|   |   |   |   |   |   bin99 < 6.5 : NO (1/0)
|   |   |   |   |   |   bin99 >= 6.5 : YES (1/0)
|   |   |   |   bin96 >= 9.5
|   |   |   |   |   bin7 < 2
|   |   |   |   |   |   bin13 < 0.5 : NO (1/0)
|   |   |   |   |   |   bin13 >= 0.5
|   |   |   |   |   |   |   bin41 < 57.5 : YES (2/0)
|   |   |   |   |   |   |   bin41 >= 57.5 : NO (1/0)
|   |   |   |   |   bin7 >= 2 : NO (3/0)
|   |   bin8 >= 7.5
|   |   |   bin251 < 8.5
|   |   |   |   bin245 < 4.5
|   |   |   |   |   bin83 < 14.5
|   |   |   |   |   |   bin8 < 128.5
|   |   |   |   |   |   |   bin223 < 14.5
|   |   |   |   |   |   |   |   bin250 < 3.5 : YES (9/0)
|   |   |   |   |   |   |   |   bin250 >= 3.5
|   |   |   |   |   |   |   |   |   bin21 < 21 : NO (1/0)
|   |   |   |   |   |   |   |   |   bin21 >= 21 : YES (1/0)
|   |   |   |   |   |   |   bin223 >= 14.5 : NO (1/0)
|   |   |   |   |   |   bin8 >= 128.5 : NO (1/0)
|   |   |   |   |   bin83 >= 14.5 : NO (5/0)
|   |   |   |   bin245 >= 4.5 : YES (6/0)
|   |   |   bin251 >= 8.5 : YES (13/0)
|   bin133 >= 54 : NO (3/0)
bin167 >= 27.5
|   bin14 < 70.5
|   |   bin25 < 89 : NO (26/0)
|   |   bin25 >= 89 : YES (1/0)
|   bin14 >= 70.5
|   |   bin42 < 147 : YES (3/0)
|   |   bin42 >= 147 : NO (1/0)

Size of the tree : 41
RandomTree
==========

bin163 < 27
|   bin2 < 6
|   |   bin208 < 3.5 : NO (6/0)
|   |   bin208 >= 3.5
|   |   |   bin180 < 5.5 : YES (3/0)
|   |   |   bin180 >= 5.5
|   |   |   |   bin255 < 12 : NO (5/0)
|   |   |   |   bin255 >= 12
|   |   |   |   |   bin26 < 21.5 : NO (4/0)
|   |   |   |   |   bin26 >= 21.5
|   |   |   |   |   |   bin100 < 66.5 : YES (5/0)
|   |   |   |   |   |   bin100 >= 66.5 : NO (1/0)
|   bin2 >= 6
|   |   bin246 < 3.5
|   |   |   bin103 < 13
|   |   |   |   bin30 < 2.5 : NO (1/0)
|   |   |   |   bin30 >= 2.5
|   |   |   |   |   bin119 < 8
|   |   |   |   |   |   bin245 < 2.5 : YES (7/0)
|   |   |   |   |   |   bin245 >= 2.5
|   |   |   |   |   |   |   bin3 < 19 : YES (1/0)
|   |   |   |   |   |   |   bin3 >= 19
|   |   |   |   |   |   |   |   bin2 < 42 : NO (1/0)
|   |   |   |   |   |   |   |   bin2 >= 42 : YES (1/0)
|   |   |   |   |   bin119 >= 8 : NO (1/0)
|   |   |   bin103 >= 13 : NO (3/0)
|   |   bin246 >= 3.5 : YES (18/0)
bin163 >= 27
|   bin21 < 67 : NO (27/0)
|   bin21 >= 67
|   |   bin50 < 148.5 : YES (5/0)
|   |   bin50 >= 148.5 : NO (1/0)

Size of the tree : 33
RandomTree
==========

bin163 < 27
|   bin2 < 6
|   |   bin16 < 22.5
|   |   |   bin59 < 2 : YES (1/0)
|   |   |   bin59 >= 2
|   |   |   |   bin255 < 30.5 : NO (12/0)
|   |   |   |   bin255 >= 30.5
|   |   |   |   |   bin62 < 20 : YES (2/0)
|   |   |   |   |   bin62 >= 20 : NO (2/0)
|   |   bin16 >= 22.5
|   |   |   bin136 < 8.5 : NO (2/0)
|   |   |   bin136 >= 8.5 : YES (6/0)
|   bin2 >= 6
|   |   bin246 < 3.5
|   |   |   bin103 < 13
|   |   |   |   bin30 < 15.5
|   |   |   |   |   bin69 < 3.5
|   |   |   |   |   |   bin61 < 1.5 : NO (1/0)
|   |   |   |   |   |   bin61 >= 1.5 : YES (4/0)
|   |   |   |   |   bin69 >= 3.5 : NO (2/0)
|   |   |   |   bin30 >= 15.5 : YES (5/0)
|   |   |   bin103 >= 13 : NO (3/0)
|   |   bin246 >= 3.5 : YES (18/0)
bin163 >= 27
|   bin113 < 57.5 : NO (18/0)
|   bin113 >= 57.5
|   |   bin31 < 62.5 : NO (10/0)
|   |   bin31 >= 62.5 : YES (4/0)

Size of the tree : 29
RandomTree
==========

bin163 < 27
|   bin2 < 6
|   |   bin70 < 30
|   |   |   bin248 < 4.5 : NO (8/0)
|   |   |   bin248 >= 4.5
|   |   |   |   bin6 < 1.5
|   |   |   |   |   bin62 < 20 : YES (4/0)
|   |   |   |   |   bin62 >= 20 : NO (1/0)
|   |   |   |   bin6 >= 1.5 : NO (6/0)
|   |   bin70 >= 30
|   |   |   bin15 < 16 : NO (1/0)
|   |   |   bin15 >= 16 : YES (4/0)
|   bin2 >= 6
|   |   bin246 < 3.5
|   |   |   bin103 < 13
|   |   |   |   bin154 < 1.5
|   |   |   |   |   bin25 < 3 : NO (1/0)
|   |   |   |   |   bin25 >= 3
|   |   |   |   |   |   bin16 < 9 : YES (1/0)
|   |   |   |   |   |   bin16 >= 9 : NO (1/0)
|   |   |   |   bin154 >= 1.5
|   |   |   |   |   bin3 < 31.5
|   |   |   |   |   |   bin2 < 25 : YES (3/0)
|   |   |   |   |   |   bin2 >= 25 : NO (1/0)
|   |   |   |   |   bin3 >= 31.5 : YES (7/0)
|   |   |   bin103 >= 13 : NO (3/0)
|   |   bin246 >= 3.5 : YES (17/0)
bin163 >= 27
|   bin14 < 70.5 : NO (27/0)
|   bin14 >= 70.5
|   |   bin50 < 148.5 : YES (4/0)
|   |   bin50 >= 148.5 : NO (1/0)

Size of the tree : 33
RandomTree
==========

bin163 < 27
|   bin2 < 9.5
|   |   bin208 < 3.5 : NO (7/0)
|   |   bin208 >= 3.5
|   |   |   bin248 < 3.5 : NO (3/0)
|   |   |   bin248 >= 3.5
|   |   |   |   bin201 < 6.5 : YES (6/0)
|   |   |   |   bin201 >= 6.5
|   |   |   |   |   bin145 < 6.5 : NO (2/0)
|   |   |   |   |   bin145 >= 6.5
|   |   |   |   |   |   bin15 < 16
|   |   |   |   |   |   |   bin227 < 12 : NO (2/0)
|   |   |   |   |   |   |   bin227 >= 12 : YES (2/0)
|   |   |   |   |   |   bin15 >= 16 : YES (5/0)
|   bin2 >= 9.5
|   |   bin255 < 2.5
|   |   |   bin2 < 67.5
|   |   |   |   bin25 < 3 : NO (1/0)
|   |   |   |   bin25 >= 3 : YES (9/0)
|   |   |   bin2 >= 67.5
|   |   |   |   bin16 < 9 : YES (1/0)
|   |   |   |   bin16 >= 9 : NO (3/0)
|   |   bin255 >= 2.5 : YES (22/0)
bin163 >= 27
|   bin69 < 44.5 : NO (14/0)
|   bin69 >= 44.5
|   |   bin31 < 62.5 : NO (7/0)
|   |   bin31 >= 62.5
|   |   |   bin146 < 41.5 : NO (1/0)
|   |   |   bin146 >= 41.5 : YES (5/0)

Size of the tree : 31
RandomTree
==========

bin14 < 18.5
|   bin122 < 32.5
|   |   bin4 < 10
|   |   |   bin248 < 4.5 : NO (6/0)
|   |   |   bin248 >= 4.5
|   |   |   |   bin6 < 1.5
|   |   |   |   |   bin62 < 20 : YES (4/0)
|   |   |   |   |   bin62 >= 20 : NO (1/0)
|   |   |   |   bin6 >= 1.5
|   |   |   |   |   bin15 < 2.5 : YES (1/0)
|   |   |   |   |   bin15 >= 2.5 : NO (5/0)
|   |   bin4 >= 10
|   |   |   bin227 < 4.5
|   |   |   |   bin255 < 7.5
|   |   |   |   |   bin2 < 19.5 : YES (2/0)
|   |   |   |   |   bin2 >= 19.5
|   |   |   |   |   |   bin25 < 5
|   |   |   |   |   |   |   bin16 < 7 : YES (1/0)
|   |   |   |   |   |   |   bin16 >= 7 : NO (1/0)
|   |   |   |   |   |   bin25 >= 5 : NO (2/0)
|   |   |   |   bin255 >= 7.5 : YES (2/0)
|   |   |   bin227 >= 4.5 : YES (5/0)
|   bin122 >= 32.5 : NO (16/0)
bin14 >= 18.5
|   bin180 < 27.5
|   |   bin210 < 4.5
|   |   |   bin14 < 38.5 : YES (6/0)
|   |   |   bin14 >= 38.5
|   |   |   |   bin21 < 85.5 : NO (3/0)
|   |   |   |   bin21 >= 85.5 : YES (1/0)
|   |   bin210 >= 4.5 : YES (22/0)
|   bin180 >= 27.5
|   |   bin31 < 62.5
|   |   |   bin2 < 49.5 : NO (5/0)
|   |   |   bin2 >= 49.5
|   |   |   |   bin47 < 25.5 : NO (1/0)
|   |   |   |   bin47 >= 25.5 : YES (1/0)
|   |   bin31 >= 62.5 : YES (5/0)

Size of the tree : 39
RandomTree
==========

bin163 < 27
|   bin2 < 2.5
|   |   bin211 < 3.5 : NO (5/0)
|   |   bin211 >= 3.5
|   |   |   bin180 < 5.5 : YES (4/0)
|   |   |   bin180 >= 5.5
|   |   |   |   bin126 < 19.5 : NO (3/0)
|   |   |   |   bin126 >= 19.5
|   |   |   |   |   bin26 < 15.5 : NO (1/0)
|   |   |   |   |   bin26 >= 15.5
|   |   |   |   |   |   bin100 < 66.5 : YES (4/0)
|   |   |   |   |   |   bin100 >= 66.5 : NO (1/0)
|   bin2 >= 2.5
|   |   bin246 < 3.5
|   |   |   bin103 < 13
|   |   |   |   bin229 < 9.5
|   |   |   |   |   bin158 < 2.5 : YES (8/0)
|   |   |   |   |   bin158 >= 2.5
|   |   |   |   |   |   bin16 < 10 : NO (1/0)
|   |   |   |   |   |   bin16 >= 10 : YES (5/0)
|   |   |   |   bin229 >= 9.5 : NO (1/0)
|   |   |   bin103 >= 13 : NO (3/0)
|   |   bin246 >= 3.5 : YES (24/0)
bin163 >= 27
|   bin69 < 44.5 : NO (15/0)
|   bin69 >= 44.5
|   |   bin31 < 62.5 : NO (9/0)
|   |   bin31 >= 62.5
|   |   |   bin146 < 41.5 : NO (1/0)
|   |   |   bin146 >= 41.5 : YES (5/0)

Size of the tree : 31
RandomTree
==========

bin163 < 27
|   bin2 < 9.5
|   |   bin208 < 3.5 : NO (6/0)
|   |   bin208 >= 3.5
|   |   |   bin178 < 15.5
|   |   |   |   bin6 < 0.5 : NO (2/0)
|   |   |   |   bin6 >= 0.5
|   |   |   |   |   bin26 < 17
|   |   |   |   |   |   bin15 < 2.5 : YES (2/0)
|   |   |   |   |   |   bin15 >= 2.5
|   |   |   |   |   |   |   bin151 < 4 : YES (1/0)
|   |   |   |   |   |   |   bin151 >= 4 : NO (3/0)
|   |   |   |   |   bin26 >= 17 : YES (10/0)
|   |   |   bin178 >= 15.5 : NO (3/0)
|   bin2 >= 9.5
|   |   bin171 < 3.5
|   |   |   bin30 < 2.5 : NO (1/0)
|   |   |   bin30 >= 2.5
|   |   |   |   bin119 < 3.5 : YES (7/0)
|   |   |   |   bin119 >= 3.5
|   |   |   |   |   bin16 < 17 : NO (2/0)
|   |   |   |   |   bin16 >= 17 : YES (2/0)
|   |   bin171 >= 3.5 : YES (23/0)
bin163 >= 27
|   bin69 < 43.5 : NO (14/0)
|   bin69 >= 43.5
|   |   bin31 < 58 : NO (8/0)
|   |   bin31 >= 58
|   |   |   bin146 < 41.5 : NO (1/0)
|   |   |   bin146 >= 41.5 : YES (5/0)

Size of the tree : 31
RandomTree
==========

bin163 < 27
|   bin2 < 9.5
|   |   bin4 < 5.5
|   |   |   bin248 < 4 : NO (7/0)
|   |   |   bin248 >= 4
|   |   |   |   bin6 < 1.5
|   |   |   |   |   bin99 < 28.5 : YES (6/0)
|   |   |   |   |   bin99 >= 28.5 : NO (1/0)
|   |   |   |   bin6 >= 1.5
|   |   |   |   |   bin15 < 17.5 : NO (5/0)
|   |   |   |   |   bin15 >= 17.5 : YES (2/0)
|   |   bin4 >= 5.5 : YES (5/0)
|   bin2 >= 9.5
|   |   bin246 < 3.5
|   |   |   bin103 < 13
|   |   |   |   bin30 < 2.5 : NO (1/0)
|   |   |   |   bin30 >= 2.5
|   |   |   |   |   bin119 < 3.5 : YES (7/0)
|   |   |   |   |   bin119 >= 3.5
|   |   |   |   |   |   bin16 < 17
|   |   |   |   |   |   |   bin134 < 3.5 : NO (2/0)
|   |   |   |   |   |   |   bin134 >= 3.5 : YES (1/0)
|   |   |   |   |   |   bin16 >= 17 : YES (5/0)
|   |   |   bin103 >= 13 : NO (2/0)
|   |   bin246 >= 3.5 : YES (19/0)
bin163 >= 27
|   bin31 < 62.5 : NO (21/0)
|   bin31 >= 62.5
|   |   bin146 < 41.5 : NO (1/0)
|   |   bin146 >= 41.5 : YES (5/0)

Size of the tree : 31Accuracy of RandomTree: 63,00%
---------------------------------Decision Stump

Classifications

bin163 <= 27.0 : YES
bin163 > 27.0 : NO
bin163 is missing : NO

Class distributions

bin163 <= 27.0
YES	NO	
0.6271186440677966	0.3728813559322034	
bin163 > 27.0
YES	NO	
0.0967741935483871	0.9032258064516129	
bin163 is missing
YES	NO	
0.4444444444444444	0.5555555555555556	
Decision Stump

Classifications

bin166 <= 28.5 : YES
bin166 > 28.5 : NO
bin166 is missing : NO

Class distributions

bin166 <= 28.5
YES	NO	
0.6166666666666667	0.38333333333333336	
bin166 > 28.5
YES	NO	
0.1	0.9	
bin166 is missing
YES	NO	
0.4444444444444444	0.5555555555555556	
Decision Stump

Classifications

bin166 <= 28.5 : YES
bin166 > 28.5 : NO
bin166 is missing : NO

Class distributions

bin166 <= 28.5
YES	NO	
0.6101694915254238	0.3898305084745763	
bin166 > 28.5
YES	NO	
0.12903225806451613	0.8709677419354839	
bin166 is missing
YES	NO	
0.4444444444444444	0.5555555555555556	
Decision Stump

Classifications

bin166 <= 28.5 : YES
bin166 > 28.5 : NO
bin166 is missing : NO

Class distributions

bin166 <= 28.5
YES	NO	
0.6166666666666667	0.38333333333333336	
bin166 > 28.5
YES	NO	
0.1	0.9	
bin166 is missing
YES	NO	
0.4444444444444444	0.5555555555555556	
Decision Stump

Classifications

bin166 <= 28.5 : YES
bin166 > 28.5 : NO
bin166 is missing : NO

Class distributions

bin166 <= 28.5
YES	NO	
0.6166666666666667	0.38333333333333336	
bin166 > 28.5
YES	NO	
0.1	0.9	
bin166 is missing
YES	NO	
0.4444444444444444	0.5555555555555556	
Decision Stump

Classifications

bin166 <= 28.5 : YES
bin166 > 28.5 : NO
bin166 is missing : YES

Class distributions

bin166 <= 28.5
YES	NO	
0.7076923076923077	0.2923076923076923	
bin166 > 28.5
YES	NO	
0.16	0.84	
bin166 is missing
YES	NO	
0.5555555555555556	0.4444444444444444	
Decision Stump

Classifications

bin5 <= 10.5 : NO
bin5 > 10.5 : YES
bin5 is missing : YES

Class distributions

bin5 <= 10.5
YES	NO	
0.275	0.725	
bin5 > 10.5
YES	NO	
0.78	0.22	
bin5 is missing
YES	NO	
0.5555555555555556	0.4444444444444444	
Decision Stump

Classifications

bin172 <= 28.5 : YES
bin172 > 28.5 : NO
bin172 is missing : YES

Class distributions

bin172 <= 28.5
YES	NO	
0.7540983606557377	0.2459016393442623	
bin172 > 28.5
YES	NO	
0.13793103448275862	0.8620689655172413	
bin172 is missing
YES	NO	
0.5555555555555556	0.4444444444444444	
Decision Stump

Classifications

bin166 <= 28.5 : YES
bin166 > 28.5 : NO
bin166 is missing : YES

Class distributions

bin166 <= 28.5
YES	NO	
0.71875	0.28125	
bin166 > 28.5
YES	NO	
0.15384615384615385	0.8461538461538461	
bin166 is missing
YES	NO	
0.5555555555555556	0.4444444444444444	
Decision Stump

Classifications

bin166 <= 28.5 : YES
bin166 > 28.5 : NO
bin166 is missing : YES

Class distributions

bin166 <= 28.5
YES	NO	
0.7076923076923077	0.2923076923076923	
bin166 > 28.5
YES	NO	
0.16	0.84	
bin166 is missing
YES	NO	
0.5555555555555556	0.4444444444444444	
Accuracy of DecisionStump: 69,00%
---------------------------------